{"learner":{"attributes":{"best_iteration":"0","best_score":"0.9262158351133699"},"feature_names":[],"feature_types":[],"gradient_booster":{"model":{"gbtree_model_param":{"num_parallel_tree":"1","num_trees":"51"},"iteration_indptr":[0,1,2,3,4,5,6,7,8,9,10,11,12,13,14,15,16,17,18,19,20,21,22,23,24,25,26,27,28,29,30,31,32,33,34,35,36,37,38,39,40,41,42,43,44,45,46,47,48,49,50,51],"tree_info":[0,0,0,0,0,0,0,0,0,0,0,0,0,0,0,0,0,0,0,0,0,0,0,0,0,0,0,0,0,0,0,0,0,0,0,0,0,0,0,0,0,0,0,0,0,0,0,0,0,0,0],"trees":[{"base_weights":[4.985915E-10,-2.7592855E-2,9.657499E-1,-1.05628945E-1,3.632606E-1,7.9398975E-2,1.5312432E-2,-1.3397457E-1,8.5683E-1,5.4667115E-1,-6.056865E-1,-1.5219732E-1,8.350389E-2,7.607059E-2,2.6102902E-3,6.554358E-1,-4.6011394E-1,-6.250978E-2,-2.4162292E-2,-1.3085681E-1,-8.6587325E-2,-3.076882E-1,7.6567924E-1,-4.097711E-2,-7.5514237E-3,-1.0409405E-2,7.6911473E-3,-1.1055998E-2,7.334217E-2,5.1655364E-4,-4.6928067E-2,6.0878195E-2,-1.9618459E-2],"categories":[],"categories_nodes":[],"categories_segments":[],"categories_sizes":[],"default_left":[0,0,0,0,0,0,0,0,0,0,0,0,0,0,0,0,0,0,0,0,0,0,0,0,0,0,0,0,0,0,0,0,0],"id":0,"left_children":[1,3,5,7,9,-1,-1,11,13,15,17,19,-1,-1,-1,21,23,-1,25,27,-1,29,31,-1,-1,-1,-1,-1,-1,-1,-1,-1,-1],"loss_changes":[6.715245E0,7.5110364E0,2.7913332E-1,5.7075005E0,7.6174316E0,0E0,0E0,4.715519E0,7.412405E-1,4.1341667E0,9.0706754E-1,4.084067E0,0E0,0E0,0E0,3.6332903E0,6.898844E-2,0E0,5.780747E-2,3.7237763E0,0E0,4.0447396E-1,1.5835838E0,0E0,0E0,0E0,0E0,0E0,0E0,0E0,0E0,0E0,0E0],"parents":[2147483647,0,0,1,1,2,2,3,3,4,4,7,7,8,8,9,9,10,10,11,11,15,15,16,16,18,18,19,19,21,21,22,22],"right_children":[2,4,6,8,10,-1,-1,12,14,16,18,20,-1,-1,-1,22,24,-1,26,28,-1,30,32,-1,-1,-1,-1,-1,-1,-1,-1,-1,-1],"split_conditions":[7.5553936E-1,6.33583E1,1E0,7.3800707E-1,5.9E1,7.9398975E-2,1.5312432E-2,9.0225184E-1,2.8E1,4.505525E-1,3.4E1,6E1,8.350389E-2,7.607059E-2,2.6102902E-3,1.45E1,2E0,-6.250978E-2,1E0,5.94E1,-8.6587325E-2,1E0,1E0,-4.097711E-2,-7.5514237E-3,-1.0409405E-2,7.6911473E-3,-1.1055998E-2,7.334217E-2,5.1655364E-4,-4.6928067E-2,6.0878195E-2,-1.9618459E-2],"split_indices":[67,5,151,203,2,0,0,51,2,82,6,5,0,0,0,2,0,0,1,5,0,3,84,0,0,0,0,0,0,0,0,0,0],"split_type":[0,0,0,0,0,0,0,0,0,0,0,0,0,0,0,0,0,0,0,0,0,0,0,0,0,0,0,0,0,0,0,0,0],"sum_hessian":[2.5E2,2.44E2,6E0,2.04E2,4E1,5E0,1E0,1.99E2,5E0,3.4E1,6E0,1.97E2,2E0,4E0,1E0,3.1E1,3E0,4E0,2E0,1.94E2,3E0,3E0,2.8E1,2E0,1E0,1E0,1E0,1.92E2,2E0,2E0,1E0,2.7E1,1E0],"tree_param":{"num_deleted":"0","num_feature":"208","num_nodes":"33","size_leaf_vector":"1"}},{"base_weights":[4.5292516E-4,-2.544595E-2,9.0684885E-1,-9.7034186E-2,3.3311588E-1,7.443654E-2,1.4738216E-2,-1.2363048E-1,8.056813E-1,5.041371E-1,-5.695783E-1,-1.4090528E-1,7.932869E-2,7.150635E-2,2.5124042E-3,6.061171E-1,-4.3773752E-1,-5.8759194E-2,-2.3256203E-2,-1.2072315E-1,-8.171679E-2,-2.962145E-1,7.096761E-1,-3.8928255E-2,-7.268246E-3,-1.0019053E-2,7.4027297E-3,-7.408702E-3,-7.010282E-2,4.907262E-4,-4.5168262E-2,5.6475397E-2,-1.8882768E-2],"categories":[],"categories_nodes":[],"categories_segments":[],"categories_sizes":[],"default_left":[0,0,0,0,0,0,0,0,0,0,0,0,0,0,0,0,0,0,0,0,0,0,0,0,0,0,0,0,0,0,0,0,0],"id":1,"left_children":[1,3,5,7,9,-1,-1,11,13,15,17,19,-1,-1,-1,21,23,-1,25,27,-1,29,31,-1,-1,-1,-1,-1,-1,-1,-1,-1,-1],"loss_changes":[5.915209E0,6.321182E0,2.3079252E-1,5.0214276E0,6.6167197E0,0E0,0E0,4.2305403E0,6.5254045E-1,3.6271553E0,7.9970217E-1,3.6593347E0,0E0,0E0,0E0,3.2004404E0,6.054473E-2,0E0,5.3553198E-2,3.3901958E0,0E0,3.745508E-1,1.397686E0,0E0,0E0,0E0,0E0,0E0,0E0,0E0,0E0,0E0,0E0],"parents":[2147483647,0,0,1,1,2,2,3,3,4,4,7,7,8,8,9,9,10,10,11,11,15,15,16,16,18,18,19,19,21,21,22,22],"right_children":[2,4,6,8,10,-1,-1,12,14,16,18,20,-1,-1,-1,22,24,-1,26,28,-1,30,32,-1,-1,-1,-1,-1,-1,-1,-1,-1,-1],"split_conditions":[7.5553936E-1,6.33583E1,1E0,7.3800707E-1,5.9E1,7.443654E-2,1.4738216E-2,9.0225184E-1,2.8E1,4.505525E-1,3.4E1,6E1,7.932869E-2,7.150635E-2,2.5124042E-3,1.45E1,2E0,-5.8759194E-2,1E0,5.251434E-1,-8.171679E-2,1E0,1E0,-3.8928255E-2,-7.268246E-3,-1.0019053E-2,7.4027297E-3,-7.408702E-3,-7.010282E-2,4.907262E-4,-4.5168262E-2,5.6475397E-2,-1.8882768E-2],"split_indices":[67,5,151,203,2,0,0,51,2,82,6,5,0,0,0,2,0,0,1,207,0,3,84,0,0,0,0,0,0,0,0,0,0],"split_type":[0,0,0,0,0,0,0,0,0,0,0,0,0,0,0,0,0,0,0,0,0,0,0,0,0,0,0,0,0,0,0,0,0],"sum_hessian":[2.5E2,2.44E2,6E0,2.04E2,4E1,5E0,1E0,1.99E2,5E0,3.4E1,6E0,1.97E2,2E0,4E0,1E0,3.1E1,3E0,4E0,2E0,1.94E2,3E0,3E0,2.8E1,2E0,1E0,1E0,1E0,1.9E2,4E0,2E0,1E0,2.7E1,1E0],"tree_param":{"num_deleted":"0","num_feature":"208","num_nodes":"33","size_leaf_vector":"1"}},{"base_weights":[2.9400684E-4,-2.4029491E-2,8.515744E-1,-8.978531E-2,3.0533567E-1,6.9784254E-2,1.4185534E-2,-1.1475769E-1,7.575916E-1,4.648045E-1,-5.3562784E-1,-1.3114156E-1,7.536225E-2,6.721597E-2,2.4181893E-3,6.29429E-1,-8.071395E-2,-5.5233642E-2,-2.2384102E-2,-1.01181924E-1,-7.4905133E-1,6.7227846E-1,-1.8174663E-2,-5.3189355E-1,4.6217542E-2,-9.643339E-3,7.125127E-3,-6.2836288E-3,-8.684011E-2,5.5063948E-2,-7.6967195E-2,5.4610383E-2,9.796024E-5,-5.615369E-2,-1.772276E-2],"categories":[],"categories_nodes":[],"categories_segments":[],"categories_sizes":[],"default_left":[0,0,0,0,0,0,0,0,0,0,0,0,0,0,0,0,0,0,0,0,0,0,0,0,0,0,0,0,0,0,0,0,0,0,0],"id":2,"left_children":[1,3,5,7,9,-1,-1,11,13,15,17,19,-1,-1,-1,21,23,-1,25,27,29,31,-1,33,-1,-1,-1,-1,-1,-1,-1,-1,-1,-1,-1],"loss_changes":[5.217698E0,5.3335447E0,1.8979311E-1,4.4249487E0,5.747367E0,0E0,0E0,3.8004093E0,5.743971E-1,3.194003E0,7.0500493E-1,3.5896547E0,0E0,0E0,0E0,1.1714811E0,3.1578085E0,0E0,4.961202E-2,3.396439E0,4.453529E0,9.7354126E-1,0E0,2.0761883E-1,0E0,0E0,0E0,0E0,0E0,0E0,0E0,0E0,0E0,0E0,0E0],"parents":[2147483647,0,0,1,1,2,2,3,3,4,4,7,7,8,8,9,9,10,10,11,11,15,15,16,16,18,18,19,19,20,20,21,21,23,23],"right_children":[2,4,6,8,10,-1,-1,12,14,16,18,20,-1,-1,-1,22,24,-1,26,28,30,32,-1,34,-1,-1,-1,-1,-1,-1,-1,-1,-1,-1,-1],"split_conditions":[7.5553936E-1,6.33583E1,1E0,7.3800707E-1,5.9E1,6.9784254E-2,1.4185534E-2,9.0225184E-1,2.8E1,2.115E2,3.4E1,4.7999677E-1,7.536225E-2,6.721597E-2,2.4181893E-3,1E0,4.8E1,-5.5233642E-2,1E0,6.9103265E-1,2E1,5.5057985E-1,-1.8174663E-2,1E0,4.6217542E-2,-9.643339E-3,7.125127E-3,-6.2836288E-3,-8.684011E-2,5.5063948E-2,-7.6967195E-2,5.4610383E-2,9.796024E-5,-5.615369E-2,-1.772276E-2],"split_indices":[67,5,151,203,2,0,0,51,2,5,6,84,0,0,0,84,2,0,1,43,2,100,0,204,0,0,0,0,0,0,0,0,0,0,0],"split_type":[0,0,0,0,0,0,0,0,0,0,0,0,0,0,0,0,0,0,0,0,0,0,0,0,0,0,0,0,0,0,0,0,0,0,0],"sum_hessian":[2.5E2,2.44E2,6E0,2.04E2,4E1,5E0,1E0,1.99E2,5E0,3.4E1,6E0,1.97E2,2E0,4E0,1E0,2.6E1,8E0,4E0,2E0,1.89E2,8E0,2.5E1,1E0,5E0,3E0,1E0,1E0,1.87E2,2E0,1E0,7E0,2.3E1,2E0,2E0,3E0],"tree_param":{"num_deleted":"0","num_feature":"208","num_nodes":"35","size_leaf_vector":"1"}},{"base_weights":[5.311745E-4,-2.2304447E-2,7.9970205E-1,-8.29052E-2,2.8124335E-1,8.723032E-1,1.3653575E-2,-1.0634917E-1,7.123779E-1,4.3019772E-1,-5.0370604E-1,7.09098E-2,1.8993726E-2,-1.2188687E-1,7.159414E-2,6.963395E-2,1.8681896E-1,5.2198374E-1,-4.116398E-1,-6.9226164E-1,-2.1544695E-2,-1.3748974E-1,7.035968E-2,1.8689627E-2,2.327507E-3,-2.8480643E-1,6.1526567E-1,-3.5134934E-2,-9.043575E-3,-5.7129513E-2,-1.5540039E-2,-9.2817135E-3,6.857935E-3,-7.500555E-3,-7.5436786E-2,-9.015188E-4,-4.136869E-2,4.9042467E-2,-1.7493114E-2],"categories":[],"categories_nodes":[],"categories_segments":[],"categories_sizes":[],"default_left":[0,0,0,0,0,0,0,0,0,0,0,0,0,0,0,0,0,0,0,0,0,0,0,0,0,0,0,0,0,0,0,0,0,0,0,0,0,0,0],"id":3,"left_children":[1,3,5,7,9,11,-1,13,15,17,19,-1,-1,21,-1,-1,23,25,27,29,31,33,-1,-1,-1,35,37,-1,-1,-1,-1,-1,-1,-1,-1,-1,-1,-1,-1],"loss_changes":[4.5984774E0,4.530147E0,1.5509605E-1,3.8979025E0,5.01048E0,3.230381E-2,0E0,3.4132578E0,5.079074E-1,2.919282E0,6.2148523E-1,0E0,0E0,3.4037607E0,0E0,0E0,2.1418497E-2,2.583519E0,9.670734E-3,1.0643959E-2,4.596089E-2,6.27866E0,0E0,0E0,0E0,2.8446114E-1,1.1031675E0,0E0,0E0,0E0,0E0,0E0,0E0,0E0,0E0,0E0,0E0,0E0,0E0],"parents":[2147483647,0,0,1,1,2,2,3,3,4,4,5,5,7,7,8,8,9,9,10,10,13,13,16,16,17,17,18,18,19,19,20,20,21,21,25,25,26,26],"right_children":[2,4,6,8,10,12,-1,14,16,18,20,-1,-1,22,-1,-1,24,26,28,30,32,34,-1,-1,-1,36,38,-1,-1,-1,-1,-1,-1,-1,-1,-1,-1,-1,-1],"split_conditions":[7.5553936E-1,6.33583E1,1E0,7.3800707E-1,5.9E1,2.0575E1,1.3653575E-2,9.0225184E-1,2.659904E-1,4.505525E-1,3.4E1,7.09098E-2,1.8993726E-2,6.698879E-1,7.159414E-2,6.963395E-2,2E0,1.45E1,2E0,1E0,1E0,5.2E1,7.035968E-2,1.8689627E-2,2.327507E-3,1E0,1E0,-3.5134934E-2,-9.043575E-3,-5.7129513E-2,-1.5540039E-2,-9.2817135E-3,6.857935E-3,-7.500555E-3,-7.5436786E-2,-9.015188E-4,-4.136869E-2,4.9042467E-2,-1.7493114E-2],"split_indices":[67,5,151,203,2,5,0,51,82,82,6,0,0,48,0,0,2,2,0,1,1,5,0,0,0,3,84,0,0,0,0,0,0,0,0,0,0,0,0],"split_type":[0,0,0,0,0,0,0,0,0,0,0,0,0,0,0,0,0,0,0,0,0,0,0,0,0,0,0,0,0,0,0,0,0,0,0,0,0,0,0],"sum_hessian":[2.5E2,2.44E2,6E0,2.04E2,4E1,5E0,1E0,1.99E2,5E0,3.4E1,6E0,4E0,1E0,1.97E2,2E0,3E0,2E0,3.1E1,3E0,4E0,2E0,1.95E2,2E0,1E0,1E0,3E0,2.8E1,2E0,1E0,3E0,1E0,1E0,1E0,1.88E2,7E0,2E0,1E0,2.7E1,1E0],"tree_param":{"num_deleted":"0","num_feature":"208","num_nodes":"39","size_leaf_vector":"1"}},{"base_weights":[9.822958E-4,-2.0551313E-2,7.545183E-1,-7.595724E-2,2.5697955E-1,8.2186437E-1,1.3141566E-2,-9.807791E-2,6.740581E-1,3.9636433E-1,-4.766557E-1,6.665521E-2,1.8281462E-2,-1.1331281E-1,7.050886E-2,7.9692185E-1,2.2402254E-3,5.44664E-1,-9.2575155E-2,-6.5487593E-1,-2.0736769E-2,1.191872E-1,-1.8445878E-1,1.7988766E-2,6.571704E-2,5.8288145E-1,-1.6837122E-2,-5.0205535E-1,5.447889E-1,-5.3915974E-2,-1.4957287E-2,-8.933649E-3,6.6007623E-3,-4.3384023E-2,1.6200928E-2,-1.5355702E-2,6.684169E-2,4.749793E-2,-1.1104618E-3,-5.143341E-2,-1.7906167E-2,1.8465696E-2,5.4019794E-2],"categories":[],"categories_nodes":[],"categories_segments":[],"categories_sizes":[],"default_left":[0,0,0,0,0,0,0,0,0,0,0,0,0,0,0,0,0,0,0,0,0,0,0,0,0,0,0,0,0,0,0,0,0,0,0,0,0,0,0,0,0,0,0],"id":4,"left_children":[1,3,5,7,9,11,-1,13,15,17,19,-1,-1,21,-1,23,-1,25,27,29,31,33,35,-1,-1,37,-1,39,41,-1,-1,-1,-1,-1,-1,-1,-1,-1,-1,-1,-1,-1,-1],"loss_changes":[4.08832E0,3.7868488E0,1.2908626E-1,3.4672332E0,4.38149E0,1.5323639E-2,0E0,3.2698903E0,4.5108056E-1,2.5882568E0,5.5519795E-1,0E0,0E0,3.29719E0,0E0,1.0730743E-2,0E0,9.2452717E-1,2.6224055E0,2.3844242E-3,4.257845E-2,3.299765E0,3.4989614E0,0E0,0E0,7.92963E-1,0E0,1.2652457E-1,3.223741E-2,0E0,0E0,0E0,0E0,0E0,0E0,0E0,0E0,0E0,0E0,0E0,0E0,0E0,0E0],"parents":[2147483647,0,0,1,1,2,2,3,3,4,4,5,5,7,7,8,8,9,9,10,10,13,13,15,15,17,17,18,18,19,19,20,20,21,21,22,22,25,25,27,27,28,28],"right_children":[2,4,6,8,10,12,-1,14,16,18,20,-1,-1,22,-1,24,-1,26,28,30,32,34,36,-1,-1,38,-1,40,42,-1,-1,-1,-1,-1,-1,-1,-1,-1,-1,-1,-1,-1,-1],"split_conditions":[7.5553936E-1,6.33583E1,1E0,7.3800707E-1,5.9E1,2.0575E1,1.3141566E-2,6.48884E-1,2.8E1,2.115E2,3.4E1,6.665521E-2,1.8281462E-2,7.7792E0,7.050886E-2,2E0,2.2402254E-3,1E0,4.8E1,1E0,1E0,1.9E1,6.698879E-1,1.7988766E-2,6.571704E-2,5.5057985E-1,-1.6837122E-2,1E0,1E0,-5.3915974E-2,-1.4957287E-2,-8.933649E-3,6.6007623E-3,-4.3384023E-2,1.6200928E-2,-1.5355702E-2,6.684169E-2,4.749793E-2,-1.1104618E-3,-5.143341E-2,-1.7906167E-2,1.8465696E-2,5.4019794E-2],"split_indices":[67,5,151,203,2,5,0,29,2,5,6,0,0,5,0,2,0,84,2,1,1,2,48,0,0,100,0,204,1,0,0,0,0,0,0,0,0,0,0,0,0,0,0],"split_type":[0,0,0,0,0,0,0,0,0,0,0,0,0,0,0,0,0,0,0,0,0,0,0,0,0,0,0,0,0,0,0,0,0,0,0,0,0,0,0,0,0,0,0],"sum_hessian":[2.5E2,2.44E2,6E0,2.04E2,4E1,5E0,1E0,1.99E2,5E0,3.4E1,6E0,4E0,1E0,1.97E2,2E0,4E0,1E0,2.6E1,8E0,4E0,2E0,4.6E1,1.51E2,1E0,3E0,2.5E1,1E0,5E0,3E0,3E0,1E0,1E0,1E0,5E0,4.1E1,1.49E2,2E0,2.3E1,2E0,2E0,3E0,2E0,1E0],"tree_param":{"num_deleted":"0","num_feature":"208","num_nodes":"43","size_leaf_vector":"1"}},{"base_weights":[1.8660966E-3,1.9210285E-2,-6.4148255E-2,3.6817763E-2,-8.4035516E-1,6.5177895E-2,-5.145463E-1,-1.2063042E-2,-7.2751775E-2,2.2668757E-2,5.693049E-1,-7.8234875E-1,1.6847009E-2,5.039758E-2,-4.9615642E-1,6.4023155E-1,-2.3866806E-2,-9.481243E-1,-1.9001478E-1,3.354733E-1,-2.3054622E-2,5.0459863E-3,-8.3157495E-2,8.554129E-3,-7.677563E-2,5.2612506E-2,-1.27524305E-2,-7.957263E-2,-1.4396389E-2,-4.1784835E-3,-1.719818E-2,3.1387515E-2,6.3532335E-3],"categories":[],"categories_nodes":[],"categories_segments":[],"categories_sizes":[],"default_left":[0,0,0,0,0,0,0,0,0,0,0,0,0,0,0,0,0,0,0,0,0,0,0,0,0,0,0,0,0,0,0,0,0],"id":5,"left_children":[1,3,-1,5,7,9,11,-1,-1,13,15,17,19,21,23,25,-1,27,29,31,-1,-1,-1,-1,-1,-1,-1,-1,-1,-1,-1,-1,-1],"loss_changes":[3.748054E0,3.76923E0,0E0,3.8332686E0,2.8453922E-1,4.9588556E0,1.7208812E0,0E0,0E0,3.118083E0,1.3368273E0,6.0539865E-1,6.1968285E-1,4.0863013E0,3.6576328E0,9.632206E-1,0E0,3.0832243E-1,3.0563325E-3,2.7009279E-2,0E0,0E0,0E0,0E0,0E0,0E0,0E0,0E0,0E0,0E0,0E0,0E0,0E0],"parents":[2147483647,0,0,1,1,3,3,4,4,5,5,6,6,9,9,10,10,11,11,12,12,13,13,14,14,15,15,17,17,18,18,19,19],"right_children":[2,4,-1,6,8,10,12,-1,-1,14,16,18,20,22,24,26,-1,28,30,32,-1,-1,-1,-1,-1,-1,-1,-1,-1,-1,-1,-1,-1],"split_conditions":[5.251434E-1,6.3283956E-1,-6.4148255E-2,6E1,2E0,4.8E1,6.4E1,-1.2063042E-2,-7.2751775E-2,4.7999677E-1,8.34659E-1,2.9330632E-1,7.62917E1,6.9103265E-1,2.5E1,3.497845E-1,-2.3866806E-2,6.5632236E-1,3E0,1E0,-2.3054622E-2,5.0459863E-3,-8.3157495E-2,8.554129E-3,-7.677563E-2,5.2612506E-2,-1.27524305E-2,-7.957263E-2,-1.4396389E-2,-4.1784835E-3,-1.719818E-2,3.1387515E-2,6.3532335E-3],"split_indices":[207,37,0,2,0,2,2,0,0,84,20,83,5,9,2,83,0,13,0,1,0,0,0,0,0,0,0,0,0,0,0,0,0],"split_type":[0,0,0,0,0,0,0,0,0,0,0,0,0,0,0,0,0,0,0,0,0,0,0,0,0,0,0,0,0,0,0,0,0],"sum_hessian":[2.5E2,2.46E2,4E0,2.42E2,4E0,2.31E2,1.1E1,1E0,3E0,2.14E2,1.7E1,7E0,4E0,2.04E2,1E1,1.6E1,1E0,5E0,2E0,2E0,2E0,2.02E2,2E0,5E0,5E0,1.5E1,1E0,4E0,1E0,1E0,1E0,1E0,1E0],"tree_param":{"num_deleted":"0","num_feature":"208","num_nodes":"33","size_leaf_vector":"1"}},{"base_weights":[2.1234594E-4,-1.980589E-2,7.0082027E-1,-3.454298E-3,-6.029936E-2,5.7168595E-2,1.2459533E-2,1.3244606E-2,-7.9429144E-1,3.9606612E-2,-4.8434356E-1,-1.16106775E-2,-6.865949E-2,-1.8846909E-2,3.702514E-1,-7.380908E-1,1.8520718E-2,1.8564277E-5,-6.908405E-2,3.6701195E-2,-5.8489E-3,-6.695073E-2,-1.3716693E-2,2.421698E-2,-2.190189E-2],"categories":[],"categories_nodes":[],"categories_segments":[],"categories_sizes":[],"default_left":[0,0,0,0,0,0,0,0,0,0,0,0,0,0,0,0,0,0,0,0,0,0,0,0,0],"id":6,"left_children":[1,3,5,7,-1,-1,-1,9,11,13,15,-1,-1,17,19,21,23,-1,-1,-1,-1,-1,-1,-1,-1],"loss_changes":[3.534139E0,3.1387796E0,1.03284836E-1,3.1931937E0,0E0,0E0,0E0,3.1280122E0,2.4570346E-1,4.3749595E0,1.5448749E0,0E0,0E0,3.3253102E0,1.8532195E0,5.233493E-1,5.6690085E-1,0E0,0E0,0E0,0E0,0E0,0E0,0E0,0E0],"parents":[2147483647,0,0,1,1,2,2,3,3,7,7,8,8,9,9,10,10,13,13,14,14,15,15,16,16],"right_children":[2,4,6,8,-1,-1,-1,10,12,14,16,-1,-1,18,20,22,24,-1,-1,-1,-1,-1,-1,-1,-1],"split_conditions":[7.5553936E-1,5.251434E-1,1E0,6.3283956E-1,-6.029936E-2,5.7168595E-2,1.2459533E-2,6E1,2E0,6.33583E1,6.4E1,-1.16106775E-2,-6.865949E-2,6E1,2.115E2,2.9330632E-1,7.62917E1,1.8564277E-5,-6.908405E-2,3.6701195E-2,-5.8489E-3,-6.695073E-2,-1.3716693E-2,2.421698E-2,-2.190189E-2],"split_indices":[67,207,151,37,0,0,0,2,0,5,2,0,0,5,5,83,5,0,0,0,0,0,0,0,0],"split_type":[0,0,0,0,0,0,0,0,0,0,0,0,0,0,0,0,0,0,0,0,0,0,0,0,0],"sum_hessian":[2.5E2,2.44E2,6E0,2.4E2,4E0,5E0,1E0,2.36E2,4E0,2.25E2,1.1E1,1E0,3E0,1.92E2,3.3E1,7E0,4E0,1.89E2,3E0,2.6E1,7E0,5E0,2E0,2E0,2E0],"tree_param":{"num_deleted":"0","num_feature":"208","num_nodes":"25","size_leaf_vector":"1"}},{"base_weights":[-5.506128E-4,-1.9369971E-2,6.5820557E-1,-3.4939986E-2,7.349786E-1,7.146074E-1,1.19923E-2,-5.177404E-2,6.3302296E-1,6.092674E-2,1.5955023E-2,5.8209527E-2,1.526286E-2,-3.871219E-2,-7.900055E-2,7.491406E-1,1.9662965E-3,-8.653355E-2,1.9538474E-1,1.7124265E-2,6.1669804E-2,-7.939601E-3,5.0182115E-2,3.946389E-2,-1.8107187E-3],"categories":[],"categories_nodes":[],"categories_segments":[],"categories_sizes":[],"default_left":[0,0,0,0,0,0,0,0,0,0,0,0,0,0,0,0,0,0,0,0,0,0,0,0,0],"id":7,"left_children":[1,3,5,7,9,11,-1,13,15,-1,-1,-1,-1,17,-1,19,-1,21,23,-1,-1,-1,-1,-1,-1],"loss_changes":[3.124489E0,2.9032583E0,8.247495E-2,2.742705E0,2.9235125E-2,3.0710936E-2,0E0,3.0466492E0,4.031248E-1,0E0,0E0,0E0,0E0,2.6364985E0,0E0,2.6774406E-3,0E0,2.9187346E0,2.9174976E0,0E0,0E0,0E0,0E0,0E0,0E0],"parents":[2147483647,0,0,1,1,2,2,3,3,4,4,5,5,7,7,8,8,13,13,15,15,17,17,18,18],"right_children":[2,4,6,8,10,12,-1,14,16,-1,-1,-1,-1,18,-1,20,-1,22,24,-1,-1,-1,-1,-1,-1],"split_conditions":[7.5553936E-1,6.267426E-1,1E0,7.3800707E-1,2.3064895E-1,2.0575E1,1.19923E-2,6.9103265E-1,2.8E1,6.092674E-2,1.5955023E-2,5.8209527E-2,1.526286E-2,6.33583E1,-7.900055E-2,2E0,1.9662965E-3,1E0,1E1,1.7124265E-2,6.1669804E-2,-7.939601E-3,5.0182115E-2,3.946389E-2,-1.8107187E-3],"split_indices":[67,99,151,203,83,5,0,9,2,0,0,0,0,5,0,2,0,206,6,0,0,0,0,0,0],"split_type":[0,0,0,0,0,0,0,0,0,0,0,0,0,0,0,0,0,0,0,0,0,0,0,0,0],"sum_hessian":[2.5E2,2.44E2,6E0,2.4E2,4E0,5E0,1E0,2.35E2,5E0,3E0,1E0,4E0,1E0,2.33E2,2E0,4E0,1E0,1.94E2,3.9E1,1E0,3E0,1.9E2,4E0,1.5E1,2.4E1],"tree_param":{"num_deleted":"0","num_feature":"208","num_nodes":"25","size_leaf_vector":"1"}},{"base_weights":[4.6280702E-4,1.5640346E-2,-7.4940026E-1,3.1240348E-2,-7.456477E-1,-6.182187E-2,-1.686881E-2,5.601469E-2,-4.5033363E-1,-1.1107377E-2,-6.435079E-2,1.8678574E-2,4.988619E-1,-5.6303084E-1,2.9600082E-2,5.2717794E-3,7.232511E-2,5.63775E-1,-2.2674762E-2,-7.285805E-1,-9.117377E-2,2.2919741E-3,-3.464128E-2,4.6580873E-2,-1.32404445E-2,-6.6817105E-2,-1.208189E-2,5.2747526E-3,-1.2633879E-2],"categories":[],"categories_nodes":[],"categories_segments":[],"categories_sizes":[],"default_left":[0,0,0,0,0,0,0,0,0,0,0,0,0,0,0,0,0,0,0,0,0,0,0,0,0,0,0,0,0],"id":8,"left_children":[1,3,5,7,9,-1,-1,11,13,-1,-1,15,17,19,-1,21,-1,23,-1,25,27,-1,-1,-1,-1,-1,-1,-1,-1],"loss_changes":[2.8683712E0,2.9566894E0,1.09984875E-2,2.92438E0,2.0864153E-1,0E0,0E0,3.8266153E0,1.3649616E0,0E0,0E0,2.720733E0,1.1065869E0,7.9284644E-1,0E0,2.5303628E0,0E0,8.3082724E-1,0E0,5.933757E-1,6.1769947E-2,0E0,0E0,0E0,0E0,0E0,0E0,0E0,0E0],"parents":[2147483647,0,0,1,1,2,2,3,3,4,4,7,7,8,8,11,11,12,12,13,13,15,15,17,17,19,19,20,20],"right_children":[2,4,6,8,10,-1,-1,12,14,-1,-1,16,18,20,-1,22,-1,24,-1,26,28,-1,-1,-1,-1,-1,-1,-1,-1],"split_conditions":[5.251434E-1,6.3283956E-1,3E1,6E1,2E0,-6.182187E-2,-1.686881E-2,4.8E1,5.9866315E-1,-1.1107377E-2,-6.435079E-2,6.435612E-1,8.34659E-1,2.9330632E-1,2.9600082E-2,4.7999677E-1,7.232511E-2,6.484944E-1,-2.2674762E-2,5.6878173E-1,2E0,2.2919741E-3,-3.464128E-2,4.6580873E-2,-1.32404445E-2,-6.6817105E-2,-1.208189E-2,5.2747526E-3,-1.2633879E-2],"split_indices":[207,37,2,2,0,0,0,2,17,0,0,31,20,83,0,84,0,47,0,204,0,0,0,0,0,0,0,0,0],"split_type":[0,0,0,0,0,0,0,0,0,0,0,0,0,0,0,0,0,0,0,0,0,0,0,0,0,0,0,0,0],"sum_hessian":[2.5E2,2.46E2,4E0,2.42E2,4E0,3E0,1E0,2.31E2,1.1E1,1E0,3E0,2.14E2,1.7E1,1E1,1E0,2.12E2,2E0,1.6E1,1E0,7E0,3E0,2.02E2,1E1,1.5E1,1E0,5E0,2E0,1E0,2E0],"tree_param":{"num_deleted":"0","num_feature":"208","num_nodes":"29","size_leaf_vector":"1"}},{"base_weights":[-2.1002274E-4,-1.7722534E-2,6.1275786E-1,-2.8935647E-2,6.723355E-2,6.6396576E-1,1.145664E-2,-4.374085E-2,6.845402E-1,5.39151E-2,1.4604553E-2,-5.5420112E-2,6.701258E-2,5.654027E-2,1.5270761E-2,-6.720014E-2,6.643665E-2,-8.785129E-3,1.343707E-2],"categories":[],"categories_nodes":[],"categories_segments":[],"categories_sizes":[],"default_left":[0,0,0,0,0,0,0,0,0,0,0,0,0,0,0,0,0,0,0],"id":9,"left_children":[1,3,5,7,-1,9,-1,11,13,-1,-1,15,-1,-1,-1,17,-1,-1,-1],"loss_changes":[2.7052457E0,2.5373585E0,6.346631E-2,2.5967891E0,0E0,1.4590025E-2,0E0,2.6656814E0,1.321888E-2,0E0,0E0,2.6873493E0,0E0,0E0,0E0,2.9119601E0,0E0,0E0,0E0],"parents":[2147483647,0,0,1,1,2,2,3,3,5,5,7,7,8,8,11,11,15,15],"right_children":[2,4,6,8,-1,10,-1,12,14,-1,-1,16,-1,-1,-1,18,-1,-1,-1],"split_conditions":[7.5553936E-1,9.0225184E-1,1E0,6.267426E-1,6.723355E-2,2.0575E1,1.145664E-2,6.48884E-1,2.3064895E-1,5.39151E-2,1.4604553E-2,5.5313045E-1,6.701258E-2,5.654027E-2,1.5270761E-2,6.33583E1,6.643665E-2,-8.785129E-3,1.343707E-2],"split_indices":[67,51,151,99,0,5,0,29,83,0,0,90,0,0,0,5,0,0,0],"split_type":[0,0,0,0,0,0,0,0,0,0,0,0,0,0,0,0,0,0,0],"sum_hessian":[2.5E2,2.44E2,6E0,2.42E2,2E0,5E0,1E0,2.38E2,4E0,4E0,1E0,2.36E2,2E0,3E0,1E0,2.34E2,2E0,1.95E2,3.9E1],"tree_param":{"num_deleted":"0","num_feature":"208","num_nodes":"19","size_leaf_vector":"1"}},{"base_weights":[1.2285268E-3,1.5463647E-2,-7.022321E-1,3.0160688E-2,-7.0190525E-1,-1.11947395E-2,-6.023689E-2,5.3539246E-2,-4.2433816E-1,-5.7850227E-2,-1.5906787E-2,1.9817881E-2,4.533478E-1,-5.327799E-1,2.8819522E-2,7.0184045E-3,6.914811E-2,5.13733E-1,-2.1495016E-2,-6.900012E-1,-8.514222E-2,-3.953926E-4,6.518228E-2,4.261241E-2,-1.3394515E-2,-6.29253E-2,-1.2149649E-2,1.4443949E-3,-1.4937925E-2],"categories":[],"categories_nodes":[],"categories_segments":[],"categories_sizes":[],"default_left":[0,0,0,0,0,0,0,0,0,0,0,0,0,0,0,0,0,0,0,0,0,0,0,0,0,0,0,0,0],"id":10,"left_children":[1,3,5,7,9,-1,-1,11,13,-1,-1,15,17,19,-1,21,-1,23,-1,25,27,-1,-1,-1,-1,-1,-1,-1,-1],"loss_changes":[2.5243347E0,2.6253402E0,1.5916371E-1,2.604722E0,6.4487457E-3,0E0,0E0,3.1188605E0,1.2569559E0,0E0,0E0,2.4761631E0,9.515109E-1,7.1541166E-1,0E0,2.2613618E0,0E0,7.4211645E-1,0E0,4.934795E-1,5.1455133E-2,0E0,0E0,0E0,0E0,0E0,0E0,0E0,0E0],"parents":[2147483647,0,0,1,1,2,2,3,3,4,4,7,7,8,8,11,11,12,12,13,13,15,15,17,17,19,19,20,20],"right_children":[2,4,6,8,10,-1,-1,12,14,-1,-1,16,18,20,-1,22,-1,24,-1,26,28,-1,-1,-1,-1,-1,-1,-1,-1],"split_conditions":[6.3283956E-1,5.251434E-1,2E0,6E1,3E1,-1.11947395E-2,-6.023689E-2,4.8E1,5.9866315E-1,-5.7850227E-2,-1.5906787E-2,6.435612E-1,8.34659E-1,2.9330632E-1,2.8819522E-2,9.602913E-1,6.914811E-2,3.497845E-1,-2.1495016E-2,5.6878173E-1,3E0,-3.953926E-4,6.518228E-2,4.261241E-2,-1.3394515E-2,-6.29253E-2,-1.2149649E-2,1.4443949E-3,-1.4937925E-2],"split_indices":[37,207,0,2,2,0,0,2,17,0,0,31,20,83,0,52,0,83,0,204,0,0,0,0,0,0,0,0,0],"split_type":[0,0,0,0,0,0,0,0,0,0,0,0,0,0,0,0,0,0,0,0,0,0,0,0,0,0,0,0,0],"sum_hessian":[2.5E2,2.46E2,4E0,2.42E2,4E0,1E0,3E0,2.31E2,1.1E1,3E0,1E0,2.14E2,1.7E1,1E1,1E0,2.12E2,2E0,1.6E1,1E0,7E0,3E0,2.1E2,2E0,1.5E1,1E0,5E0,2E0,2E0,1E0],"tree_param":{"num_deleted":"0","num_feature":"208","num_nodes":"29","size_leaf_vector":"1"}},{"base_weights":[8.8427676E-4,-1.5448958E-2,5.7242113E-1,-3.1043367E-2,6.1090225E-1,6.187498E-1,1.1041843E-2,-1.874859E-2,-7.470609E-2,5.4120857E-2,2.1508809E-3,5.00588E-2,1.40717095E-2,-3.4572322E-2,5.9886444E-1,-4.5951787E-2,6.3987784E-2,5.7328064E-2,-8.575652E-3,-4.3134918E-3,6.389164E-2],"categories":[],"categories_nodes":[],"categories_segments":[],"categories_sizes":[],"default_left":[0,0,0,0,0,0,0,0,0,0,0,0,0,0,0,0,0,0,0,0,0],"id":11,"left_children":[1,3,5,7,9,11,-1,13,-1,-1,-1,-1,-1,15,17,19,-1,-1,-1,-1,-1],"loss_changes":[2.3519397E0,2.412021E0,4.679656E-2,2.8289065E0,3.6605E-1,7.483959E-4,0E0,2.3466644E0,0E0,0E0,0E0,0E0,0E0,2.3929794E0,7.956555E-1,2.4468493E0,0E0,0E0,0E0,0E0,0E0],"parents":[2147483647,0,0,1,1,2,2,3,3,4,4,5,5,7,7,13,13,14,14,15,15],"right_children":[2,4,6,8,10,12,-1,14,-1,-1,-1,-1,-1,16,18,20,-1,-1,-1,-1,-1],"split_conditions":[7.5553936E-1,7.3800707E-1,1E0,6.9103265E-1,2.8E1,2.0575E1,1.1041843E-2,4.5E1,-7.470609E-2,5.4120857E-2,2.1508809E-3,5.00588E-2,1.40717095E-2,6.698879E-1,2E0,9.0225184E-1,6.3987784E-2,5.7328064E-2,-8.575652E-3,-4.3134918E-3,6.389164E-2],"split_indices":[67,203,151,9,2,5,0,6,0,0,0,0,0,48,4,51,0,0,0,0,0],"split_type":[0,0,0,0,0,0,0,0,0,0,0,0,0,0,0,0,0,0,0,0,0],"sum_hessian":[2.5E2,2.44E2,6E0,2.39E2,5E0,5E0,1E0,2.37E2,2E0,4E0,1E0,4E0,1E0,2.32E2,5E0,2.3E2,2E0,4E0,1E0,2.28E2,2E0],"tree_param":{"num_deleted":"0","num_feature":"208","num_nodes":"21","size_leaf_vector":"1"}},{"base_weights":[1.7305337E-3,1.5130278E-2,-6.6056293E-1,2.8967818E-2,-6.604002E-1,-5.4353517E-2,-1.5148526E-2,5.0696697E-2,-3.9353785E-1,-1.0613181E-2,-5.660593E-2,1.9759787E-2,4.1740444E-1,-6.122953E-1,3.5181664E-2,4.3553066E-2,-4.254568E-1,4.7415715E-1,-2.0527197E-2,-7.429943E-1,-1.4679886E-1,2.8961062E-1,-1.732309E-2,4.3474915E-3,-7.097078E-2,9.109548E-3,-6.760986E-2,3.9619904E-2,-1.4684026E-2,-6.258492E-2,-1.071142E-2,-2.2988757E-3,-1.42159965E-2,2.7900545E-2,4.6806503E-3],"categories":[],"categories_nodes":[],"categories_segments":[],"categories_sizes":[],"default_left":[0,0,0,0,0,0,0,0,0,0,0,0,0,0,0,0,0,0,0,0,0,0,0,0,0,0,0,0,0,0,0,0,0,0,0],"id":12,"left_children":[1,3,5,7,9,-1,-1,11,13,-1,-1,15,17,19,21,23,25,27,-1,29,31,33,-1,-1,-1,-1,-1,-1,-1,-1,-1,-1,-1,-1,-1],"loss_changes":[2.2375097E0,2.3280075E0,7.138252E-4,2.2508307E0,1.3797188E-1,0E0,0E0,2.6237466E0,1.1469685E0,0E0,0E0,2.2960598E0,8.3576775E-1,3.7764883E-1,4.0548182E-1,2.9795673E0,2.9732003E0,7.196686E-1,0E0,2.1021533E-1,9.085171E-3,3.2945544E-2,0E0,0E0,0E0,0E0,0E0,0E0,0E0,0E0,0E0,0E0,0E0,0E0,0E0],"parents":[2147483647,0,0,1,1,2,2,3,3,4,4,7,7,8,8,11,11,12,12,13,13,14,14,15,15,16,16,17,17,19,19,20,20,21,21],"right_children":[2,4,6,8,10,-1,-1,12,14,-1,-1,16,18,20,22,24,26,28,-1,30,32,34,-1,-1,-1,-1,-1,-1,-1,-1,-1,-1,-1,-1,-1],"split_conditions":[5.251434E-1,6.3283956E-1,3E1,6E1,2E0,-5.4353517E-2,-1.5148526E-2,4.8E1,6.4E1,-1.0613181E-2,-5.660593E-2,4.7999677E-1,8.34659E-1,2.9330632E-1,7.62917E1,6.9103265E-1,2.5E1,6.484944E-1,-2.0527197E-2,6.5632236E-1,3E0,1E0,-1.732309E-2,4.3474915E-3,-7.097078E-2,9.109548E-3,-6.760986E-2,3.9619904E-2,-1.4684026E-2,-6.258492E-2,-1.071142E-2,-2.2988757E-3,-1.42159965E-2,2.7900545E-2,4.6806503E-3],"split_indices":[207,37,2,2,0,0,0,2,2,0,0,84,20,83,5,9,2,47,0,13,0,1,0,0,0,0,0,0,0,0,0,0,0,0,0],"split_type":[0,0,0,0,0,0,0,0,0,0,0,0,0,0,0,0,0,0,0,0,0,0,0,0,0,0,0,0,0,0,0,0,0,0,0],"sum_hessian":[2.5E2,2.46E2,4E0,2.42E2,4E0,3E0,1E0,2.31E2,1.1E1,1E0,3E0,2.14E2,1.7E1,7E0,4E0,2.04E2,1E1,1.6E1,1E0,5E0,2E0,2E0,2E0,2.02E2,2E0,5E0,5E0,1.5E1,1E0,4E0,1E0,1E0,1E0,1E0,1E0],"tree_param":{"num_deleted":"0","num_feature":"208","num_nodes":"35","size_leaf_vector":"1"}},{"base_weights":[2.7808474E-4,-9.949403E-3,6.368002E-2,-2.0253913E-2,6.313289E-2,-3.619485E-2,5.3146315E-1,-5.0190393E-2,4.7582466E-2,4.3014776E-2,1.0464744E-2,-9.643624E-2,1.7323941E-1,-8.757117E-3,4.2753495E-2,3.3943456E-2,-1.7731002E-3],"categories":[],"categories_nodes":[],"categories_segments":[],"categories_sizes":[],"default_left":[0,0,0,0,0,0,0,0,0,0,0,0,0,0,0,0,0],"id":13,"left_children":[1,3,-1,5,-1,7,9,11,-1,-1,-1,13,15,-1,-1,-1,-1],"loss_changes":[2.1873732E0,2.2024152E0,0E0,2.191573E0,0E0,2.2938197E0,3.5388112E-2,2.4655564E0,0E0,0E0,0E0,2.7352152E0,2.2655625E0,0E0,0E0,0E0,0E0],"parents":[2147483647,0,0,1,1,3,3,5,5,6,6,7,7,11,11,12,12],"right_children":[2,4,-1,6,-1,8,10,12,-1,-1,-1,14,16,-1,-1,-1,-1],"split_conditions":[6.48884E-1,5.5313045E-1,6.368002E-2,7.5553936E-1,6.313289E-2,1E0,1E0,6.33583E1,4.7582466E-2,4.3014776E-2,1.0464744E-2,7.3800707E-1,1E1,-8.757117E-3,4.2753495E-2,3.3943456E-2,-1.7731002E-3],"split_indices":[29,90,0,67,0,206,151,5,0,0,0,203,6,0,0,0,0],"split_type":[0,0,0,0,0,0,0,0,0,0,0,0,0,0,0,0,0],"sum_hessian":[2.5E2,2.48E2,2E0,2.46E2,2E0,2.4E2,6E0,2.36E2,4E0,5E0,1E0,1.96E2,4E1,1.91E2,5E0,1.6E1,2.4E1],"tree_param":{"num_deleted":"0","num_feature":"208","num_nodes":"17","size_leaf_vector":"1"}},{"base_weights":[1.4287072E-3,-8.577379E-3,6.235933E-2,-2.1588042E-2,4.729954E-2,-3.1838555E-2,6.119246E-2,-4.222873E-2,6.1008886E-2,-5.7357416E-2,5.5987096E-1,-5.1195677E-3,6.0917534E-2,5.362387E-2,-8.088704E-3],"categories":[],"categories_nodes":[],"categories_segments":[],"categories_sizes":[],"default_left":[0,0,0,0,0,0,0,0,0,0,0,0,0,0,0],"id":14,"left_children":[1,3,-1,5,-1,7,-1,9,-1,11,13,-1,-1,-1,-1],"loss_changes":[2.0917726E0,2.0845249E0,0E0,2.1292226E0,0E0,2.1685507E0,0E0,2.227376E0,0E0,2.2930956E0,6.985471E-1,0E0,0E0,0E0,0E0],"parents":[2147483647,0,0,1,1,3,3,5,5,7,7,9,9,10,10],"right_children":[2,4,-1,6,-1,8,-1,10,-1,12,14,-1,-1,-1,-1],"split_conditions":[9.602913E-1,6.267426E-1,6.235933E-2,9.602913E-1,4.729954E-2,6.698879E-1,6.119246E-2,4.5E1,6.1008886E-2,9.0225184E-1,2E0,-5.1195677E-3,6.0917534E-2,5.362387E-2,-8.088704E-3],"split_indices":[52,99,0,60,0,48,0,6,0,51,4,0,0,0,0],"split_type":[0,0,0,0,0,0,0,0,0,0,0,0,0,0,0],"sum_hessian":[2.5E2,2.48E2,2E0,2.44E2,4E0,2.42E2,2E0,2.4E2,2E0,2.35E2,5E0,2.33E2,2E0,4E0,1E0],"tree_param":{"num_deleted":"0","num_feature":"208","num_nodes":"15","size_leaf_vector":"1"}},{"base_weights":[2.6490141E-3,1.2421141E-2,-6.0699046E-2,2.5166987E-2,-6.146095E-1,3.8319547E-2,-6.138198E-1,-1.7845063E-2,-5.898112E-2,2.7530113E-2,6.638283E-2,-5.051557E-2,-1.4060081E-2,4.785869E-2,-3.6100698E-1,8.257521E-4,2.3300266E-2,-3.4514144E-2,2.7374651E-2],"categories":[],"categories_nodes":[],"categories_segments":[],"categories_sizes":[],"default_left":[0,0,0,0,0,0,0,0,0,0,0,0,0,0,0,0,0,0,0],"id":15,"left_children":[1,3,-1,5,7,9,11,-1,-1,13,-1,-1,-1,15,17,-1,-1,-1,-1],"loss_changes":[2.0016549E0,2.0054846E0,0E0,2.0825777E0,1.3645947E-1,2.1774879E0,1.0437965E-3,0E0,0E0,1.904996E0,0E0,0E0,0E0,2.2045894E0,1.0320396E0,0E0,0E0,0E0,0E0],"parents":[2147483647,0,0,1,1,3,3,4,4,5,5,6,6,9,9,13,13,14,14],"right_children":[2,4,-1,6,8,10,12,-1,-1,14,-1,-1,-1,16,18,-1,-1,-1,-1],"split_conditions":[6.6394675E-1,6.3283956E-1,-6.0699046E-2,5.251434E-1,1E0,6.435612E-1,3E1,-1.7845063E-2,-5.898112E-2,6E1,6.638283E-2,-5.051557E-2,-1.4060081E-2,4.4E1,5.9866315E-1,8.257521E-4,2.3300266E-2,-3.4514144E-2,2.7374651E-2],"split_indices":[68,37,0,207,3,31,2,0,0,2,0,0,0,2,17,0,0,0,0],"split_type":[0,0,0,0,0,0,0,0,0,0,0,0,0,0,0,0,0,0,0],"sum_hessian":[2.5E2,2.48E2,2E0,2.44E2,4E0,2.4E2,4E0,2E0,2E0,2.38E2,2E0,3E0,1E0,2.27E2,1.1E1,2E2,2.7E1,1E1,1E0],"tree_param":{"num_deleted":"0","num_feature":"208","num_nodes":"19","size_leaf_vector":"1"}},{"base_weights":[1.9772984E-3,-7.759543E-3,6.071071E-2,-1.7478902E-2,5.962907E-2,-2.7316146E-2,5.937917E-2,-3.728584E-2,5.9200075E-2,-5.298924E-2,4.997131E-1,-5.2956357E-3,3.4514055E-2,4.0313788E-2,1.0233334E-2],"categories":[],"categories_nodes":[],"categories_segments":[],"categories_sizes":[],"default_left":[0,0,0,0,0,0,0,0,0,0,0,0,0,0,0],"id":16,"left_children":[1,3,-1,5,-1,7,-1,9,-1,11,13,-1,-1,-1,-1],"loss_changes":[1.9797657E0,1.9568027E0,0E0,1.9878229E0,0E0,2.0241604E0,0E0,2.0756283E0,0E0,2.1753948E0,2.2789955E-2,0E0,0E0,0E0,0E0],"parents":[2147483647,0,0,1,1,3,3,5,5,7,7,9,9,10,10],"right_children":[2,4,-1,6,-1,8,-1,10,-1,12,14,-1,-1,-1,-1],"split_conditions":[6.48884E-1,5.5313045E-1,6.071071E-2,6.0814136E-1,5.962907E-2,9.602913E-1,5.937917E-2,7.5553936E-1,5.9200075E-2,6.23531E-1,1E0,-5.2956357E-3,3.4514055E-2,4.0313788E-2,1.0233334E-2],"split_indices":[29,90,0,16,0,52,0,67,0,206,151,0,0,0,0],"split_type":[0,0,0,0,0,0,0,0,0,0,0,0,0,0,0],"sum_hessian":[2.5E2,2.48E2,2E0,2.46E2,2E0,2.44E2,2E0,2.42E2,2E0,2.36E2,6E0,2.29E2,7E0,5E0,1E0],"tree_param":{"num_deleted":"0","num_feature":"208","num_nodes":"15","size_leaf_vector":"1"}},{"base_weights":[3.0986604E-3,-6.292521E-3,5.861504E-2,-1.5793892E-2,5.8356337E-2,-2.956839E-2,5.424099E-1,-1.873064E-2,-6.650492E-2,5.4037243E-2,1.2415777E-1,-2.8651932E-2,5.8095153E-2,1.330421E-2,6.635401E-4,9.5948705E-4,-1.7107693E-2],"categories":[],"categories_nodes":[],"categories_segments":[],"categories_sizes":[],"default_left":[0,0,0,0,0,0,0,0,0,0,0,0,0,0,0,0,0],"id":17,"left_children":[1,3,-1,5,-1,7,9,11,-1,-1,13,15,-1,-1,-1,-1,-1],"loss_changes":[1.8398347E0,1.8680003E0,0E0,1.9152157E0,0E0,2.231505E0,3.5745537E-1,1.9112059E0,0E0,0E0,1.684513E-2,1.9702857E0,0E0,0E0,0E0,0E0,0E0],"parents":[2147483647,0,0,1,1,3,3,5,5,6,6,7,7,10,10,11,11],"right_children":[2,4,-1,6,-1,8,10,12,-1,-1,14,16,-1,-1,-1,-1,-1],"split_conditions":[6.9264114E-1,9.602913E-1,5.861504E-2,7.3800707E-1,5.8356337E-2,6.9103265E-1,2.659904E-1,9.0225184E-1,-6.650492E-2,5.4037243E-2,2E0,3.3387813E-1,5.8095153E-2,1.330421E-2,6.635401E-4,9.5948705E-4,-1.7107693E-2],"split_indices":[50,60,0,203,0,9,82,51,0,0,2,82,0,0,0,0,0],"split_type":[0,0,0,0,0,0,0,0,0,0,0,0,0,0,0,0,0],"sum_hessian":[2.5E2,2.48E2,2E0,2.46E2,2E0,2.41E2,5E0,2.39E2,2E0,3E0,2E0,2.37E2,2E0,1E0,1E0,1.97E2,4E1],"tree_param":{"num_deleted":"0","num_feature":"208","num_nodes":"17","size_leaf_vector":"1"}},{"base_weights":[3.5053762E-3,1.2762011E-2,-5.744728E-2,2.467682E-2,-4.302121E-2,1.4463379E-2,6.32805E-2,2.662113E-2,-5.6956977E-1,4.41725E-2,-3.797225E-1,-1.5832644E-2,-5.536358E-2,5.739984E-3,-1.3706935E-2,2.5115235E-2,-4.50172E-2],"categories":[],"categories_nodes":[],"categories_segments":[],"categories_sizes":[],"default_left":[0,0,0,0,0,0,0,0,0,0,0,0,0,0,0,0,0],"id":18,"left_children":[1,3,-1,5,-1,7,-1,9,11,13,15,-1,-1,-1,-1,-1,-1],"loss_changes":[1.7975717E0,1.7538143E0,0E0,2.0373328E0,0E0,1.7405914E0,0E0,1.7212945E0,1.4637709E-1,1.7030262E0,1.7767231E0,0E0,0E0,0E0,0E0,0E0,0E0],"parents":[2147483647,0,0,1,1,3,3,5,5,7,7,8,8,9,9,10,10],"right_children":[2,4,-1,6,-1,8,-1,10,12,14,16,-1,-1,-1,-1,-1,-1],"split_conditions":[6.6394675E-1,5.251434E-1,-5.744728E-2,6.435612E-1,-4.302121E-2,6.3283956E-1,6.32805E-2,5.98587E-1,1E0,4.505525E-1,7.75E0,-1.5832644E-2,-5.536358E-2,5.739984E-3,-1.3706935E-2,2.5115235E-2,-4.50172E-2],"split_indices":[68,207,0,31,0,37,0,102,3,82,5,0,0,0,0,0,0],"split_type":[0,0,0,0,0,0,0,0,0,0,0,0,0,0,0,0,0],"sum_hessian":[2.5E2,2.48E2,2E0,2.44E2,4E0,2.42E2,2E0,2.38E2,4E0,2.29E2,9E0,2E0,2E0,2.01E2,2.8E1,2E0,7E0],"tree_param":{"num_deleted":"0","num_feature":"208","num_nodes":"17","size_leaf_vector":"1"}},{"base_weights":[2.6996348E-3,-6.4811064E-3,5.7285096E-2,-1.8557172E-2,5.865423E-1,-2.8014747E-2,5.6526918E-2,4.839699E-2,1.3182709E-2,-4.1785073E-2,5.228773E-1,-1.7317934E-3,-2.664804E-1,5.0206553E-2,-7.868987E-3,-2.7471497E-3,3.0631099E-2,-4.638897E-2,-4.851686E-3],"categories":[],"categories_nodes":[],"categories_segments":[],"categories_sizes":[],"default_left":[0,0,0,0,0,0,0,0,0,0,0,0,0,0,0,0,0,0,0],"id":19,"left_children":[1,3,-1,5,7,9,-1,-1,-1,11,13,15,17,-1,-1,-1,-1,-1,-1],"loss_changes":[1.758807E0,1.7940707E0,0E0,1.8104982E0,7.243395E-3,1.8652375E0,0E0,0E0,0E0,2.1414871E0,6.222323E-1,2.920463E0,2.5173714E0,0E0,0E0,0E0,0E0,0E0,0E0],"parents":[2147483647,0,0,1,1,3,3,4,4,5,5,9,9,10,10,11,11,12,12],"right_children":[2,4,-1,6,8,10,-1,-1,-1,12,14,16,18,-1,-1,-1,-1,-1,-1],"split_conditions":[6.698879E-1,6.267426E-1,5.7285096E-2,6.0814136E-1,2.3064895E-1,4.5E1,5.6526918E-2,4.839699E-2,1.3182709E-2,1.1E1,2E0,6.33583E1,6.19792E1,5.0206553E-2,-7.868987E-3,-2.7471497E-3,3.0631099E-2,-4.638897E-2,-4.851686E-3],"split_indices":[48,99,0,16,83,6,0,0,0,6,4,5,5,0,0,0,0,0,0],"split_type":[0,0,0,0,0,0,0,0,0,0,0,0,0,0,0,0,0,0,0],"sum_hessian":[2.5E2,2.48E2,2E0,2.44E2,4E0,2.42E2,2E0,3E0,1E0,2.37E2,5E0,2.02E2,3.5E1,4E0,1E0,1.87E2,1.5E1,1.2E1,2.3E1],"tree_param":{"num_deleted":"0","num_feature":"208","num_nodes":"19","size_leaf_vector":"1"}},{"base_weights":[3.2715562E-3,-5.7704393E-3,5.6450002E-2,-1.878193E-2,5.2432525E-1,-8.469498E-3,-6.332932E-2,5.1647585E-2,1.3047124E-1,-1.7880484E-2,5.604245E-2,1.342233E-2,1.2556855E-3,-2.7448583E-2,5.6036163E-2,-3.0057395E-3,4.267716E-2],"categories":[],"categories_nodes":[],"categories_segments":[],"categories_sizes":[],"default_left":[0,0,0,0,0,0,0,0,0,0,0,0,0,0,0,0,0],"id":20,"left_children":[1,3,-1,5,7,9,-1,-1,11,13,-1,-1,-1,15,-1,-1,-1],"loss_changes":[1.7051262E0,1.7272842E0,0E0,2.0702732E0,2.9843593E-1,1.7344415E0,0E0,0E0,1.3548892E-2,1.7772783E0,0E0,0E0,0E0,1.8154879E0,0E0,0E0,0E0],"parents":[2147483647,0,0,1,1,3,3,4,4,5,5,8,8,9,9,13,13],"right_children":[2,4,-1,6,8,10,-1,-1,12,14,-1,-1,-1,16,-1,-1,-1],"split_conditions":[5.5313045E-1,7.3800707E-1,5.6450002E-2,6.9103265E-1,2.659904E-1,9.602913E-1,-6.332932E-2,5.1647585E-2,2E0,6.48884E-1,5.604245E-2,1.342233E-2,1.2556855E-3,1E0,5.6036163E-2,-3.0057395E-3,4.267716E-2],"split_indices":[90,203,0,9,82,52,0,0,2,29,0,0,0,206,0,0,0],"split_type":[0,0,0,0,0,0,0,0,0,0,0,0,0,0,0,0,0],"sum_hessian":[2.5E2,2.48E2,2E0,2.43E2,5E0,2.41E2,2E0,3E0,2E0,2.39E2,2E0,1E0,1E0,2.37E2,2E0,2.33E2,4E0],"tree_param":{"num_deleted":"0","num_feature":"208","num_nodes":"17","size_leaf_vector":"1"}},{"base_weights":[3.8676104E-3,-5.0072134E-3,5.5439163E-2,-1.3985577E-2,5.519104E-2,-2.794584E-2,4.6864426E-1,-4.0174298E-2,5.572722E-1,5.031335E-1,9.814087E-3,-4.9804907E-2,5.4571126E-2,4.584373E-2,1.28010735E-2,4.112934E-2,1.0381689E-2,-6.7450944E-3,1.1105673E-2],"categories":[],"categories_nodes":[],"categories_segments":[],"categories_sizes":[],"default_left":[0,0,0,0,0,0,0,0,0,0,0,0,0,0,0,0,0,0,0],"id":21,"left_children":[1,3,-1,5,-1,7,9,11,13,15,-1,17,-1,-1,-1,-1,-1,-1,-1],"loss_changes":[1.6416885E0,1.6666297E0,0E0,1.6772937E0,0E0,1.7470596E0,1.5713453E-2,1.7886832E0,7.6293945E-6,2.3126125E-2,0E0,1.8794246E0,0E0,0E0,0E0,0E0,0E0,0E0,0E0],"parents":[2147483647,0,0,1,1,3,3,5,5,6,6,7,7,8,8,9,9,11,11],"right_children":[2,4,-1,6,-1,8,10,12,14,16,-1,18,-1,-1,-1,-1,-1,-1,-1],"split_conditions":[9.602913E-1,9.0225184E-1,5.5439163E-2,7.5553936E-1,5.519104E-2,6.267426E-1,1E0,6.698879E-1,2.3064895E-1,2.0575E1,9.814087E-3,6.33583E1,5.4571126E-2,4.584373E-2,1.28010735E-2,4.112934E-2,1.0381689E-2,-6.7450944E-3,1.1105673E-2],"split_indices":[60,51,0,67,0,99,151,48,83,5,0,5,0,0,0,0,0,0,0],"split_type":[0,0,0,0,0,0,0,0,0,0,0,0,0,0,0,0,0,0,0],"sum_hessian":[2.5E2,2.48E2,2E0,2.46E2,2E0,2.4E2,6E0,2.36E2,4E0,5E0,1E0,2.34E2,2E0,3E0,1E0,4E0,1E0,1.95E2,3.9E1],"tree_param":{"num_deleted":"0","num_feature":"208","num_nodes":"19","size_leaf_vector":"1"}},{"base_weights":[4.7310544E-3,-3.993377E-3,5.4546144E-2,-1.2764944E-2,5.3964756E-2,-2.546693E-2,5.01676E-1,-1.5708223E-2,-5.982559E-2,4.9121816E-2,1.300753E-1,-2.877887E-2,4.9884343E-1,1.3171934E-2,1.4615383E-3,-2.8688975E-3,5.3741846E-2,4.777921E-2,-7.2082435E-3],"categories":[],"categories_nodes":[],"categories_segments":[],"categories_sizes":[],"default_left":[0,0,0,0,0,0,0,0,0,0,0,0,0,0,0,0,0,0,0],"id":22,"left_children":[1,3,-1,5,-1,7,9,11,-1,-1,13,15,17,-1,-1,-1,-1,-1,-1],"loss_changes":[1.5851694E0,1.5894468E0,0E0,1.6267784E0,0E0,1.811121E0,2.5656343E-1,1.6284816E0,0E0,0E0,1.16895735E-2,1.6866617E0,5.546081E-1,0E0,0E0,0E0,0E0,0E0,0E0],"parents":[2147483647,0,0,1,1,3,3,5,5,6,6,7,7,10,10,11,11,12,12],"right_children":[2,4,-1,6,-1,8,10,12,-1,-1,14,16,18,-1,-1,-1,-1,-1,-1],"split_conditions":[6.9264114E-1,5.5313045E-1,5.4546144E-2,7.3800707E-1,5.3964756E-2,6.9103265E-1,2.659904E-1,4.5E1,-5.982559E-2,4.9121816E-2,2E0,6.0814136E-1,2E0,1.3171934E-2,1.4615383E-3,-2.8688975E-3,5.3741846E-2,4.777921E-2,-7.2082435E-3],"split_indices":[50,90,0,203,0,9,82,6,0,0,2,16,4,0,0,0,0,0,0],"split_type":[0,0,0,0,0,0,0,0,0,0,0,0,0,0,0,0,0,0,0],"sum_hessian":[2.5E2,2.48E2,2E0,2.46E2,2E0,2.41E2,5E0,2.39E2,2E0,3E0,2E0,2.34E2,5E0,1E0,1E0,2.32E2,2E0,4E0,1E0],"tree_param":{"num_deleted":"0","num_feature":"208","num_nodes":"19","size_leaf_vector":"1"}},{"base_weights":[5.1885135E-3,-3.399696E-3,5.3721033E-2,-1.4528227E-2,5.425783E-1,-2.334091E-2,5.2810647E-2,2.8479186E-1,5.901465E-2,-3.2260742E-2,5.2574933E-2,3.0434826E-2,1.0919072E-1,-4.633127E-2,4.447157E-1,-5.766281E-3,1.8050237E-2,-6.4749215E-3,1.0878562E-2,3.5728082E-2,9.553642E-3],"categories":[],"categories_nodes":[],"categories_segments":[],"categories_sizes":[],"default_left":[0,0,0,0,0,0,0,0,0,0,0,0,0,0,0,0,0,0,0,0,0],"id":23,"left_children":[1,3,-1,5,7,9,-1,11,-1,13,-1,-1,15,17,19,-1,-1,-1,-1,-1,-1],"loss_changes":[1.5352936E0,1.5207901E0,0E0,1.5681216E0,9.0773106E-2,1.592635E0,0E0,4.0685654E-2,0E0,1.6380303E0,0E0,0E0,9.189831E-2,1.811528E0,9.643197E-3,0E0,0E0,0E0,0E0,0E0,0E0],"parents":[2147483647,0,0,1,1,3,3,4,4,5,5,7,7,9,9,12,12,13,13,14,14],"right_children":[2,4,-1,6,8,10,-1,12,-1,14,-1,-1,16,18,20,-1,-1,-1,-1,-1,-1],"split_conditions":[9.602913E-1,1E0,5.3721033E-2,9.602913E-1,2.8E1,9.0225184E-1,5.2810647E-2,2.4E1,5.901465E-2,7.5553936E-1,5.2574933E-2,3.0434826E-2,7.225E0,6.33583E1,1E0,-5.766281E-3,1.8050237E-2,-6.4749215E-3,1.0878562E-2,3.5728082E-2,9.553642E-3],"split_indices":[52,206,0,60,2,51,0,2,0,67,0,0,5,5,151,0,0,0,0,0,0],"split_type":[0,0,0,0,0,0,0,0,0,0,0,0,0,0,0,0,0,0,0,0,0],"sum_hessian":[2.5E2,2.48E2,2E0,2.44E2,4E0,2.42E2,2E0,3E0,1E0,2.4E2,2E0,1E0,2E0,2.34E2,6E0,1E0,1E0,1.94E2,4E1,5E0,1E0],"tree_param":{"num_deleted":"0","num_feature":"208","num_nodes":"21","size_leaf_vector":"1"}},{"base_weights":[6.0365177E-3,-2.3653454E-3,5.2603427E-2,-1.0855714E-2,5.2309763E-2,-2.1964658E-2,5.3121006E-1,6.907487E-3,-2.4390818E-1,4.8181456E-2,1.8219808E-2,-1.72838E-2,6.380414E-1,1.8245845E-1,-4.554744E-1,-3.0273276E-3,3.3454195E-2,5.5989485E-2,-4.5507615E-3,-1.7452076E-2,1.908311E-2,-4.2341918E-2,5.655172E-2],"categories":[],"categories_nodes":[],"categories_segments":[],"categories_sizes":[],"default_left":[0,0,0,0,0,0,0,0,0,0,0,0,0,0,0,0,0,0,0,0,0,0,0],"id":24,"left_children":[1,3,-1,5,-1,7,9,11,13,-1,-1,15,17,19,21,-1,-1,-1,-1,-1,-1,-1,-1],"loss_changes":[1.4680443E0,1.4870808E0,0E0,1.4990473E0,0E0,1.5588253E0,4.233241E-3,3.308903E0,2.6088388E0,0E0,0E0,2.2530806E0,6.517005E-1,3.5804656E-1,2.9325001E0,0E0,0E0,0E0,0E0,0E0,0E0,0E0,0E0],"parents":[2147483647,0,0,1,1,3,3,5,5,6,6,7,7,8,8,11,11,12,12,13,13,14,14],"right_children":[2,4,-1,6,-1,8,10,12,14,-1,-1,16,18,20,22,-1,-1,-1,-1,-1,-1,-1,-1],"split_conditions":[6.48884E-1,6.698879E-1,5.2603427E-2,6.267426E-1,5.2309763E-2,3.1545654E-1,2.8E1,2.8660083E-1,1E0,4.8181456E-2,1.8219808E-2,3.9E1,8.22667E1,2.4E1,1E0,-3.0273276E-3,3.3454195E-2,5.5989485E-2,-4.5507615E-3,-1.7452076E-2,1.908311E-2,-4.2341918E-2,5.655172E-2],"split_indices":[29,48,0,99,0,84,2,84,7,0,0,6,5,2,183,0,0,0,0,0,0,0,0],"split_type":[0,0,0,0,0,0,0,0,0,0,0,0,0,0,0,0,0,0,0,0,0,0,0],"sum_hessian":[2.5E2,2.48E2,2E0,2.46E2,2E0,2.42E2,4E0,2.15E2,2.7E1,2E0,2E0,2.08E2,7E0,9E0,1.8E1,1.99E2,9E0,6E0,1E0,1E0,8E0,1.7E1,1E0],"tree_param":{"num_deleted":"0","num_feature":"208","num_nodes":"23","size_leaf_vector":"1"}},{"base_weights":[6.6555766E-3,1.7288724E-2,-5.19953E-1,2.8258577E-2,-5.193038E-1,-1.4625048E-2,-5.0369084E-2,1.8145734E-2,6.2342796E-2,-4.3272566E-2,-1.0824336E-2,2.512627E-2,-6.2144335E-2,4.3067474E-2,-3.193456E-1,4.6969666E-3,-2.3687901E-2,-3.8411498E-2,3.976185E-3],"categories":[],"categories_nodes":[],"categories_segments":[],"categories_sizes":[],"default_left":[0,0,0,0,0,0,0,0,0,0,0,0,0,0,0,0,0,0,0],"id":25,"left_children":[1,3,5,7,9,-1,-1,11,-1,-1,-1,13,-1,15,17,-1,-1,-1,-1],"loss_changes":[1.4144657E0,1.468601E0,1.1541021E-1,1.9581728E0,2.4842978E-2,0E0,0E0,1.445292E0,0E0,0E0,0E0,1.497011E0,0E0,1.6273034E0,8.8868165E-1,0E0,0E0,0E0,0E0],"parents":[2147483647,0,0,1,1,2,2,3,3,4,4,7,7,11,11,13,13,14,14],"right_children":[2,4,6,8,10,-1,-1,12,-1,-1,-1,14,-1,16,18,-1,-1,-1,-1],"split_conditions":[6.3283956E-1,5.251434E-1,1E0,6.435612E-1,3E1,-1.4625048E-2,-5.0369084E-2,9.455294E-1,6.2342796E-2,-4.3272566E-2,-1.0824336E-2,6E1,-6.2144335E-2,4.5526034E-1,6.4E1,4.6969666E-3,-2.3687901E-2,-3.8411498E-2,3.976185E-3],"split_indices":[37,207,3,31,2,0,0,63,0,0,0,2,0,66,2,0,0,0,0],"split_type":[0,0,0,0,0,0,0,0,0,0,0,0,0,0,0,0,0,0,0],"sum_hessian":[2.5E2,2.46E2,4E0,2.42E2,4E0,2E0,2E0,2.4E2,2E0,3E0,1E0,2.39E2,1E0,2.28E2,1.1E1,2.17E2,1.1E1,7E0,4E0],"tree_param":{"num_deleted":"0","num_feature":"208","num_nodes":"19","size_leaf_vector":"1"}},{"base_weights":[5.469881E-3,1.3610419E-2,-5.0401356E-2,2.0308258E-2,-6.1779514E-2,2.700402E-2,-6.1257947E-2,3.7612222E-2,-4.939554E-1,4.8517354E-2,-4.911754E-1,-1.3893796E-2,-4.7850627E-2,2.9198169E-3,5.922566E-2,-4.5394655E-2,-1.6002277E-2],"categories":[],"categories_nodes":[],"categories_segments":[],"categories_sizes":[],"default_left":[0,0,0,0,0,0,0,0,0,0,0,0,0,0,0,0,0],"id":26,"left_children":[1,3,-1,5,-1,7,-1,9,11,13,15,-1,-1,-1,-1,-1,-1],"loss_changes":[1.3934407E0,1.4132077E0,0E0,1.4120702E0,0E0,1.38361E0,0E0,1.4250895E0,1.04157805E-1,1.6673722E0,2.9331923E-2,0E0,0E0,0E0,0E0,0E0,0E0],"parents":[2147483647,0,0,1,1,3,3,5,5,7,7,8,8,9,9,10,10],"right_children":[2,4,-1,6,-1,8,-1,10,12,14,16,-1,-1,-1,-1,-1,-1],"split_conditions":[6.6394675E-1,1E0,-5.0401356E-2,1E0,-6.1779514E-2,6.3283956E-1,-6.1257947E-2,5.251434E-1,1E0,6.435612E-1,2.8E1,-1.3893796E-2,-4.7850627E-2,2.9198169E-3,5.922566E-2,-4.5394655E-2,-1.6002277E-2],"split_indices":[68,139,0,194,0,37,0,207,3,31,2,0,0,0,0,0,0],"split_type":[0,0,0,0,0,0,0,0,0,0,0,0,0,0,0,0,0],"sum_hessian":[2.5E2,2.48E2,2E0,2.47E2,1E0,2.46E2,1E0,2.42E2,4E0,2.38E2,4E0,2E0,2E0,2.36E2,2E0,2E0,2E0],"tree_param":{"num_deleted":"0","num_feature":"208","num_nodes":"17","size_leaf_vector":"1"}},{"base_weights":[4.125641E-3,-4.0027476E-3,5.0805505E-2,-1.2216913E-2,5.052234E-2,-2.6084576E-2,4.0534008E-1,-3.8549747E-2,4.664821E-1,-1.3545281E-2,5.1484686E-1,-2.9139869E-2,-5.6740038E-2,4.139242E-2,1.4774357E-3,2.0799346E-1,4.4699214E-2,-2.8529922E-3,4.9940642E-2,2.9121416E-2,-5.7221493E-3],"categories":[],"categories_nodes":[],"categories_segments":[],"categories_sizes":[],"default_left":[0,0,0,0,0,0,0,0,0,0,0,0,0,0,0,0,0,0,0,0,0],"id":27,"left_children":[1,3,-1,5,-1,7,9,11,13,-1,15,17,-1,-1,-1,19,-1,-1,-1,-1,-1],"loss_changes":[1.3763567E0,1.3942126E0,0E0,1.4408363E0,0E0,1.4915657E0,6.06302E-1,1.5656483E0,2.1810472E-1,0E0,5.03304E-2,1.4665864E0,0E0,0E0,0E0,1.833894E-1,0E0,0E0,0E0,0E0,0E0],"parents":[2147483647,0,0,1,1,3,3,5,5,6,6,7,7,8,8,10,10,11,11,15,15],"right_children":[2,4,-1,6,-1,8,10,12,14,-1,16,18,-1,-1,-1,20,-1,-1,-1,-1,-1],"split_conditions":[9.602913E-1,6.9264114E-1,5.0805505E-2,6.23531E-1,5.052234E-2,7.3800707E-1,1E0,6.9103265E-1,2.8E1,-1.3545281E-2,7.225E0,9.602913E-1,-5.6740038E-2,4.139242E-2,1.4774357E-3,2.4E1,4.4699214E-2,-2.8529922E-3,4.9940642E-2,2.9121416E-2,-5.7221493E-3],"split_indices":[52,50,0,206,0,203,1,9,2,0,5,60,0,0,0,2,0,0,0,0,0],"split_type":[0,0,0,0,0,0,0,0,0,0,0,0,0,0,0,0,0,0,0,0,0],"sum_hessian":[2.5E2,2.48E2,2E0,2.46E2,2E0,2.39E2,7E0,2.34E2,5E0,1E0,6E0,2.32E2,2E0,4E0,1E0,2E0,4E0,2.3E2,2E0,1E0,1E0],"tree_param":{"num_deleted":"0","num_feature":"208","num_nodes":"21","size_leaf_vector":"1"}},{"base_weights":[4.5696017E-3,-3.4303244E-3,5.0028022E-2,-1.153249E-2,4.9859364E-2,-1.8214097E-2,6.120536E-2,-2.6486713E-2,4.9552254E-2,-3.4880172E-2,4.9456086E-2,-3.5339352E-3,3.4077913E-2],"categories":[],"categories_nodes":[],"categories_segments":[],"categories_sizes":[],"default_left":[0,0,0,0,0,0,0,0,0,0,0,0,0],"id":28,"left_children":[1,3,-1,5,-1,7,-1,9,-1,11,-1,-1,-1],"loss_changes":[1.3325171E0,1.3557637E0,0E0,1.3807058E0,0E0,1.3991264E0,0E0,1.4277285E0,0E0,1.4704912E0,0E0,0E0,0E0],"parents":[2147483647,0,0,1,1,3,3,5,5,7,7,9,9],"right_children":[2,4,-1,6,-1,8,-1,10,-1,12,-1,-1,-1],"split_conditions":[5.5313045E-1,9.0225184E-1,5.0028022E-2,1E0,4.9859364E-2,9.522233E-1,6.120536E-2,6.698879E-1,4.9552254E-2,4.5E1,4.9456086E-2,-3.5339352E-3,3.4077913E-2],"split_indices":[90,51,0,131,0,11,0,48,0,6,0,0,0],"split_type":[0,0,0,0,0,0,0,0,0,0,0,0,0],"sum_hessian":[2.5E2,2.48E2,2E0,2.46E2,2E0,2.45E2,1E0,2.43E2,2E0,2.41E2,2E0,2.36E2,5E0],"tree_param":{"num_deleted":"0","num_feature":"208","num_nodes":"13","size_leaf_vector":"1"}},{"base_weights":[5.384829E-3,-2.5332232E-3,4.955912E-2,-1.2853474E-2,5.036657E-1,-2.5459005E-2,4.1937155E-1,4.571089E-2,1.7247325E-2,-3.6505703E-2,4.9882764E-1,4.5003322E-1,8.8275615E-3,-4.515852E-2,4.857738E-2,2.5629592E-1,5.5085793E-2,3.6797874E-2,9.262785E-3,-4.0453286E-3,4.8441928E-2,2.8161885E-2,6.855003E-3],"categories":[],"categories_nodes":[],"categories_segments":[],"categories_sizes":[],"default_left":[0,0,0,0,0,0,0,0,0,0,0,0,0,0,0,0,0,0,0,0,0,0,0],"id":29,"left_children":[1,3,-1,5,7,9,11,-1,-1,13,15,17,-1,19,-1,21,-1,-1,-1,-1,-1,-1,-1],"loss_changes":[1.304243E0,1.3072747E0,0E0,1.345541E0,4.647255E-3,1.4024111E0,1.17788315E-2,0E0,0E0,1.4205179E0,9.751892E-2,1.89569E-2,0E0,1.4484187E0,0E0,4.4299662E-2,0E0,0E0,0E0,0E0,0E0,0E0,0E0],"parents":[2147483647,0,0,1,1,3,3,4,4,5,5,6,6,9,9,10,10,11,11,13,13,15,15],"right_children":[2,4,-1,6,8,10,12,-1,-1,14,16,18,-1,20,-1,22,-1,-1,-1,-1,-1,-1,-1],"split_conditions":[6.0814136E-1,6.267426E-1,4.955912E-2,7.5553936E-1,2.8E1,1E0,2.0575E1,4.571089E-2,1.7247325E-2,6.48884E-1,2.8E1,1E0,8.8275615E-3,9.602913E-1,4.857738E-2,2.4E1,5.5085793E-2,3.6797874E-2,9.262785E-3,-4.0453286E-3,4.8441928E-2,2.8161885E-2,6.855003E-3],"split_indices":[16,99,0,67,2,206,5,0,0,29,2,151,0,52,0,2,0,0,0,0,0,0,0],"split_type":[0,0,0,0,0,0,0,0,0,0,0,0,0,0,0,0,0,0,0,0,0,0,0],"sum_hessian":[2.5E2,2.48E2,2E0,2.44E2,4E0,2.38E2,6E0,2E0,2E0,2.34E2,4E0,5E0,1E0,2.32E2,2E0,3E0,1E0,4E0,1E0,2.3E2,2E0,1E0,2E0],"tree_param":{"num_deleted":"0","num_feature":"208","num_nodes":"23","size_leaf_vector":"1"}},{"base_weights":[6.377306E-3,1.2752917E-2,-5.9532203E-2,1.9130407E-2,-5.9071574E-2,1.0920555E-2,5.1652353E-2,1.7313952E-2,-5.856956E-2,2.3756938E-2,-5.8545664E-2,2.3811224E-3,-4.735968E-2],"categories":[],"categories_nodes":[],"categories_segments":[],"categories_sizes":[],"default_left":[0,0,0,0,0,0,0,0,0,0,0,0,0],"id":30,"left_children":[1,3,-1,5,-1,7,-1,9,-1,11,-1,-1,-1],"loss_changes":[1.2905694E0,1.2911615E0,0E0,1.3612443E0,0E0,1.2639828E0,0E0,1.2832322E0,0E0,1.3028908E0,0E0,0E0,0E0],"parents":[2147483647,0,0,1,1,3,3,5,5,7,7,9,9],"right_children":[2,4,-1,6,-1,8,-1,10,-1,12,-1,-1,-1],"split_conditions":[9.455294E-1,1E0,-5.9532203E-2,6.4959836E-1,-5.9071574E-2,1E0,5.1652353E-2,9.602913E-1,-5.856956E-2,6.6394675E-1,-5.8545664E-2,2.3811224E-3,-4.735968E-2],"split_indices":[63,139,0,72,0,194,0,21,0,68,0,0,0],"split_type":[0,0,0,0,0,0,0,0,0,0,0,0,0],"sum_hessian":[2.5E2,2.49E2,1E0,2.48E2,1E0,2.46E2,2E0,2.45E2,1E0,2.44E2,1E0,2.42E2,2E0],"tree_param":{"num_deleted":"0","num_feature":"208","num_nodes":"13","size_leaf_vector":"1"}},{"base_weights":[4.9864803E-3,-1.2839804E-3,5.8972564E-2,-8.98845E-3,4.770352E-2,-1.6802963E-2,4.760983E-2,-2.4719315E-2,4.7449604E-2,-3.8011946E-2,3.7216473E-1,-5.5731465E-3,1.02987215E-2,-1.2842404E-2,3.5569094E-2],"categories":[],"categories_nodes":[],"categories_segments":[],"categories_sizes":[],"default_left":[0,0,0,0,0,0,0,0,0,0,0,0,0,0,0],"id":31,"left_children":[1,3,-1,5,-1,7,-1,9,-1,11,13,-1,-1,-1,-1],"loss_changes":[1.2307091E0,1.2332913E0,0E0,1.2583234E0,0E0,1.2804204E0,0E0,1.3014009E0,0E0,1.5184319E0,5.2501E-1,0E0,0E0,0E0,0E0],"parents":[2147483647,0,0,1,1,3,3,5,5,7,7,9,9,10,10],"right_children":[2,4,-1,6,-1,8,-1,10,-1,12,14,-1,-1,-1,-1],"split_conditions":[1E0,9.602913E-1,5.8972564E-2,5.5313045E-1,4.770352E-2,9.0225184E-1,4.760983E-2,6.23531E-1,4.7449604E-2,6.33583E1,1E0,-5.5731465E-3,1.02987215E-2,-1.2842404E-2,3.5569094E-2],"split_indices":[131,60,0,90,0,51,0,206,0,5,1,0,0,0,0],"split_type":[0,0,0,0,0,0,0,0,0,0,0,0,0,0,0],"sum_hessian":[2.5E2,2.49E2,1E0,2.47E2,2E0,2.45E2,2E0,2.43E2,2E0,2.36E2,7E0,1.96E2,4E1,1E0,6E0],"tree_param":{"num_deleted":"0","num_feature":"208","num_nodes":"15","size_leaf_vector":"1"}},{"base_weights":[5.525592E-3,-2.0503483E-3,4.743651E-2,-9.735482E-3,4.7353186E-2,2.9064093E-3,-4.4358695E-1,-1.593077E-2,6.7140564E-2,-5.796348E-1,1.3976247E-2,1.1429192E-1,-5.973656E-2,3.2144404E-4,-6.972761E-1,-6.0595167E-3,2.072667E-2,-8.600284E-3,1.0424531E-2,-6.441892E-2,-1.9014307E-3],"categories":[],"categories_nodes":[],"categories_segments":[],"categories_sizes":[],"default_left":[0,0,0,0,0,0,0,0,0,0,0,0,0,0,0,0,0,0,0,0,0],"id":32,"left_children":[1,3,-1,5,-1,7,9,11,-1,13,-1,15,17,-1,19,-1,-1,-1,-1,-1,-1],"loss_changes":[1.1935016E0,1.2182698E0,0E0,1.3560109E0,0E0,4.0650945E0,7.079257E-1,1.3587958E0,0E0,4.1514754E-1,0E0,1.9193039E0,1.9591696E0,0E0,5.212827E-1,0E0,0E0,0E0,0E0,0E0,0E0],"parents":[2147483647,0,0,1,1,3,3,5,5,6,6,7,7,9,9,11,11,12,12,14,14],"right_children":[2,4,-1,6,-1,8,10,12,-1,14,-1,16,18,-1,20,-1,-1,-1,-1,-1,-1],"split_conditions":[9.522233E-1,6.5510327E-1,4.743651E-2,4.9990112E-1,4.7353186E-2,4.2505425E-1,1.4E1,7.8958E0,6.7140564E-2,7.5E-1,1.3976247E-2,2.5230438E-1,6.33583E1,3.2144404E-4,7.623793E-1,-6.0595167E-3,2.072667E-2,-8.600284E-3,1.0424531E-2,-6.441892E-2,-1.9014307E-3],"split_indices":[11,79,0,79,0,79,2,5,0,2,0,83,5,0,27,0,0,0,0,0,0],"split_type":[0,0,0,0,0,0,0,0,0,0,0,0,0,0,0,0,0,0,0,0,0],"sum_hessian":[2.5E2,2.48E2,2E0,2.46E2,2E0,2.4E2,6E0,2.36E2,4E0,5E0,1E0,5.9E1,1.77E2,1E0,4E0,2.7E1,3.2E1,1.39E2,3.8E1,3E0,1E0],"tree_param":{"num_deleted":"0","num_feature":"208","num_nodes":"21","size_leaf_vector":"1"}},{"base_weights":[5.614754E-3,-2.0148722E-3,4.777516E-2,-9.747661E-3,4.764923E-2,-1.9793482E-2,4.8042876E-1,-3.121595E-2,4.3659672E-1,4.3951444E-2,1.6102156E-2,-6.121438E-3,-2.773202E-1,3.843432E-2,2.1484657E-3,-1.9160911E-3,2.9892053E-2,-6.918443E-2,-6.203123E-3],"categories":[],"categories_nodes":[],"categories_segments":[],"categories_sizes":[],"default_left":[0,0,0,0,0,0,0,0,0,0,0,0,0,0,0,0,0,0,0],"id":33,"left_children":[1,3,-1,5,-1,7,9,11,13,-1,-1,15,17,-1,-1,-1,-1,-1,-1],"loss_changes":[1.2104131E0,1.2333643E0,0E0,1.2257928E0,0E0,1.2804128E0,1.4478803E-2,1.4681584E0,1.7100489E-1,0E0,0E0,1.7161354E0,2.685842E0,0E0,0E0,0E0,0E0,0E0,0E0],"parents":[2147483647,0,0,1,1,3,3,5,5,6,6,7,7,8,8,11,11,12,12],"right_children":[2,4,-1,6,-1,8,10,12,14,-1,-1,16,18,-1,-1,-1,-1,-1,-1],"split_conditions":[6.698879E-1,6.9264114E-1,4.777516E-2,6.267426E-1,4.764923E-2,7.3800707E-1,2.8E1,3.5747916E-1,2.8E1,4.3951444E-2,1.6102156E-2,4.4857177E-1,1.6E1,3.843432E-2,2.1484657E-3,-1.9160911E-3,2.9892053E-2,-6.918443E-2,-6.203123E-3],"split_indices":[48,50,0,99,0,203,2,84,2,0,0,106,5,0,0,0,0,0,0],"split_type":[0,0,0,0,0,0,0,0,0,0,0,0,0,0,0,0,0,0,0],"sum_hessian":[2.5E2,2.48E2,2E0,2.46E2,2E0,2.42E2,4E0,2.37E2,5E0,2E0,2E0,2.16E2,2.1E1,4E0,1E0,2.07E2,9E0,4E0,1.7E1],"tree_param":{"num_deleted":"0","num_feature":"208","num_nodes":"19","size_leaf_vector":"1"}},{"base_weights":[5.7858783E-3,1.1856637E-2,-5.6696393E-2,2.725939E-2,-2.9590294E-1,5.54532E-3,2.9355186E-1,-3.8501313E-1,2.5661593E-2,2.4777707E-2,-3.3308625E-1,3.3979043E-1,-1.8468907E-2,-5.3240675E-1,6.0273595E-3,4.455599E-2,-3.3887792E-1,-4.0692326E-1,1.7967034E-2,3.8931844E-1,-1.6974648E-2,-4.882976E-2,-8.821833E-3,5.1685264E-3,-6.848686E-3,4.1718464E-3,-5.2838653E-2,5.5211436E-2,-3.8999718E-2,-3.850596E-2,-1.3234002E-2,3.8522635E-2,7.238862E-3],"categories":[],"categories_nodes":[],"categories_segments":[],"categories_sizes":[],"default_left":[0,0,0,0,0,0,0,0,0,0,0,0,0,0,0,0,0,0,0,0,0,0,0,0,0,0,0,0,0,0,0,0,0],"id":34,"left_children":[1,3,-1,5,7,9,11,13,-1,15,17,19,-1,21,23,25,27,29,-1,31,-1,-1,-1,-1,-1,-1,-1,-1,-1,-1,-1,-1,-1],"loss_changes":[1.1696688E0,1.1931524E0,0E0,1.3803403E0,8.14023E-1,1.454071E0,5.329498E-1,6.3721466E-1,0E0,1.5327129E0,6.0487294E-1,5.647727E-1,0E0,3.171525E-1,3.0779123E-2,1.7057186E0,2.524581E0,1.7937553E-1,0E0,5.3282404E-1,0E0,0E0,0E0,0E0,0E0,0E0,0E0,0E0,0E0,0E0,0E0,0E0,0E0],"parents":[2147483647,0,0,1,1,3,3,4,4,5,5,6,6,7,7,9,9,10,10,11,11,13,13,14,14,15,15,16,16,17,17,19,19],"right_children":[2,4,-1,6,8,10,12,14,-1,16,18,20,-1,22,24,26,28,30,-1,32,-1,-1,-1,-1,-1,-1,-1,-1,-1,-1,-1,-1,-1],"split_conditions":[9.455294E-1,6E1,-5.6696393E-2,4.8E1,5.9866315E-1,4.5526034E-1,6.484944E-1,2.9330632E-1,2.5661593E-2,4.7999677E-1,5.5655164E-1,8.34659E-1,-1.8468907E-2,5.6878173E-1,3E0,6.9103265E-1,2E1,3E1,1.7967034E-2,3.1545654E-1,-1.6974648E-2,-4.882976E-2,-8.821833E-3,5.1685264E-3,-6.848686E-3,4.1718464E-3,-5.2838653E-2,5.5211436E-2,-3.8999718E-2,-3.850596E-2,-1.3234002E-2,3.8522635E-2,7.238862E-3],"split_indices":[63,2,0,2,17,66,47,83,0,84,76,20,0,204,0,9,2,2,0,84,0,0,0,0,0,0,0,0,0,0,0,0,0],"split_type":[0,0,0,0,0,0,0,0,0,0,0,0,0,0,0,0,0,0,0,0,0,0,0,0,0,0,0,0,0,0,0,0,0],"sum_hessian":[2.5E2,2.49E2,1E0,2.38E2,1.1E1,2.21E2,1.7E1,1E1,1E0,2.1E2,1.1E1,1.6E1,1E0,7E0,3E0,2E2,1E1,1E1,1E0,1.5E1,1E0,5E0,2E0,2E0,1E0,1.98E2,2E0,1E0,9E0,6E0,4E0,1E1,5E0],"tree_param":{"num_deleted":"0","num_feature":"208","num_nodes":"33","size_leaf_vector":"1"}},{"base_weights":[4.769161E-3,1.0815411E-2,-5.6504752E-2,3.0430066E-3,4.8729677E-2,-3.101071E-3,5.7023637E-2,-1.0717677E-2,4.6496663E-2,-1.6991002E-2,5.6999013E-2,-2.105701E-3,3.205453E-2],"categories":[],"categories_nodes":[],"categories_segments":[],"categories_sizes":[],"default_left":[0,0,0,0,0,0,0,0,0,0,0,0,0],"id":35,"left_children":[1,3,-1,5,-1,7,-1,9,-1,11,-1,-1,-1],"loss_changes":[1.1587474E0,1.2394966E0,0E0,1.1562371E0,0E0,1.1788018E0,0E0,1.1974585E0,0E0,1.2139455E0,0E0,0E0,0E0],"parents":[2147483647,0,0,1,1,3,3,5,5,7,7,9,9],"right_children":[2,4,-1,6,-1,8,-1,10,-1,12,-1,-1,-1],"split_conditions":[1E0,6.4959836E-1,-5.6504752E-2,9.602913E-1,4.8729677E-2,9.602913E-1,5.7023637E-2,1E0,4.6496663E-2,4.5E1,5.6999013E-2,-2.105701E-3,3.205453E-2],"split_indices":[139,72,0,40,0,52,0,131,0,6,0,0,0],"split_type":[0,0,0,0,0,0,0,0,0,0,0,0,0],"sum_hessian":[2.5E2,2.49E2,1E0,2.47E2,2E0,2.46E2,1E0,2.44E2,2E0,2.43E2,1E0,2.38E2,5E0],"tree_param":{"num_deleted":"0","num_feature":"208","num_nodes":"13","size_leaf_vector":"1"}},{"base_weights":[5.1393346E-3,1.2491734E-2,-4.551172E-2,1.8547192E-2,-5.584733E-2,2.46492E-2,-5.582433E-2,3.8540877E-2,-3.0843762E-1,6.6114984E-2,-1.4771578E-1,8.342876E-2,-7.1698976E-1,3.8567416E-3,4.8923712E-2,3.5409786E-2,-2.1380689E-2,-1.6693102E-2,6.0504228E-2,-7.047055E-2,6.505507E-3],"categories":[],"categories_nodes":[],"categories_segments":[],"categories_sizes":[],"default_left":[0,0,0,0,0,0,0,0,0,0,0,0,0,0,0,0,0,0,0,0,0],"id":36,"left_children":[1,3,-1,5,-1,7,-1,9,11,13,15,17,19,-1,-1,-1,-1,-1,-1,-1,-1],"loss_changes":[1.1369274E0,1.1554073E0,0E0,1.1727989E0,0E0,1.1547896E0,0E0,1.2321014E0,1.6607959E0,1.7578208E0,2.7739983E0,1.5075394E0,9.7612333E-1,0E0,0E0,0E0,0E0,0E0,0E0,0E0,0E0],"parents":[2147483647,0,0,1,1,3,3,5,5,7,7,8,8,9,9,10,10,11,11,12,12],"right_children":[2,4,-1,6,-1,8,-1,10,12,14,16,18,20,-1,-1,-1,-1,-1,-1,-1,-1],"split_conditions":[9.602913E-1,1E0,-4.551172E-2,9.602913E-1,-5.584733E-2,5.98587E-1,-5.582433E-2,4.505525E-1,1.41083E1,3E0,1E1,5.0006723E-1,2.8E1,3.8567416E-3,4.8923712E-2,3.5409786E-2,-2.1380689E-2,-1.6693102E-2,6.0504228E-2,-7.047055E-2,6.505507E-3],"split_indices":[70,194,0,21,0,102,0,82,5,3,2,55,2,0,0,0,0,0,0,0,0],"split_type":[0,0,0,0,0,0,0,0,0,0,0,0,0,0,0,0,0,0,0,0,0],"sum_hessian":[2.5E2,2.48E2,2E0,2.47E2,1E0,2.46E2,1E0,2.37E2,9E0,2.07E2,3E1,5E0,4E0,2.03E2,4E0,5E0,2.5E1,4E0,1E0,3E0,1E0],"tree_param":{"num_deleted":"0","num_feature":"208","num_nodes":"21","size_leaf_vector":"1"}},{"base_weights":[4.3135374E-3,-2.9994855E-3,4.573925E-2,-1.0399969E-2,4.5548014E-2,-1.7893452E-2,4.5377582E-2,-2.547772E-2,4.5179762E-2,-3.3173013E-2,4.5090258E-2,-3.403012E-3,2.8586509E-2],"categories":[],"categories_nodes":[],"categories_segments":[],"categories_sizes":[],"default_left":[0,0,0,0,0,0,0,0,0,0,0,0,0],"id":37,"left_children":[1,3,-1,5,-1,7,-1,9,-1,11,-1,-1,-1],"loss_changes":[1.1133451E0,1.13094E0,0E0,1.1499276E0,0E0,1.1679374E0,0E0,1.1918103E0,0E0,1.2355444E0,0E0,0E0,0E0],"parents":[2147483647,0,0,1,1,3,3,5,5,7,7,9,9],"right_children":[2,4,-1,6,-1,8,-1,10,-1,12,-1,-1,-1],"split_conditions":[6.0814136E-1,9.602913E-1,4.573925E-2,6.9264114E-1,4.5548014E-2,9.0225184E-1,4.5377582E-2,6.698879E-1,4.5179762E-2,7.5553936E-1,4.5090258E-2,-3.403012E-3,2.8586509E-2],"split_indices":[16,60,0,86,0,51,0,48,0,67,0,0,0],"split_type":[0,0,0,0,0,0,0,0,0,0,0,0,0],"sum_hessian":[2.5E2,2.48E2,2E0,2.46E2,2E0,2.44E2,2E0,2.42E2,2E0,2.4E2,2E0,2.34E2,6E0],"tree_param":{"num_deleted":"0","num_feature":"208","num_nodes":"13","size_leaf_vector":"1"}},{"base_weights":[4.9944776E-3,-2.216936E-3,4.5140773E-2,-8.159237E-3,5.5180266E-2,-1.4115966E-2,5.4868236E-2,-2.4688408E-2,4.1465855E-1,-1.6541792E-2,-5.0114118E-2,4.0587243E-2,8.0824625E-3,-1.8076431E-3,4.4155594E-2],"categories":[],"categories_nodes":[],"categories_segments":[],"categories_sizes":[],"default_left":[0,0,0,0,0,0,0,0,0,0,0,0,0,0,0],"id":38,"left_children":[1,3,-1,5,-1,7,-1,9,11,13,-1,-1,-1,-1,-1],"loss_changes":[1.0817304E0,1.0979037E0,0E0,1.1031154E0,0E0,1.1299361E0,0E0,1.2575947E0,1.7462075E-1,1.112432E0,0E0,0E0,0E0,0E0,0E0],"parents":[2147483647,0,0,1,1,3,3,5,5,7,7,8,8,9,9],"right_children":[2,4,-1,6,-1,8,-1,10,12,14,-1,-1,-1,-1,-1],"split_conditions":[6.9264114E-1,1E0,4.5140773E-2,9.602913E-1,5.5180266E-2,7.3800707E-1,5.4868236E-2,6.9103265E-1,2.659904E-1,6.5510327E-1,-5.0114118E-2,4.0587243E-2,8.0824625E-3,-1.8076431E-3,4.4155594E-2],"split_indices":[50,172,0,40,0,203,0,9,82,79,0,0,0,0,0],"split_type":[0,0,0,0,0,0,0,0,0,0,0,0,0,0,0],"sum_hessian":[2.5E2,2.48E2,2E0,2.47E2,1E0,2.46E2,1E0,2.41E2,5E0,2.39E2,2E0,3E0,2E0,2.37E2,2E0],"tree_param":{"num_deleted":"0","num_feature":"208","num_nodes":"15","size_leaf_vector":"1"}},{"base_weights":[5.401135E-3,1.122973E-2,-5.444054E-2,1.8453006E-2,-4.4222828E-2,2.684621E-2,-3.7518293E-2,1.77334E-2,5.670262E-2,2.370835E-2,-5.3557653E-2,2.2297825E-3,-5.3535514E-2],"categories":[],"categories_nodes":[],"categories_segments":[],"categories_sizes":[],"default_left":[0,0,0,0,0,0,0,0,0,0,0,0,0],"id":39,"left_children":[1,3,-1,5,-1,7,-1,9,-1,11,-1,-1,-1],"loss_changes":[1.0779902E0,1.0959384E0,0E0,1.0931045E0,0E0,1.6146075E0,0E0,1.079491E0,0E0,1.0960352E0,0E0,0E0,0E0],"parents":[2147483647,0,0,1,1,3,3,5,5,7,7,9,9],"right_children":[2,4,-1,6,-1,8,-1,10,-1,12,-1,-1,-1],"split_conditions":[9.455294E-1,6.6394675E-1,-5.444054E-2,6.71365E-1,-4.4222828E-2,6.435612E-1,-3.7518293E-2,1E0,5.670262E-2,9.602913E-1,-5.3557653E-2,2.2297825E-3,-5.3535514E-2],"split_indices":[63,68,0,207,0,31,0,194,0,21,0,0,0],"split_type":[0,0,0,0,0,0,0,0,0,0,0,0,0],"sum_hessian":[2.5E2,2.49E2,1E0,2.47E2,2E0,2.44E2,3E0,2.42E2,2E0,2.41E2,1E0,2.4E2,1E0],"tree_param":{"num_deleted":"0","num_feature":"208","num_nodes":"13","size_leaf_vector":"1"}},{"base_weights":[4.261612E-3,9.982367E-3,-5.347227E-2,2.5015255E-3,4.688034E-2,-4.6534264E-3,4.412803E-2,-1.1857886E-2,4.371453E-2,-2.1371841E-2,4.4718355E-1,-2.2573513E-3,3.7574776E-2,4.160677E-2,1.42911775E-2],"categories":[],"categories_nodes":[],"categories_segments":[],"categories_sizes":[],"default_left":[0,0,0,0,0,0,0,0,0,0,0,0,0,0,0],"id":40,"left_children":[1,3,-1,5,-1,7,-1,9,-1,11,13,-1,-1,-1,-1],"loss_changes":[1.0369875E0,1.1487818E0,0E0,1.0423261E0,0E0,1.0481604E0,0E0,1.0751783E0,0E0,1.1090668E0,3.2326818E-2,0E0,0E0,0E0,0E0],"parents":[2147483647,0,0,1,1,3,3,5,5,7,7,9,9,10,10],"right_children":[2,4,-1,6,-1,8,-1,10,-1,12,14,-1,-1,-1,-1],"split_conditions":[1E0,6.4959836E-1,-5.347227E-2,9.602913E-1,4.688034E-2,5.5313045E-1,4.412803E-2,6.267426E-1,4.371453E-2,9.290828E-1,2.8E1,-2.2573513E-3,3.7574776E-2,4.160677E-2,1.42911775E-2],"split_indices":[139,72,0,52,0,90,0,99,0,106,2,0,0,0,0],"split_type":[0,0,0,0,0,0,0,0,0,0,0,0,0,0,0],"sum_hessian":[2.5E2,2.49E2,1E0,2.47E2,2E0,2.45E2,2E0,2.43E2,2E0,2.39E2,4E0,2.36E2,3E0,2E0,2E0],"tree_param":{"num_deleted":"0","num_feature":"208","num_nodes":"15","size_leaf_vector":"1"}},{"base_weights":[4.6291077E-3,1.033565E-2,-5.332525E-2,-8.996996E-3,3.3687147E-1,-1.6485319E-2,4.3544047E-2,-4.5540303E-1,5.943466E-1,1.00328416E-1,-5.6214515E-2,-1.7839482E-3,-4.4351008E-2,6.5956223E-1,-2.1678486E-3,-7.220955E-2,2.4368402E-1,-3.6093883E-2,-4.7423604E-1,3.555687E-4,7.3179334E-1,-1.0795295E-2,4.301253E-2,4.319442E-2,-8.0195256E-5,-2.1832008E-2,1.541498E-4,2.8133325E-2,-4.8686896E-2,5.8668688E-2,1.2305512E-2],"categories":[],"categories_nodes":[],"categories_segments":[],"categories_sizes":[],"default_left":[0,0,0,0,0,0,0,0,0,0,0,0,0,0,0,0,0,0,0,0,0,0,0,0,0,0,0,0,0,0,0],"id":41,"left_children":[1,3,-1,5,7,9,-1,11,13,15,17,-1,-1,19,-1,21,23,25,27,-1,29,-1,-1,-1,-1,-1,-1,-1,-1,-1,-1],"loss_changes":[1.0323793E0,1.5812312E0,0E0,1.0559254E0,3.1265414E0,1.0962552E0,0E0,2.2063673E-1,4.6616697E-1,1.5016536E0,1.4631939E0,0E0,0E0,4.6951532E-1,0E0,1.3793763E0,2.684084E0,1.6446358E0,1.4320662E0,0E0,1.2945652E-1,0E0,0E0,0E0,0E0,0E0,0E0,0E0,0E0,0E0,0E0],"parents":[2147483647,0,0,1,1,3,3,4,4,5,5,7,7,8,8,9,9,10,10,13,13,15,15,16,16,17,17,18,18,20,20],"right_children":[2,4,-1,6,8,10,-1,12,14,16,18,-1,-1,20,-1,22,24,26,28,-1,30,-1,-1,-1,-1,-1,-1,-1,-1,-1,-1],"split_conditions":[8.075913E-1,3.9534587E-1,-5.332525E-2,6.0814136E-1,3E0,7.8958E0,4.3544047E-2,1E0,3.667766E-1,2.5230438E-1,5.98587E-1,-1.7839482E-3,-4.4351008E-2,7.5E-1,-2.1678486E-3,9.0225184E-1,3.1601045E-1,8.6625E0,2.25E1,3.555687E-4,6.5632236E-1,-1.0795295E-2,4.301253E-2,4.319442E-2,-8.0195256E-5,-2.1832008E-2,1.541498E-4,2.8133325E-2,-4.8686896E-2,5.8668688E-2,1.2305512E-2],"split_indices":[71,79,0,16,0,5,0,3,66,83,102,0,0,2,0,51,83,5,2,0,13,0,0,0,0,0,0,0,0,0,0],"split_type":[0,0,0,0,0,0,0,0,0,0,0,0,0,0,0,0,0,0,0,0,0,0,0,0,0,0,0,0,0,0,0],"sum_hessian":[2.5E2,2.49E2,1E0,2.36E2,1.3E1,2.34E2,2E0,3E0,1E1,5.9E1,1.75E2,1E0,2E0,9E0,1E0,2.7E1,3.2E1,1.68E2,7E0,1E0,8E0,2.5E1,2E0,1.3E1,1.9E1,2.1E1,1.47E2,1E0,6E0,7E0,1E0],"tree_param":{"num_deleted":"0","num_feature":"208","num_nodes":"31","size_leaf_vector":"1"}},{"base_weights":[4.4665714E-3,-2.5504555E-3,4.390432E-2,-8.288266E-3,5.3265996E-2,1.0131723E-2,-3.4204435E-1,1.8357592E-2,-4.7614746E-2,-6.3477956E-2,-2.385698E-2,-2.3822008E-2,1.5285385E-1,3.1179063E-2,-3.1293267E-1,-3.2101104E-3,3.3648375E-2,-8.707091E-3,2.0479843E-2,-3.317252E-2,1.2521449E-2],"categories":[],"categories_nodes":[],"categories_segments":[],"categories_sizes":[],"default_left":[0,0,0,0,0,0,0,0,0,0,0,0,0,0,0,0,0,0,0,0,0],"id":42,"left_children":[1,3,-1,5,-1,7,9,11,-1,-1,13,15,17,-1,19,-1,-1,-1,-1,-1,-1],"loss_changes":[1.0246599E0,1.0242225E0,0E0,1.5281157E0,0E0,1.2637864E0,2.0659304E0,1.331123E0,0E0,0E0,1.273734E0,1.624326E0,1.8422079E0,0E0,4.4633287E-1,0E0,0E0,0E0,0E0,0E0,0E0],"parents":[2147483647,0,0,1,1,3,3,5,5,6,6,7,7,10,10,11,11,12,12,14,14],"right_children":[2,4,-1,6,-1,8,10,12,-1,-1,14,16,18,-1,20,-1,-1,-1,-1,-1,-1],"split_conditions":[9.602913E-1,1E0,4.390432E-2,4.7999677E-1,5.3265996E-2,6.9103265E-1,2.1E1,1E0,-4.7614746E-2,-6.3477956E-2,1E1,3.9E1,1E0,3.1179063E-2,3.667766E-1,-3.2101104E-3,3.3648375E-2,-8.707091E-3,2.0479843E-2,-3.317252E-2,1.2521449E-2],"split_indices":[60,183,0,84,0,9,5,4,0,0,6,6,3,0,66,0,0,0,0,0,0],"split_type":[0,0,0,0,0,0,0,0,0,0,0,0,0,0,0,0,0,0,0,0,0],"sum_hessian":[2.5E2,2.48E2,2E0,2.47E2,1E0,2.35E2,1.2E1,2.33E2,2E0,4E0,8E0,1.78E2,5.5E1,3E0,5E0,1.72E2,6E0,1.7E1,3.8E1,4E0,1E0],"tree_param":{"num_deleted":"0","num_feature":"208","num_nodes":"21","size_leaf_vector":"1"}},{"base_weights":[4.286229E-3,1.1199599E-2,-4.2821422E-2,1.6857637E-2,-5.2199773E-2,2.6003936E-2,-4.3285328E-1,3.181692E-2,-5.199566E-2,-1.1273839E-2,-4.283282E-2,2.1195635E-2,6.5584086E-2,2.126984E-3,-4.174602E-2],"categories":[],"categories_nodes":[],"categories_segments":[],"categories_sizes":[],"default_left":[0,0,0,0,0,0,0,0,0,0,0,0,0,0,0],"id":43,"left_children":[1,3,-1,5,-1,7,9,11,-1,-1,-1,13,-1,-1,-1],"loss_changes":[1.0045805E0,1.0080677E0,0E0,1.0313271E0,0E0,1.0422605E0,1.0945684E-1,2.156289E0,0E0,0E0,0E0,1.013408E0,0E0,0E0,0E0],"parents":[2147483647,0,0,1,1,3,3,5,5,6,6,7,7,11,11],"right_children":[2,4,-1,6,-1,8,10,12,-1,-1,-1,14,-1,-1,-1],"split_conditions":[9.602913E-1,9.455294E-1,-4.2821422E-2,6.3283956E-1,-5.2199773E-2,1E0,1E0,9.522233E-1,-5.199566E-2,-1.1273839E-2,-4.283282E-2,6.6394675E-1,6.5584086E-2,2.126984E-3,-4.174602E-2],"split_indices":[70,63,0,37,0,181,3,87,0,0,0,68,0,0,0],"split_type":[0,0,0,0,0,0,0,0,0,0,0,0,0,0,0],"sum_hessian":[2.5E2,2.48E2,2E0,2.47E2,1E0,2.43E2,4E0,2.42E2,1E0,2E0,2E0,2.4E2,2E0,2.38E2,2E0],"tree_param":{"num_deleted":"0","num_feature":"208","num_nodes":"15","size_leaf_vector":"1"}},{"base_weights":[3.266915E-3,-3.6544437E-3,4.3248806E-2,-1.2732692E-2,4.4191062E-1,-1.9904412E-2,4.2931564E-2,2.1299165E-1,5.0909497E-2,-2.7114348E-2,4.2444646E-2,2.4995232E-2,6.180905E-2,-3.3046193E-2,5.236981E-2,-7.7426885E-3,1.4696207E-2,-1.8682596E-4,-1.3596739E-2],"categories":[],"categories_nodes":[],"categories_segments":[],"categories_sizes":[],"default_left":[0,0,0,0,0,0,0,0,0,0,0,0,0,0,0,0,0,0,0],"id":44,"left_children":[1,3,-1,5,7,9,-1,11,-1,13,-1,-1,15,17,-1,-1,-1,-1,-1],"loss_changes":[9.982246E-1,1.0128194E0,0E0,1.0395503E0,1.2655729E-1,1.0417325E0,0E0,5.2136734E-2,0E0,1.0600575E0,0E0,0E0,8.664655E-2,1.0866551E0,0E0,0E0,0E0,0E0,0E0],"parents":[2147483647,0,0,1,1,3,3,4,4,5,5,7,7,9,9,12,12,13,13],"right_children":[2,4,-1,6,8,10,-1,12,-1,14,-1,-1,16,18,-1,-1,-1,-1,-1],"split_conditions":[6.698879E-1,1E0,4.3248806E-2,6.9264114E-1,2.8E1,6.9264114E-1,4.2931564E-2,2.4E1,5.0909497E-2,1E0,4.2444646E-2,2.4995232E-2,7.225E0,4.0296277E-1,5.236981E-2,-7.7426885E-3,1.4696207E-2,-1.8682596E-4,-1.3596739E-2],"split_indices":[48,206,0,50,2,86,0,2,0,131,0,0,5,83,0,0,0,0,0],"split_type":[0,0,0,0,0,0,0,0,0,0,0,0,0,0,0,0,0,0,0],"sum_hessian":[2.5E2,2.48E2,2E0,2.44E2,4E0,2.42E2,2E0,3E0,1E0,2.4E2,2E0,1E0,2E0,2.39E2,1E0,1E0,1E0,1.99E2,4E1],"tree_param":{"num_deleted":"0","num_feature":"208","num_nodes":"19","size_leaf_vector":"1"}},{"base_weights":[4.0181843E-3,9.51935E-3,-5.142275E-2,1.506242E-2,-5.140144E-2,2.0614745E-2,-5.1071793E-2,3.8602292E-3,3.003788E-1,-3.3498886E-3,4.219195E-2,-4.422998E-1,5.431366E-1,-7.985782E-4,4.197742E-2,-1.4632903E-3,-4.3254457E-2,4.539423E-2,-2.9273042E-3],"categories":[],"categories_nodes":[],"categories_segments":[],"categories_sizes":[],"default_left":[0,0,0,0,0,0,0,0,0,0,0,0,0,0,0,0,0,0,0],"id":45,"left_children":[1,3,-1,5,-1,7,-1,9,11,13,-1,15,17,-1,-1,-1,-1,-1,-1],"loss_changes":[9.5879716E-1,9.7325385E-1,0E0,9.763052E-1,0E0,1.1612936E0,0E0,9.485317E-1,2.7643034E0,9.6336323E-1,0E0,2.1608365E-1,4.2142892E-1,0E0,0E0,0E0,0E0,0E0,0E0],"parents":[2147483647,0,0,1,1,3,3,5,5,7,7,8,8,9,9,11,11,12,12],"right_children":[2,4,-1,6,-1,8,-1,10,12,14,-1,16,18,-1,-1,-1,-1,-1,-1],"split_conditions":[1E0,9.602913E-1,-5.142275E-2,8.075913E-1,-5.140144E-2,3.9534587E-1,-5.1071793E-2,9.522233E-1,3E0,9.602913E-1,4.219195E-2,1E0,3.667766E-1,-7.985782E-4,4.197742E-2,-1.4632903E-3,-4.3254457E-2,4.539423E-2,-2.9273042E-3],"split_indices":[194,21,0,71,0,79,0,11,0,52,0,3,66,0,0,0,0,0,0],"split_type":[0,0,0,0,0,0,0,0,0,0,0,0,0,0,0,0,0,0,0],"sum_hessian":[2.5E2,2.49E2,1E0,2.48E2,1E0,2.47E2,1E0,2.34E2,1.3E1,2.32E2,2E0,3E0,1E1,2.3E2,2E0,1E0,2E0,9E0,1E0],"tree_param":{"num_deleted":"0","num_feature":"208","num_nodes":"19","size_leaf_vector":"1"}},{"base_weights":[3.4268813E-3,8.878953E-3,-5.0984666E-2,1.8032145E-3,4.4313528E-2,-3.7246523E-3,5.126949E-2,-1.25967655E-2,4.28205E-1,-2.171926E-2,4.2597783E-1,3.9895885E-2,1.3629743E-2,-2.4069736E-3,2.8985681E-2,1.5420256E-2,4.9030337E-2],"categories":[],"categories_nodes":[],"categories_segments":[],"categories_sizes":[],"default_left":[0,0,0,0,0,0,0,0,0,0,0,0,0,0,0,0,0],"id":46,"left_children":[1,3,-1,5,-1,7,-1,9,11,13,15,-1,-1,-1,-1,-1,-1],"loss_changes":[9.410052E-1,1.0283979E0,0E0,9.3721944E-1,0E0,9.519299E-1,0E0,9.814692E-1,3.1176448E-2,1.0244489E0,1.1655164E-1,0E0,0E0,0E0,0E0,0E0,0E0],"parents":[2147483647,0,0,1,1,3,3,5,5,7,7,8,8,9,9,10,10],"right_children":[2,4,-1,6,-1,8,-1,10,12,14,16,-1,-1,-1,-1,-1,-1],"split_conditions":[1E0,6.4959836E-1,-5.0984666E-2,9.602913E-1,4.4313528E-2,6.267426E-1,5.126949E-2,1E0,2.8E1,4.5E1,2.8E1,3.9895885E-2,1.3629743E-2,-2.4069736E-3,2.8985681E-2,1.5420256E-2,4.9030337E-2],"split_indices":[139,72,0,40,0,99,0,206,2,6,2,0,0,0,0,0,0],"split_type":[0,0,0,0,0,0,0,0,0,0,0,0,0,0,0,0,0],"sum_hessian":[2.5E2,2.49E2,1E0,2.47E2,2E0,2.46E2,1E0,2.42E2,4E0,2.38E2,4E0,2E0,2E0,2.33E2,5E0,3E0,1E0],"tree_param":{"num_deleted":"0","num_feature":"208","num_nodes":"17","size_leaf_vector":"1"}},{"base_weights":[3.9234594E-3,-1.5345506E-3,5.1315974E-2,1.5828619E-2,-3.192961E-1,2.3618817E-2,-4.517074E-2,-5.959336E-2,-1.977316E-2,4.0102784E-2,-2.622294E-1,2.9496416E-2,-2.918501E-1,2.5328794E-2,5.7266957E-1,-3.240745E-1,1.7996695E-2,-3.1106247E-2,1.2099345E-2,3.1629927E-3,-2.2276366E-2,-2.7272687E-3,5.263117E-2,-3.322537E-2,-5.172824E-3],"categories":[],"categories_nodes":[],"categories_segments":[],"categories_sizes":[],"default_left":[0,0,0,0,0,0,0,0,0,0,0,0,0,0,0,0,0,0,0,0,0,0,0,0,0],"id":47,"left_children":[1,3,-1,5,7,9,-1,-1,11,13,15,-1,17,19,21,23,-1,-1,-1,-1,-1,-1,-1,-1,-1],"loss_changes":[9.3301976E-1,1.384391E0,0E0,1.1602334E0,1.8349411E0,1.1225275E0,0E0,0E0,1.126234E0,1.7479575E0,4.8151374E-1,0E0,4.0107995E-1,1.2016426E0,4.9719965E-1,3.335204E-1,0E0,0E0,0E0,0E0,0E0,0E0,0E0,0E0,0E0],"parents":[2147483647,0,0,1,1,3,3,4,4,5,5,8,8,9,9,10,10,12,12,13,13,14,14,15,15],"right_children":[2,4,-1,6,8,10,-1,-1,12,14,16,-1,18,20,22,24,-1,-1,-1,-1,-1,-1,-1,-1,-1],"split_conditions":[1E0,4.7999677E-1,5.1315974E-2,6.9103265E-1,2.1E1,4.5526034E-1,-4.517074E-2,-5.959336E-2,1E1,3.667766E-1,5.5655164E-1,2.9496416E-2,3.667766E-1,5.7E1,1.2E1,7.865075E-1,1.7996695E-2,-3.1106247E-2,1.2099345E-2,3.1629927E-3,-2.2276366E-2,-2.7272687E-3,5.263117E-2,-3.322537E-2,-5.172824E-3],"split_indices":[183,84,0,9,5,66,0,0,6,66,76,0,66,2,2,66,0,0,0,0,0,0,0,0,0],"split_type":[0,0,0,0,0,0,0,0,0,0,0,0,0,0,0,0,0,0,0,0,0,0,0,0,0],"sum_hessian":[2.5E2,2.49E2,1E0,2.37E2,1.2E1,2.35E2,2E0,4E0,8E0,2.23E2,1.2E1,3E0,5E0,2.18E2,5E0,1.1E1,1E0,4E0,1E0,2.08E2,1E1,1E0,4E0,7E0,4E0],"tree_param":{"num_deleted":"0","num_feature":"208","num_nodes":"25","size_leaf_vector":"1"}},{"base_weights":[3.4994457E-3,-3.1574622E-3,4.1614223E-2,-1.0898158E-2,4.736847E-1,-1.7723305E-2,4.108849E-2,5.0999157E-2,-5.446027E-3,-2.463636E-2,4.093781E-2,-3.166292E-2,4.092753E-2,-2.9087977E-3,4.0787116E-2],"categories":[],"categories_nodes":[],"categories_segments":[],"categories_sizes":[],"default_left":[0,0,0,0,0,0,0,0,0,0,0,0,0,0,0],"id":48,"left_children":[1,3,-1,5,7,9,-1,-1,-1,11,-1,13,-1,-1,-1],"loss_changes":[9.230053E-1,9.2424375E-1,0E0,9.478343E-1,5.001908E-1,9.640535E-1,0E0,0E0,0E0,9.870944E-1,0E0,1.0046363E0,0E0,0E0,0E0],"parents":[2147483647,0,0,1,1,3,3,4,4,5,5,9,9,11,11],"right_children":[2,4,-1,6,8,10,-1,-1,-1,12,-1,14,-1,-1,-1],"split_conditions":[9.602913E-1,9.290828E-1,4.1614223E-2,6.698879E-1,1E0,8.8789064E-1,4.108849E-2,5.0999157E-2,-5.446027E-3,9.0225184E-1,4.093781E-2,6.9264114E-1,4.092753E-2,-2.9087977E-3,4.0787116E-2],"split_indices":[60,106,0,48,3,22,0,0,0,51,0,50,0,0,0],"split_type":[0,0,0,0,0,0,0,0,0,0,0,0,0,0,0],"sum_hessian":[2.5E2,2.48E2,2E0,2.45E2,3E0,2.43E2,2E0,2E0,1E0,2.41E2,2E0,2.39E2,2E0,2.37E2,2E0],"tree_param":{"num_deleted":"0","num_feature":"208","num_nodes":"15","size_leaf_vector":"1"}},{"base_weights":[4.225037E-3,9.588561E-3,-5.0124597E-2,1.4974126E-2,-4.9928144E-2,4.980104E-3,6.246179E-2,1.163683E-2,-4.052344E-2,1.7084923E-2,-4.9413662E-2,1.9413192E-3,-3.0652506E-2],"categories":[],"categories_nodes":[],"categories_segments":[],"categories_sizes":[],"default_left":[0,0,0,0,0,0,0,0,0,0,0,0,0],"id":49,"left_children":[1,3,-1,5,-1,7,-1,9,-1,11,-1,-1,-1],"loss_changes":[9.1182894E-1,9.1918254E-1,0E0,2.0310805E0,0E0,9.028639E-1,0E0,9.062089E-1,0E0,9.247552E-1,0E0,0E0,0E0],"parents":[2147483647,0,0,1,1,3,3,5,5,7,7,9,9],"right_children":[2,4,-1,6,-1,8,-1,10,-1,12,-1,-1,-1],"split_conditions":[9.455294E-1,1E0,-5.0124597E-2,9.522233E-1,-4.9928144E-2,9.602913E-1,6.246179E-2,1E0,-4.052344E-2,6.3283956E-1,-4.9413662E-2,1.9413192E-3,-3.0652506E-2],"split_indices":[63,181,0,87,0,70,0,194,0,37,0,0,0],"split_type":[0,0,0,0,0,0,0,0,0,0,0,0,0],"sum_hessian":[2.5E2,2.49E2,1E0,2.48E2,1E0,2.46E2,2E0,2.44E2,2E0,2.43E2,1E0,2.39E2,4E0],"tree_param":{"num_deleted":"0","num_feature":"208","num_nodes":"13","size_leaf_vector":"1"}},{"base_weights":[3.2856893E-3,-2.0818415E-3,5.0443817E-2,-9.643474E-3,4.6536943E-1,-1.6313693E-2,4.037291E-2,5.3010646E-2,-9.710551E-3,-2.3072511E-2,4.024414E-2,-3.3680324E-2,3.3937374E-1,-3.4155578E-3,2.3363817E-2,3.0785808E-2,1.3756998E-2],"categories":[],"categories_nodes":[],"categories_segments":[],"categories_sizes":[],"default_left":[0,0,0,0,0,0,0,0,0,0,0,0,0,0,0,0,0],"id":50,"left_children":[1,3,-1,5,7,9,-1,-1,-1,11,-1,13,15,-1,-1,-1,-1],"loss_changes":[9.031127E-1,8.881615E-1,0E0,9.115516E-1,6.6598725E-1,9.2793703E-1,0E0,0E0,0E0,9.457073E-1,0E0,9.8451245E-1,2.3263693E-3,0E0,0E0,0E0,0E0],"parents":[2147483647,0,0,1,1,3,3,4,4,5,5,9,9,11,11,12,12],"right_children":[2,4,-1,6,8,10,-1,-1,-1,12,-1,14,16,-1,-1,-1,-1],"split_conditions":[1E0,6.435612E-1,5.0443817E-2,6.9264114E-1,5.251434E-1,6.0814136E-1,4.037291E-2,5.3010646E-2,-9.710551E-3,7.5553936E-1,4.024414E-2,6.23531E-1,2.8E1,-3.4155578E-3,2.3363817E-2,3.0785808E-2,1.3756998E-2],"split_indices":[131,31,0,86,207,16,0,0,0,67,0,206,2,0,0,0,0],"split_type":[0,0,0,0,0,0,0,0,0,0,0,0,0,0,0,0,0],"sum_hessian":[2.5E2,2.49E2,1E0,2.46E2,3E0,2.44E2,2E0,2E0,1E0,2.42E2,2E0,2.36E2,6E0,2.29E2,7E0,3E0,3E0],"tree_param":{"num_deleted":"0","num_feature":"208","num_nodes":"17","size_leaf_vector":"1"}}]},"name":"gbtree"},"learner_model_param":{"base_score":"5.0431115E-10","boost_from_average":"1","num_class":"0","num_feature":"208","num_target":"1"},"objective":{"name":"reg:squarederror","reg_loss_param":{"scale_pos_weight":"1"}}},"version":[3,0,0]}