{"learner":{"attributes":{"best_iteration":"38","best_score":"0.36969014227892577"},"feature_names":[],"feature_types":[],"gradient_booster":{"model":{"gbtree_model_param":{"num_parallel_tree":"1","num_trees":"89"},"iteration_indptr":[0,1,2,3,4,5,6,7,8,9,10,11,12,13,14,15,16,17,18,19,20,21,22,23,24,25,26,27,28,29,30,31,32,33,34,35,36,37,38,39,40,41,42,43,44,45,46,47,48,49,50,51,52,53,54,55,56,57,58,59,60,61,62,63,64,65,66,67,68,69,70,71,72,73,74,75,76,77,78,79,80,81,82,83,84,85,86,87,88,89],"tree_info":[0,0,0,0,0,0,0,0,0,0,0,0,0,0,0,0,0,0,0,0,0,0,0,0,0,0,0,0,0,0,0,0,0,0,0,0,0,0,0,0,0,0,0,0,0,0,0,0,0,0,0,0,0,0,0,0,0,0,0,0,0,0,0,0,0,0,0,0,0,0,0,0,0,0,0,0,0,0,0,0,0,0,0,0,0,0,0,0,0],"trees":[{"base_weights":[-4.599754E-8,1.4837891E0,-8.079193E-1,1.812261E-1,4.3592286E-1,-8.681284E-1,1.1651902E-1,8.7895644E-1,-9.616952E-2,1.6357917E-1,-1.0172063E0,1.2871382E0,4.7806343E-1,-1.2741332E-1,7.789209E-2,-1.0700278E0,3.6924583E-1,1.1805739E-1,6.3701564E-1,8.880089E-1,5.3557564E-2,5.2000153E-1,-5.322738E-1,-3.0658704E-1,-1.1334603E0,7.308005E-2,-3.043387E-2,4.0707705E-3,6.294807E-2,8.277272E-2,4.0707705E-3,-8.162944E-2,6.527445E-2,1.0758469E-1,-2.6354467E-2,-1.015646E-2,-6.1932605E-2,-7.4766256E-2,9.034359E-3,-8.676726E-2,4.0707705E-3],"categories":[],"categories_nodes":[],"categories_segments":[],"categories_sizes":[],"default_left":[0,0,0,0,0,0,0,0,0,0,0,0,0,0,0,0,0,0,0,0,0,0,0,0,0,0,0,0,0,0,0,0,0,0,0,0,0,0,0,0,0],"id":0,"left_children":[1,3,5,-1,7,9,-1,11,-1,13,15,17,19,21,-1,23,25,-1,27,29,31,33,35,37,39,-1,-1,-1,-1,-1,-1,-1,-1,-1,-1,-1,-1,-1,-1,-1,-1],"loss_changes":[1.526561E2,4.2816376E1,1.3071701E1,0E0,1.8147692E1,1.2630871E1,0E0,2.3906136E0,0E0,2.9567854E0,5.590927E0,5.851126E-1,1.8420677E0,2.6922421E0,0E0,2.9746094E0,1.9652988E0,0E0,4.597094E-1,9.21628E-1,6.915337E0,3.7324536E0,6.0611534E-1,2.075521E0,1.8155746E0,0E0,0E0,0E0,0E0,0E0,0E0,0E0,0E0,0E0,0E0,0E0,0E0,0E0,0E0,0E0,0E0],"parents":[2147483647,0,0,1,1,2,2,4,4,5,5,7,7,9,9,10,10,11,11,12,12,13,13,15,15,16,16,18,18,19,19,20,20,21,21,22,22,23,23,24,24],"right_children":[2,4,6,-1,8,10,-1,12,-1,14,16,18,20,22,-1,24,26,-1,28,30,32,34,36,38,40,-1,-1,-1,-1,-1,-1,-1,-1,-1,-1,-1,-1,-1,-1,-1,-1],"split_conditions":[1E0,3E0,6.596116E-1,1.812261E-1,2.345E1,7.2E1,1.1651902E-1,2E0,-9.616952E-2,5.8E1,6.3470733E-1,4.2309296E-1,3.175265E-1,1E0,7.789209E-2,2E0,5.6581444E-1,1.1805739E-1,6.5907294E-1,1.74E1,4.2309296E-1,2.2E1,3.65E1,1E0,5.7596904E-1,7.308005E-2,-3.043387E-2,4.0707705E-3,6.294807E-2,8.277272E-2,4.0707705E-3,-8.162944E-2,6.527445E-2,1.0758469E-1,-2.6354467E-2,-1.015646E-2,-6.1932605E-2,-7.4766256E-2,9.034359E-3,-8.676726E-2,4.0707705E-3],"split_indices":[1,0,77,0,5,6,0,7,0,6,207,79,79,7,0,0,80,0,79,5,79,6,2,7,34,0,0,0,0,0,0,0,0,0,0,0,0,0,0,0,0],"split_type":[0,0,0,0,0,0,0,0,0,0,0,0,0,0,0,0,0,0,0,0,0,0,0,0,0,0,0,0,0,0,0,0,0,0,0,0,0,0,0,0,0],"sum_hessian":[1.2534269E2,4.3893414E1,8.144927E1,2.2533516E1,2.1359896E1,8.004093E1,1.4083447E0,1.7369585E1,3.9903102E0,1.0093138E1,6.994779E1,7.5111723E0,9.858414E0,8.215344E0,1.8777931E0,6.760055E1,2.3472414E0,4.225034E0,3.2861378E0,4.4597588E0,5.398655E0,3.0514138E0,5.163931E0,5.633379E0,6.196717E1,1.1736207E0,1.1736207E0,1.1736207E0,2.112517E0,3.2861378E0,1.1736207E0,2.112517E0,3.2861378E0,1.1736207E0,1.8777931E0,2.8166895E0,2.3472414E0,1.6430689E0,3.9903102E0,6.0793552E1,1.1736207E0],"tree_param":{"num_deleted":"0","num_feature":"208","num_nodes":"41","size_leaf_vector":"1"}},{"base_weights":[2.1436086E-3,1.3490545E0,-7.595306E-1,1.62103E-1,4.0752724E-1,-8.18203E-1,1.0967774E-1,8.167871E-1,-9.236435E-2,1.5870345E-1,-9.623369E-1,1.1914046E0,4.4533098E-1,-8.998072E-2,8.107712E-2,-1.0137522E0,3.5288754E-1,1.0849992E-1,6.0011953E-1,6.5855406E-2,8.7663966E-1,-6.059036E-2,2.4789348E-1,-2.9472348E-1,-1.0744767E0,6.945948E-2,-2.9328244E-2,6.995532E-2,1.3142185E-2,5.5998147E-2,-5.056423E-2,9.6634574E-2,-8.059154E-3,7.038539E-2,-2.0168522E-2,-7.219309E-2,8.47694E-3,-8.2293764E-2,3.9037212E-3],"categories":[],"categories_nodes":[],"categories_segments":[],"categories_sizes":[],"default_left":[0,0,0,0,0,0,0,0,0,0,0,0,0,0,0,0,0,0,0,0,0,0,0,0,0,0,0,0,0,0,0,0,0,0,0,0,0,0,0],"id":1,"left_children":[1,3,5,-1,7,9,-1,11,-1,13,15,17,19,21,-1,23,25,-1,27,29,31,-1,33,35,37,-1,-1,-1,-1,-1,-1,-1,-1,-1,-1,-1,-1,-1,-1],"loss_changes":[1.3022389E2,3.4187477E1,1.1767082E1,0E0,1.6078203E1,1.1366474E1,0E0,2.0550556E0,0E0,2.6427653E0,5.0603714E0,4.3803024E-1,1.7306666E0,2.5443857E0,0E0,2.6167603E0,1.7942091E0,0E0,4.468658E-1,3.9766057E0,2.17814E0,0E0,2.870767E0,1.9088131E0,1.6367645E0,0E0,0E0,0E0,0E0,0E0,0E0,0E0,0E0,0E0,0E0,0E0,0E0,0E0,0E0],"parents":[2147483647,0,0,1,1,2,2,4,4,5,5,7,7,9,9,10,10,11,11,12,12,13,13,15,15,16,16,18,18,19,19,20,20,22,22,23,23,24,24],"right_children":[2,4,6,-1,8,10,-1,12,-1,14,16,18,20,22,-1,24,26,-1,28,30,32,-1,34,36,38,-1,-1,-1,-1,-1,-1,-1,-1,-1,-1,-1,-1,-1,-1],"split_conditions":[1E0,3E0,6.596116E-1,1.62103E-1,2.345E1,7.2E1,1.0967774E-1,2E0,-9.236435E-2,6.3E1,6.3470733E-1,4.2309296E-1,1.11333E1,2.87125E1,8.107712E-2,2E0,5.6581444E-1,1.0849992E-1,1.5E1,8.0292E0,1.78E1,-6.059036E-2,2.2E1,1E0,5.7596904E-1,6.945948E-2,-2.9328244E-2,6.995532E-2,1.3142185E-2,5.5998147E-2,-5.056423E-2,9.6634574E-2,-8.059154E-3,7.038539E-2,-2.0168522E-2,-7.219309E-2,8.47694E-3,-8.2293764E-2,3.9037212E-3],"split_indices":[1,0,77,0,5,6,0,7,0,6,207,79,5,5,0,0,80,0,2,5,5,0,6,7,34,0,0,0,0,0,0,0,0,0,0,0,0,0,0],"split_type":[0,0,0,0,0,0,0,0,0,0,0,0,0,0,0,0,0,0,0,0,0,0,0,0,0,0,0,0,0,0,0,0,0,0,0,0,0,0,0],"sum_hessian":[1.2493657E2,4.485168E1,8.008489E1,2.3382462E1,2.146922E1,7.8640045E1,1.4448447E0,1.758103E1,3.8881905E0,1.0097878E1,6.854217E1,7.654249E0,9.92678E0,8.664209E0,1.4336684E0,6.618409E1,2.3580809E0,4.3358107E0,3.3184388E0,5.8938866E0,4.032893E0,2.3276162E0,6.3365936E0,5.610035E0,6.057405E1,1.1935087E0,1.1645722E0,1.1909117E0,2.127527E0,3.0652082E0,2.8286781E0,2.6250744E0,1.407819E0,2.3630664E0,3.973527E0,1.6108799E0,3.9991553E0,5.9399254E1,1.1747978E0],"tree_param":{"num_deleted":"0","num_feature":"208","num_nodes":"39","size_leaf_vector":"1"}},{"base_weights":[4.485724E-3,1.2408359E0,-7.153985E-1,1.4752296E-1,3.8423714E-1,-7.7257323E-1,1.0365E-1,7.642018E-1,-8.894545E-2,1.5286402E-1,-9.121363E-1,1.11058E0,4.1825753E-1,3.4966207E-1,-6.22837E-2,-9.622733E-1,3.3743227E-1,1.0035443E-1,5.7112616E-1,7.8981084E-1,3.1566154E-2,-5.647945E-2,8.003674E-1,-1.0003439E0,-1.6043698E-2,6.6112146E-2,-2.8268598E-2,6.657117E-2,1.2445071E-2,7.350027E-2,3.3678885E-3,-7.876328E-2,5.8987204E-2,-7.187984E-2,3.5341624E-2,1.05169706E-1,-1.6859805E-2,-7.671502E-2,9.288357E-3,5.4940652E-2,-6.324669E-2],"categories":[],"categories_nodes":[],"categories_segments":[],"categories_sizes":[],"default_left":[0,0,0,0,0,0,0,0,0,0,0,0,0,0,0,0,0,0,0,0,0,0,0,0,0,0,0,0,0,0,0,0,0,0,0,0,0,0,0,0,0],"id":2,"left_children":[1,3,5,-1,7,9,-1,11,-1,13,15,17,19,21,-1,23,25,-1,27,29,31,33,35,37,39,-1,-1,-1,-1,-1,-1,-1,-1,-1,-1,-1,-1,-1,-1,-1,-1],"loss_changes":[1.1211232E2,2.8076187E1,1.061491E1,0E0,1.4335369E1,1.0232151E1,0E0,1.7800312E0,0E0,2.437752E0,4.5877724E0,3.1025028E-1,1.5520197E0,1.8665391E0,0E0,2.3500214E0,1.6401749E0,0E0,4.0948987E-1,7.4311304E-1,6.0687265E0,3.3871357E0,3.2660022E0,1.7249908E0,2.8202853E0,0E0,0E0,0E0,0E0,0E0,0E0,0E0,0E0,0E0,0E0,0E0,0E0,0E0,0E0,0E0,0E0],"parents":[2147483647,0,0,1,1,2,2,4,4,5,5,7,7,9,9,10,10,11,11,12,12,13,13,15,15,16,16,18,18,19,19,20,20,21,21,22,22,23,23,24,24],"right_children":[2,4,6,-1,8,10,-1,12,-1,14,16,18,20,22,-1,24,26,-1,28,30,32,34,36,38,40,-1,-1,-1,-1,-1,-1,-1,-1,-1,-1,-1,-1,-1,-1,-1,-1],"split_conditions":[1E0,3E0,6.596116E-1,1.4752296E-1,2.345E1,7.2E1,1.0365E-1,2E0,-8.894545E-2,3.9513108E-1,6.3470733E-1,4.2309296E-1,3.175265E-1,4E1,-6.22837E-2,7.3E1,5.6581444E-1,1.0035443E-1,1.5E1,1.74E1,4.2309296E-1,3E1,7.72875E1,5.5065155E-1,3.245402E-1,6.6112146E-2,-2.8268598E-2,6.657117E-2,1.2445071E-2,7.350027E-2,3.3678885E-3,-7.876328E-2,5.8987204E-2,-7.187984E-2,3.5341624E-2,1.05169706E-1,-1.6859805E-2,-7.671502E-2,9.288357E-3,5.4940652E-2,-6.324669E-2],"split_indices":[1,0,77,0,5,6,0,7,0,106,207,79,79,6,0,6,80,0,2,5,79,5,5,107,80,0,0,0,0,0,0,0,0,0,0,0,0,0,0,0,0],"split_type":[0,0,0,0,0,0,0,0,0,0,0,0,0,0,0,0,0,0,0,0,0,0,0,0,0,0,0,0,0,0,0,0,0,0,0,0,0,0,0,0,0],"sum_hessian":[1.2396742E2,4.5353073E1,7.861436E1,2.384417E1,2.1508904E1,7.71431E1,1.4712573E0,1.773141E1,3.7774954E0,1.0096737E1,6.704636E1,7.755699E0,9.975709E0,8.9499235E0,1.1468127E0,6.468105E1,2.3653088E0,4.4139924E0,3.3417068E0,4.5557876E0,5.419922E0,5.16779E0,3.7821338E0,6.2124344E1,2.5567057E0,1.2098624E0,1.1554465E0,1.2077477E0,2.133959E0,3.3777556E0,1.1780318E0,2.0670059E0,3.3529162E0,1.6062677E0,3.561522E0,2.1512496E0,1.6308842E0,6.0992496E1,1.1318485E0,1.4022611E0,1.1544446E0],"tree_param":{"num_deleted":"0","num_feature":"208","num_nodes":"41","size_leaf_vector":"1"}},{"base_weights":[6.2706647E-3,1.1500847E0,-6.7486787E-1,1.3601333E-1,3.6164278E-1,-7.305695E-1,9.830379E-2,7.152162E-1,-8.5849464E-2,1.3998018E-1,-8.6491936E-1,7.983369E-2,3.901188E-1,3.274007E-1,-6.041038E-2,-9.138386E-1,3.2281902E-1,-7.291688E-1,8.8962966E-1,-9.300498E-2,7.160285E-1,-9.4424653E-1,1.1716012E-2,6.3008256E-2,-2.7252365E-2,-7.912323E-2,2.5202592E-3,1.0951715E-2,9.8774746E-2,3.844481E-2,-5.7135615E-2,-3.8516987E-3,8.706162E-2,-7.439457E-2,-1.461139E-2],"categories":[],"categories_nodes":[],"categories_segments":[],"categories_sizes":[],"default_left":[0,0,0,0,0,0,0,0,0,0,0,0,0,0,0,0,0,0,0,0,0,0,0,0,0,0,0,0,0,0,0,0,0,0,0],"id":3,"left_children":[1,3,5,-1,7,9,-1,11,-1,13,15,-1,17,19,-1,21,23,25,27,29,31,33,-1,-1,-1,-1,-1,-1,-1,-1,-1,-1,-1,-1,-1],"loss_changes":[9.7053E1,2.3663136E1,9.593521E0,0E0,1.2798556E1,9.079376E0,0E0,1.7229319E0,0E0,2.2307642E0,4.158474E0,0E0,6.9843893E0,1.6963902E0,0E0,2.2339668E0,1.5012109E0,1.0410187E0,2.4408436E0,2.689783E0,1.8681631E0,2.0398788E0,0E0,0E0,0E0,0E0,0E0,0E0,0E0,0E0,0E0,0E0,0E0,0E0,0E0],"parents":[2147483647,0,0,1,1,2,2,4,4,5,5,7,7,9,9,10,10,12,12,13,13,15,15,16,16,17,17,18,18,19,19,20,20,21,21],"right_children":[2,4,6,-1,8,10,-1,12,-1,14,16,-1,18,20,-1,22,24,26,28,30,32,34,-1,-1,-1,-1,-1,-1,-1,-1,-1,-1,-1,-1,-1],"split_conditions":[1E0,3E0,6.596116E-1,1.3601333E-1,2.345E1,7.2E1,9.830379E-2,8.05E0,-8.5849464E-2,3.9513108E-1,6.3470733E-1,7.983369E-2,1.11333E1,3.032202E-1,-6.041038E-2,5.7596904E-1,5.6581444E-1,2.85E1,1E0,3.8E1,3.2E1,5.25542E1,1.1716012E-2,6.3008256E-2,-2.7252365E-2,-7.912323E-2,2.5202592E-3,1.0951715E-2,9.8774746E-2,3.844481E-2,-5.7135615E-2,-3.8516987E-3,8.706162E-2,-7.439457E-2,-1.461139E-2],"split_indices":[1,0,77,0,5,6,0,5,0,106,207,0,5,80,0,34,80,2,4,2,2,5,0,0,0,0,0,0,0,0,0,0,0,0,0],"split_type":[0,0,0,0,0,0,0,0,0,0,0,0,0,0,0,0,0,0,0,0,0,0,0,0,0,0,0,0,0,0,0,0,0,0,0],"sum_hessian":[1.225751E2,4.549251E1,7.708259E1,2.3998827E1,2.1493687E1,7.559402E1,1.4885751E0,1.7832952E1,3.660734E0,1.0100929E1,6.549309E1,7.500916E0,1.0332036E1,8.9754095E0,1.1255198E0,6.3123817E1,2.3692684E0,3.0462756E0,7.2857604E0,4.6768355E0,4.298574E0,6.1493904E1,1.6299151E0,1.2229815E0,1.1462868E0,1.8661107E0,1.180165E0,3.148732E0,4.1370287E0,2.5769567E0,2.0998785E0,1.9018772E0,2.3966968E0,5.7511272E1,3.9826314E0],"tree_param":{"num_deleted":"0","num_feature":"208","num_nodes":"35","size_leaf_vector":"1"}},{"base_weights":[7.1304804E-3,1.0695055E0,-6.369915E-1,1.2667648E-1,3.3537748E-1,-6.9122744E-1,9.353165E-2,6.6344076E-1,-8.3025515E-2,1.2950023E-1,-8.209486E-1,7.376985E-2,3.627979E-1,-1.1699918E-1,6.352113E-2,-8.6870575E-1,3.089905E-1,-7.001947E-1,8.3017373E-1,4.5808154E-1,-4.8571256E-1,-2.1354695E-1,-9.2733735E-1,6.0121883E-2,-2.6277171E-2,-7.6303415E-2,2.4171625E-3,1.0313443E-2,9.186404E-2,9.4205E-2,-2.4428455E-2,-9.170872E-3,-5.698673E-2,-6.6533975E-2,1.3149489E-2,-7.1364194E-2,5.6730197E-3],"categories":[],"categories_nodes":[],"categories_segments":[],"categories_sizes":[],"default_left":[0,0,0,0,0,0,0,0,0,0,0,0,0,0,0,0,0,0,0,0,0,0,0,0,0,0,0,0,0,0,0,0,0,0,0,0,0],"id":4,"left_children":[1,3,5,-1,7,9,-1,11,-1,13,15,-1,17,19,-1,21,23,25,27,29,31,33,35,-1,-1,-1,-1,-1,-1,-1,-1,-1,-1,-1,-1,-1,-1],"loss_changes":[8.410581E1,2.0531582E1,8.681503E0,0E0,1.1371142E1,8.093925E0,0E0,1.4660454E0,0E0,2.0627503E0,3.7717667E0,0E0,6.2208257E0,2.1611233E0,0E0,2.2047577E0,1.3755975E0,9.6417344E-1,2.112146E0,2.9650102E0,5.104252E-1,1.8416647E0,1.4574013E0,0E0,0E0,0E0,0E0,0E0,0E0,0E0,0E0,0E0,0E0,0E0,0E0,0E0,0E0],"parents":[2147483647,0,0,1,1,2,2,4,4,5,5,7,7,9,9,10,10,12,12,13,13,15,15,16,16,17,17,18,18,19,19,20,20,21,21,22,22],"right_children":[2,4,6,-1,8,10,-1,12,-1,14,16,-1,18,20,-1,22,24,26,28,30,32,34,36,-1,-1,-1,-1,-1,-1,-1,-1,-1,-1,-1,-1,-1,-1],"split_conditions":[1E0,3E0,6.596116E-1,1.2667648E-1,2.345E1,7.2E1,9.353165E-2,8.05E0,-8.3025515E-2,5.8E1,6.3470733E-1,7.376985E-2,1.11333E1,1E0,6.352113E-2,2E0,5.6581444E-1,2.85E1,1E0,2.2E1,3.65E1,1E0,5.3155166E-1,6.0121883E-2,-2.6277171E-2,-7.6303415E-2,2.4171625E-3,1.0313443E-2,9.186404E-2,9.4205E-2,-2.4428455E-2,-9.170872E-3,-5.698673E-2,-6.6533975E-2,1.3149489E-2,-7.1364194E-2,5.6730197E-3],"split_indices":[1,0,77,0,5,6,0,5,0,6,207,0,5,7,0,0,80,2,4,6,2,7,77,0,0,0,0,0,0,0,0,0,0,0,0,0,0],"split_type":[0,0,0,0,0,0,0,0,0,0,0,0,0,0,0,0,0,0,0,0,0,0,0,0,0,0,0,0,0,0,0,0,0,0,0,0,0],"sum_hessian":[1.2091239E2,4.5389446E1,7.552295E1,2.3910877E1,2.1478569E1,7.4025154E1,1.4977968E0,1.7938568E1,3.540001E0,1.010349E1,6.3921665E1,7.587221E0,1.0351346E1,8.142745E0,1.960745E0,6.1551373E1,2.3702924E0,3.0091774E0,7.342169E0,3.0864472E0,5.0562973E0,5.437216E0,5.6114155E1,1.2331616E0,1.1371307E0,1.8283377E0,1.1808399E0,3.1544843E0,4.1876845E0,1.2308085E0,1.8556387E0,2.7956827E0,2.2606146E0,1.5211527E0,3.9160633E0,5.4843006E1,1.2711513E0],"tree_param":{"num_deleted":"0","num_feature":"208","num_nodes":"37","size_leaf_vector":"1"}},{"base_weights":[8.09795E-3,1.0000168E0,-6.016009E-1,1.5857669E0,3.1155425E-1,-8.02874E-1,-7.045464E-2,1.6530218E0,7.6041937E-1,6.170088E-1,-8.043238E-2,-8.587581E-1,2.9589254E-1,1.5622397E-1,-7.0611805E-2,1.270353E-1,4.0030785E-2,6.411588E-3,7.9596594E-2,4.6362266E-1,1.0205214E-1,6.287775E-2,-9.3321764E-1,5.7430413E-2,-2.5340877E-2,3.513111E-1,-5.830687E-2,8.435322E-1,1.1181633E-1,5.1832017E-2,-6.2335845E-2,-3.4498942E-1,-1.0084456E0,9.628127E-2,1.8527316E-1,7.430733E-2,3.260142E-2,-8.313574E-2,4.914335E-2,4.232498E-2,-4.7944166E-2,-7.79375E-2,-4.217153E-3,-1.4498895E-2,4.6355397E-2],"categories":[],"categories_nodes":[],"categories_segments":[],"categories_sizes":[],"default_left":[0,0,0,0,0,0,0,0,0,0,0,0,0,0,0,0,0,0,0,0,0,0,0,0,0,0,0,0,0,0,0,0,0,0,0,0,0,0,0,0,0,0,0,0,0],"id":5,"left_children":[1,3,5,7,9,11,13,15,17,19,-1,21,23,25,-1,-1,-1,-1,-1,27,-1,29,31,-1,-1,33,-1,35,37,-1,-1,39,41,-1,43,-1,-1,-1,-1,-1,-1,-1,-1,-1,-1],"loss_changes":[7.315208E1,1.8073528E1,7.952841E0,1.1034012E-1,1.0135511E1,3.584362E0,4.428639E0,9.672928E-2,6.6222215E-1,1.5357275E0,0E0,3.6180305E0,1.2618401E0,3.5634458E0,0E0,0E0,0E0,0E0,0E0,2.2128859E0,0E0,3.2781327E0,1.7784996E0,0E0,0E0,2.1821637E0,0E0,5.9735775E-2,7.434364E0,0E0,0E0,2.2254357E0,1.1726608E0,0E0,2.485056E0,0E0,0E0,0E0,0E0,0E0,0E0,0E0,0E0,0E0,0E0],"parents":[2147483647,0,0,1,1,2,2,3,3,4,4,5,5,6,6,7,7,8,8,9,9,11,11,12,12,13,13,19,19,21,21,22,22,25,25,27,27,28,28,31,31,32,32,34,34],"right_children":[2,4,6,8,10,12,14,16,18,20,-1,22,24,26,-1,-1,-1,-1,-1,28,-1,30,32,-1,-1,34,-1,36,38,-1,-1,40,42,-1,44,-1,-1,-1,-1,-1,-1,-1,-1,-1,-1],"split_conditions":[1E0,3E0,2.62875E1,7.52079E-1,2.345E1,6.3470733E-1,3E0,6.3639444E-1,2.6E1,5.330815E-1,-8.043238E-2,1.8340848E-1,5.6581444E-1,5.434008E-1,-7.0611805E-2,1.270353E-1,4.0030785E-2,6.411588E-3,7.9596594E-2,8.05E0,1.0205214E-1,3E1,1E0,5.7430413E-2,-2.5340877E-2,1.8E1,-5.830687E-2,2.8E1,1.11333E1,5.1832017E-2,-6.2335845E-2,2.3E1,4.8734084E-1,9.628127E-2,5.25542E1,7.430733E-2,3.260142E-2,-8.313574E-2,4.914335E-2,4.232498E-2,-4.7944166E-2,-7.79375E-2,-4.217153E-3,-1.4498895E-2,4.6355397E-2],"split_indices":[1,0,5,81,5,207,3,36,2,81,0,80,80,203,0,0,0,0,0,5,0,2,7,0,0,2,0,2,5,0,0,2,34,0,5,0,0,0,0,0,0,0,0,0,0],"split_type":[0,0,0,0,0,0,0,0,0,0,0,0,0,0,0,0,0,0,0,0,0,0,0,0,0,0,0,0,0,0,0,0,0,0,0,0,0,0,0,0,0,0,0,0,0],"sum_hessian":[1.1896337E2,4.5042904E1,7.392046E1,2.363267E1,2.1410236E1,5.323569E1,2.0684776E1,2.0924759E1,2.70791E0,1.79932E1,3.417035E0,5.0866993E1,2.3686981E0,1.706454E1,3.6202343E0,1.9693892E1,1.2308682E0,1.2308682E0,1.4770418E0,1.626246E1,1.73074E0,3.8140078E0,4.7052982E1,1.2406876E0,1.1280105E0,1.4631081E1,2.4334607E0,7.146914E0,9.115546E0,2.373306E0,1.4407016E0,5.968621E0,4.1084362E1,1.1940191E0,1.3437062E1,4.208171E0,2.9387436E0,2.4882605E0,6.627286E0,1.2348871E0,4.7337337E0,3.9711845E1,1.3725183E0,7.4625278E0,5.9745345E0],"tree_param":{"num_deleted":"0","num_feature":"208","num_nodes":"45","size_leaf_vector":"1"}},{"base_weights":[9.583153E-3,9.436907E-1,-5.6948465E-1,1.5029477E0,2.9354963E-1,-6.215662E-1,8.6940825E-2,1.5655651E0,7.30249E-1,5.7958984E-1,-7.803635E-2,1.2880316E-1,-7.454655E-1,1.20279826E-1,3.8491834E-2,6.1491015E-3,7.657383E-2,4.3289268E-1,9.696869E-2,3.0208874E-1,-5.720483E-2,-7.911028E-1,2.8347495E-1,5.734701E-1,-3.1056398E-1,-7.036838E-2,7.129757E-1,-8.214667E-1,1.3999843E-2,5.4914106E-2,-2.444148E-2,6.4812474E-2,1.576546E-2,-6.629395E-2,2.925091E-2,-6.848522E-2,3.1090567E-2,9.471255E-2,-1.7186604E-2,-2.2419062E-2,-6.682893E-2],"categories":[],"categories_nodes":[],"categories_segments":[],"categories_sizes":[],"default_left":[0,0,0,0,0,0,0,0,0,0,0,0,0,0,0,0,0,0,0,0,0,0,0,0,0,0,0,0,0,0,0,0,0,0,0,0,0,0,0,0,0],"id":6,"left_children":[1,3,5,7,9,11,-1,13,15,17,-1,19,21,-1,-1,-1,-1,23,-1,25,-1,27,29,31,33,35,37,39,-1,-1,-1,-1,-1,-1,-1,-1,-1,-1,-1,-1,-1],"loss_changes":[6.433922E1,1.6107815E1,7.332344E0,2.885437E-2,9.108621E0,6.784363E0,0E0,4.1828156E-2,6.117877E-1,1.4281735E0,0E0,1.9372095E0,3.1306267E0,0E0,0E0,0E0,0E0,1.9819667E0,0E0,1.5753963E0,0E0,1.9206467E0,1.1586382E0,1.3882313E0,1.7077576E0,2.886844E0,2.7907474E0,1.8397255E0,0E0,0E0,0E0,0E0,0E0,0E0,0E0,0E0,0E0,0E0,0E0,0E0,0E0],"parents":[2147483647,0,0,1,1,2,2,3,3,4,4,5,5,7,7,8,8,9,9,11,11,12,12,17,17,19,19,21,21,22,22,23,23,24,24,25,25,26,26,27,27],"right_children":[2,4,6,8,10,12,-1,14,16,18,-1,20,22,-1,-1,-1,-1,24,-1,26,-1,28,30,32,34,36,38,40,-1,-1,-1,-1,-1,-1,-1,-1,-1,-1,-1,-1,-1],"split_conditions":[1E0,3E0,6.596116E-1,7.52079E-1,2.345E1,7.2E1,8.6940825E-2,6.3639444E-1,2.6E1,5.330815E-1,-7.803635E-2,3.9513108E-1,6.3470733E-1,1.20279826E-1,3.8491834E-2,6.1491015E-3,7.657383E-2,2.85E1,9.696869E-2,4E1,-5.720483E-2,5.7596904E-1,5.6581444E-1,8.05E0,1.5E1,3E1,7.72875E1,1.8340848E-1,1.3999843E-2,5.4914106E-2,-2.444148E-2,6.4812474E-2,1.576546E-2,-6.629395E-2,2.925091E-2,-6.848522E-2,3.1090567E-2,9.471255E-2,-1.7186604E-2,-2.2419062E-2,-6.682893E-2],"split_indices":[1,0,77,81,5,6,0,36,2,81,0,106,207,0,0,0,0,2,0,6,0,34,80,5,5,5,5,80,0,0,0,0,0,0,0,0,0,0,0,0,0],"split_type":[0,0,0,0,0,0,0,0,0,0,0,0,0,0,0,0,0,0,0,0,0,0,0,0,0,0,0,0,0,0,0,0,0,0,0,0,0,0,0,0,0],"sum_hessian":[1.1695237E2,4.451482E1,7.243755E1,2.3224865E1,2.1289955E1,7.094071E1,1.496836E0,2.0534687E1,2.6901767E0,1.7996687E1,3.2932673E0,1.0047943E1,6.0892773E1,1.9310383E1,1.2243053E0,1.2298797E0,1.4602971E0,1.6259706E1,1.7369808E0,8.966334E0,1.0816084E0,5.8527985E1,2.3647857E0,1.3866405E1,2.3933024E0,5.137804E0,3.8285306E0,5.6920227E1,1.6077604E0,1.2458314E0,1.1189543E0,6.9366035E0,6.929801E0,1.1722354E0,1.2210671E0,1.5539483E0,3.5838556E0,2.2026114E0,1.625919E0,7.311444E0,4.960878E1],"tree_param":{"num_deleted":"0","num_feature":"208","num_nodes":"41","size_leaf_vector":"1"}},{"base_weights":[1.1616712E-2,8.9234066E-1,-5.3867227E-1,1.07411355E-1,2.753436E-1,-6.0319823E-1,7.9795194E-1,5.4289544E-1,-7.580962E-2,1.1758657E-1,-7.273912E-1,1.02117814E-1,-2.3735747E-2,4.0236384E-1,9.243049E-2,6.041384E-1,-1.9712286E-1,-7.7370834E-1,2.716916E-1,5.17957E-1,-3.0623103E-2,8.7503344E-2,4.3379325E-2,1.72022E-1,-5.5213485E-2,-1.5073898E-1,-8.3468795E-1,5.2555747E-2,-2.3577116E-2,1.9515485E-2,7.9612635E-2,3.3933733E-2,-2.9699571E-2,-3.605049E-2,6.295898E-2,2.2511486E-2,-5.1771563E-2,-7.3542975E-2,-4.274378E-2],"categories":[],"categories_nodes":[],"categories_segments":[],"categories_sizes":[],"default_left":[0,0,0,0,0,0,0,0,0,0,0,0,0,0,0,0,0,0,0,0,0,0,0,0,0,0,0,0,0,0,0,0,0,0,0,0,0,0,0],"id":7,"left_children":[1,3,5,-1,7,9,11,13,-1,15,17,-1,-1,19,-1,21,23,25,27,29,-1,-1,31,33,-1,35,37,-1,-1,-1,-1,-1,-1,-1,-1,-1,-1,-1,-1],"loss_changes":[5.6582775E1,1.4556904E1,6.679634E0,0E0,8.183001E0,6.2735176E0,2.7801313E0,1.3467088E0,0E0,1.8066442E0,2.9453144E0,0E0,0E0,1.8308523E0,0E0,1.3925557E0,1.6083716E0,2.029911E0,1.0648559E0,1.904459E0,0E0,0E0,7.77622E-1,2.6819596E0,0E0,1.7349433E0,1.4291344E0,0E0,0E0,0E0,0E0,0E0,0E0,0E0,0E0,0E0,0E0,0E0,0E0],"parents":[2147483647,0,0,1,1,2,2,4,4,5,5,6,6,7,7,9,9,10,10,13,13,15,15,16,16,17,17,18,18,19,19,22,22,23,23,25,25,26,26],"right_children":[2,4,6,-1,8,10,12,14,-1,16,18,-1,-1,20,-1,22,24,26,28,30,-1,-1,32,34,-1,36,38,-1,-1,-1,-1,-1,-1,-1,-1,-1,-1,-1,-1],"split_conditions":[1E0,3E0,5.3155166E-1,1.07411355E-1,2.345E1,7.2E1,3E0,5.330815E-1,-7.580962E-2,1E0,6.3470733E-1,1.02117814E-1,-2.3735747E-2,3.5173976E-1,9.243049E-2,2.2E1,3.9E1,2E0,5.6581444E-1,1E0,-3.0623103E-2,8.7503344E-2,2.85E1,4.2E1,-5.5213485E-2,3.245402E-1,5.6581444E-1,5.2555747E-2,-2.3577116E-2,1.9515485E-2,7.9612635E-2,3.3933733E-2,-2.9699571E-2,-3.605049E-2,6.295898E-2,2.2511486E-2,-5.1771563E-2,-7.3542975E-2,-4.274378E-2],"split_indices":[1,0,77,0,5,6,3,81,0,7,207,0,0,81,0,6,2,0,80,4,0,0,2,6,0,80,80,0,0,0,0,0,0,0,0,0,0,0,0],"split_type":[0,0,0,0,0,0,0,0,0,0,0,0,0,0,0,0,0,0,0,0,0,0,0,0,0,0,0,0,0,0,0,0,0,0,0,0,0,0,0],"sum_hessian":[1.1475732E2,4.389033E1,7.086698E1,2.2704771E1,2.1185562E1,6.8126854E1,2.7401328E0,1.8015696E1,3.169868E0,1.002095E1,5.81059E1,1.6725032E0,1.0676295E0,1.6280966E1,1.7347288E0,3.574688E0,6.446263E0,5.5747066E1,2.358835E0,1.4565201E1,1.7157654E0,1.245034E0,2.329654E0,4.2302685E0,2.2159941E0,5.2798543E0,5.0467213E1,1.2488489E0,1.1099861E0,1.0883116E1,3.6820846E0,1.1910182E0,1.1386358E0,2.280214E0,1.9500546E0,3.1179383E0,2.161916E0,3.0795727E1,1.9671484E1],"tree_param":{"num_deleted":"0","num_feature":"208","num_nodes":"39","size_leaf_vector":"1"}},{"base_weights":[1.2664063E-2,7.0218384E-1,-6.211234E-1,1.2112113E0,1.2033624E-1,7.3823065E-2,-7.284745E-1,1.2710137E0,-1.0916108E-2,4.7020423E-1,-1.0061212E0,-3.667505E-1,5.672225E-1,-7.807877E-1,2.6049966E-1,1.306709E0,1.5932847E-2,8.407282E-1,1.721365E-1,-8.1323385E-2,-2.2911787E-2,3.0099615E-1,-7.432689E-2,7.53676E-2,-2.9516105E-2,-8.179434E-1,1.5522561E-2,5.0340272E-2,-2.2746097E-2,1.3529743E0,5.664301E-1,8.135595E-2,3.432598E-1,-1.5755574E-1,6.28809E-1,-2.554215E-2,5.836989E-2,-9.996459E-1,-5.5370134E-1,1.10256664E-1,5.908557E-2,6.187522E-2,3.569158E-3,5.0916117E-2,1.7455422E-4,2.1377055E-2,-5.112462E-2,8.390191E-2,-2.4836723E-2,-8.073321E-2,-1.8302908E-2,-4.817248E-2,3.1302035E-2],"categories":[],"categories_nodes":[],"categories_segments":[],"categories_sizes":[],"default_left":[0,0,0,0,0,0,0,0,0,0,0,0,0,0,0,0,0,0,0,0,0,0,0,0,0,0,0,0,0,0,0,0,0,0,0,0,0,0,0,0,0,0,0,0,0,0,0,0,0,0,0,0,0],"id":8,"left_children":[1,3,5,7,9,11,13,15,-1,17,19,21,23,25,27,29,-1,31,33,-1,-1,35,-1,-1,-1,37,-1,-1,-1,39,41,-1,43,45,47,-1,-1,49,51,-1,-1,-1,-1,-1,-1,-1,-1,-1,-1,-1,-1,-1,-1],"loss_changes":[5.003618E1,1.6093235E1,4.5053635E0,2.5488548E0,1.0993757E1,2.1409876E0,2.882206E0,7.8068924E-1,0E0,2.180059E0,3.277111E-2,2.5096622E0,2.3244648E0,1.983284E0,9.795021E-1,1.5490723E-1,0E0,7.355752E-1,2.0447814E0,0E0,0E0,1.2847462E0,0E0,0E0,0E0,1.7433167E0,0E0,0E0,0E0,4.6989822E-1,4.0378094E-1,0E0,5.0949955E-1,2.1206176E0,3.0126705E0,0E0,0E0,1.3100967E0,2.137864E0,0E0,0E0,0E0,0E0,0E0,0E0,0E0,0E0,0E0,0E0,0E0,0E0,0E0,0E0],"parents":[2147483647,0,0,1,1,2,2,3,3,4,4,5,5,6,6,7,7,9,9,10,10,11,11,12,12,13,13,14,14,15,15,17,17,18,18,21,21,25,25,29,29,30,30,32,32,33,33,34,34,37,37,38,38],"right_children":[2,4,6,8,10,12,14,16,-1,18,20,22,24,26,28,30,-1,32,34,-1,-1,36,-1,-1,-1,38,-1,-1,-1,40,42,-1,44,46,48,-1,-1,50,52,-1,-1,-1,-1,-1,-1,-1,-1,-1,-1,-1,-1,-1,-1],"split_conditions":[1.8340848E-1,3E0,7.2E1,4.8734084E-1,2.345E1,4.2E1,6.3470733E-1,5.219703E-1,-1.0916108E-2,2E0,4.786325E-1,2.2E1,7.72875E1,4.8734084E-1,5.6581444E-1,1.5155E2,1.5932847E-2,4.2309296E-1,1.11333E1,-8.1323385E-2,-2.2911787E-2,3.4E1,-7.432689E-2,7.53676E-2,-2.9516105E-2,5.6581444E-1,1.5522561E-2,5.0340272E-2,-2.2746097E-2,4.2E1,1E0,8.135595E-2,1.5E1,8.0292E0,1.78E1,-2.554215E-2,5.836989E-2,4.8E1,5.2E1,1.10256664E-1,5.908557E-2,6.187522E-2,3.569158E-3,5.0916117E-2,1.7455422E-4,2.1377055E-2,-5.112462E-2,8.390191E-2,-2.4836723E-2,-8.073321E-2,-1.8302908E-2,-4.817248E-2,3.1302035E-2],"split_indices":[80,0,6,34,5,6,207,61,0,7,77,6,5,34,80,5,0,79,5,0,0,2,0,0,0,80,0,0,0,2,3,0,2,5,5,0,0,2,5,0,0,0,0,0,0,0,0,0,0,0,0,0,0],"split_type":[0,0,0,0,0,0,0,0,0,0,0,0,0,0,0,0,0,0,0,0,0,0,0,0,0,0,0,0,0,0,0,0,0,0,0,0,0,0,0,0,0,0,0,0,0,0,0,0,0,0,0,0,0],"sum_hessian":[1.1249889E2,5.3828762E1,5.867013E1,2.8134087E1,2.5694675E1,7.8921227E0,5.077801E1,2.7006893E1,1.1271938E0,2.0049923E1,5.644753E0,4.3048544E0,3.5872686E0,4.8426903E1,2.3511057E0,2.5899164E1,1.1077285E0,8.126895E0,1.1923028E1,4.585398E0,1.0593547E0,2.330217E0,1.9746374E0,2.4329882E0,1.1542802E0,4.683699E1,1.5899144E0,1.2499793E0,1.1011264E0,2.359678E1,2.302383E0,4.6603646E0,3.46653E0,7.3045435E0,4.618484E0,1.1162113E0,1.2140057E0,2.6103912E1,2.0733076E1,1.8220043E1,5.3767376E0,1.1427755E0,1.1596075E0,1.2473552E0,2.2191749E0,4.207592E0,3.0969517E0,2.9484859E0,1.6699982E0,2.3310156E1,2.7937574E0,1.9309832E1,1.4232442E0],"tree_param":{"num_deleted":"0","num_feature":"208","num_nodes":"53","size_leaf_vector":"1"}},{"base_weights":[1.3691921E-2,8.0747163E-1,-4.865054E-1,1.3157032E0,2.4783343E-1,-6.68264E-1,-3.9787807E-2,1.3812273E0,5.7825696E-1,4.8295137E-1,-7.157799E-2,-7.198158E-1,2.4986017E-1,1.592509E-1,-6.3523956E-2,1.0657116E-1,3.0098615E-2,-2.126355E-3,6.703597E-2,3.4903505E-1,8.685425E-2,5.69905E-2,-7.8878695E-1,4.8254486E-2,-2.1946825E-2,3.3514583E-1,-5.301267E-2,6.833302E-1,4.2645767E-2,4.7274355E-2,-5.8830842E-2,-1.9779246E-1,-8.696482E-1,1.7811546E-2,6.7295295E-1,6.1754417E-2,2.4454026E-2,-5.3579878E-2,6.139232E-2,3.7158113E-2,-4.4797882E-2,-6.749292E-2,-2.8856182E-3,2.7967026E-2,-6.993366E-2,7.2367206E-2,1.7754983E-3],"categories":[],"categories_nodes":[],"categories_segments":[],"categories_sizes":[],"default_left":[0,0,0,0,0,0,0,0,0,0,0,0,0,0,0,0,0,0,0,0,0,0,0,0,0,0,0,0,0,0,0,0,0,0,0,0,0,0,0,0,0,0,0,0,0,0,0],"id":9,"left_children":[1,3,5,7,9,11,13,15,17,19,-1,21,23,25,-1,-1,-1,-1,-1,27,-1,29,31,-1,-1,33,-1,35,37,-1,-1,39,41,43,45,-1,-1,-1,-1,-1,-1,-1,-1,-1,-1,-1,-1],"loss_changes":[4.457097E1,1.2014334E1,5.5660915E0,2.8878403E-1,6.6458955E0,2.494154E0,3.5062034E0,2.0624542E-1,7.061547E-1,1.3104644E0,0E0,2.5391998E0,9.017061E-1,2.92947E0,0E0,0E0,0E0,0E0,0E0,1.7384975E0,0E0,2.7757266E0,1.874546E0,0E0,0E0,1.6355871E0,0E0,1.4119339E-1,6.500765E0,0E0,0E0,2.0819163E0,9.053669E-1,3.3683152E0,1.3831477E0,0E0,0E0,0E0,0E0,0E0,0E0,0E0,0E0,0E0,0E0,0E0,0E0],"parents":[2147483647,0,0,1,1,2,2,3,3,4,4,5,5,6,6,7,7,8,8,9,9,11,11,12,12,13,13,19,19,21,21,22,22,25,25,27,27,28,28,31,31,32,32,33,33,34,34],"right_children":[2,4,6,8,10,12,14,16,18,20,-1,22,24,26,-1,-1,-1,-1,-1,28,-1,30,32,-1,-1,34,-1,36,38,-1,-1,40,42,44,46,-1,-1,-1,-1,-1,-1,-1,-1,-1,-1,-1,-1],"split_conditions":[1E0,3E0,2.62875E1,7.52079E-1,2.345E1,6.3470733E-1,3E0,6.3639444E-1,2.6E1,5.330815E-1,-7.157799E-2,1.8340848E-1,5.6581444E-1,5.434008E-1,-6.3523956E-2,1.0657116E-1,3.0098615E-2,-2.126355E-3,6.703597E-2,8.05E0,8.685425E-2,3E1,1E0,4.8254486E-2,-2.1946825E-2,5.25542E1,-5.301267E-2,2.8E1,1.55E1,4.7274355E-2,-5.8830842E-2,2.7E1,4.8734084E-1,3.96E1,3.8E1,6.1754417E-2,2.4454026E-2,-5.3579878E-2,6.139232E-2,3.7158113E-2,-4.4797882E-2,-6.749292E-2,-2.8856182E-3,2.7967026E-2,-6.993366E-2,7.2367206E-2,1.7754983E-3],"split_indices":[1,0,5,81,5,207,3,36,2,81,0,80,80,203,0,0,0,0,0,5,0,2,7,0,0,5,0,2,5,0,0,2,34,5,2,0,0,0,0,0,0,0,0,0,0,0,0],"split_type":[0,0,0,0,0,0,0,0,0,0,0,0,0,0,0,0,0,0,0,0,0,0,0,0,0,0,0,0,0,0,0,0,0,0,0,0,0,0,0,0,0,0,0,0,0,0,0],"sum_hessian":[1.1026691E2,4.23871E1,6.787981E1,2.1505785E1,2.0881315E1,4.7896095E1,1.998371E1,1.8949116E1,2.5566697E0,1.7965956E1,2.9153585E0,4.5554256E1,2.3418365E0,1.667476E1,3.3089468E0,1.7778378E1,1.1707375E0,1.1863146E0,1.3703551E0,1.6257975E1,1.7079818E0,3.7290049E0,4.1825253E1,1.249444E0,1.0923924E0,1.4369475E1,2.305286E0,7.186578E0,9.071397E0,2.3669915E0,1.3620133E0,5.448637E0,3.6376617E1,7.9520693E0,6.4174066E0,4.2254515E0,2.9611263E0,4.631675E0,4.4397216E0,1.904257E0,3.5443802E0,3.501912E1,1.3574973E0,6.2312403E0,1.7208289E0,4.0915656E0,2.3258407E0],"tree_param":{"num_deleted":"0","num_feature":"208","num_nodes":"47","size_leaf_vector":"1"}},{"base_weights":[1.421493E-2,7.704141E-1,-4.6217427E-1,1.2669045E0,2.3597457E-1,-5.0977993E-1,7.616387E-2,1.3310157E0,5.577146E-1,4.5778123E-1,-6.9746055E-2,9.596434E-2,-6.18384E-1,1.031666E-1,3.0678272E-2,-2.0392735E-3,6.4928055E-2,3.291018E-1,8.332558E-2,2.5261503E-1,-5.369699E-2,-6.600067E-1,2.3973715E-1,4.4059166E-1,-3.2176904E-2,-9.081115E-2,6.347198E-1,-6.9740075E-1,1.0311129E-1,4.628677E-2,-2.1177825E-2,1.5018399E-2,7.161965E-2,2.9893156E-2,-5.3736053E-2,-1.6153333E-3,7.809508E-2,-5.406728E-2,1.6306033E-2,5.6080557E-2,-5.3259578E-2],"categories":[],"categories_nodes":[],"categories_segments":[],"categories_sizes":[],"default_left":[0,0,0,0,0,0,0,0,0,0,0,0,0,0,0,0,0,0,0,0,0,0,0,0,0,0,0,0,0,0,0,0,0,0,0,0,0,0,0,0,0],"id":10,"left_children":[1,3,5,7,9,11,-1,13,15,17,-1,19,21,-1,-1,-1,-1,23,-1,25,-1,27,29,31,-1,33,35,37,39,-1,-1,-1,-1,-1,-1,-1,-1,-1,-1,-1,-1],"loss_changes":[3.9626823E1,1.0980083E1,5.2663574E0,2.4917984E-1,6.037573E0,4.4053783E0,0E0,2.2895813E-1,6.5930283E-1,1.2231948E0,0E0,1.5684075E0,2.1638813E0,0E0,0E0,0E0,0E0,1.6438468E0,0E0,1.3546844E0,0E0,1.6077881E0,8.3070236E-1,1.7247145E0,0E0,2.1473467E0,1.3040731E0,1.2623577E0,2.305733E0,0E0,0E0,0E0,0E0,0E0,0E0,0E0,0E0,0E0,0E0,0E0,0E0],"parents":[2147483647,0,0,1,1,2,2,3,3,4,4,5,5,7,7,8,8,9,9,11,11,12,12,17,17,19,19,21,21,22,22,23,23,25,25,26,26,27,27,28,28],"right_children":[2,4,6,8,10,12,-1,14,16,18,-1,20,22,-1,-1,-1,-1,24,-1,26,-1,28,30,32,-1,34,36,38,40,-1,-1,-1,-1,-1,-1,-1,-1,-1,-1,-1,-1],"split_conditions":[1E0,3E0,6.596116E-1,7.52079E-1,2.345E1,7.2E1,7.616387E-2,1E0,2.6E1,5.330815E-1,-6.9746055E-2,3.9513108E-1,6.3470733E-1,1.031666E-1,3.0678272E-2,-2.0392735E-3,6.4928055E-2,3.5173976E-1,8.332558E-2,3.078812E-1,-5.369699E-2,7.3E1,5.6581444E-1,1E0,-3.2176904E-2,3.8E1,3.6E1,5.5065155E-1,3.245402E-1,4.628677E-2,-2.1177825E-2,1.5018399E-2,7.161965E-2,2.9893156E-2,-5.3736053E-2,-1.6153333E-3,7.809508E-2,-5.406728E-2,1.6306033E-2,5.6080557E-2,-5.3259578E-2],"split_indices":[1,0,77,81,5,6,0,203,2,81,0,106,207,0,0,0,0,81,0,80,0,6,80,4,0,2,6,107,80,0,0,0,0,0,0,0,0,0,0,0,0],"split_type":[0,0,0,0,0,0,0,0,0,0,0,0,0,0,0,0,0,0,0,0,0,0,0,0,0,0,0,0,0,0,0,0,0,0,0,0,0,0,0,0,0],"sum_hessian":[1.080112E2,4.150724E1,6.650396E1,2.0807087E1,2.0700155E1,6.50629E1,1.4410635E0,1.8277937E1,2.5291498E0,1.7901848E1,2.7983074E0,9.909362E0,5.5153534E1,1.696635E1,1.3115864E0,1.18688E0,1.3422697E0,1.621204E1,1.6898082E0,8.884145E0,1.0252168E0,5.282229E1,2.3312461E0,1.4498708E1,1.7133317E0,5.0803723E0,3.8037722E0,5.0436913E1,2.385375E0,1.2474475E0,1.0837986E0,1.0828123E1,3.670585E0,3.0543115E0,2.026061E0,1.8172897E0,1.9864824E0,4.9380585E1,1.056328E0,1.3755549E0,1.0098201E0],"tree_param":{"num_deleted":"0","num_feature":"208","num_nodes":"41","size_leaf_vector":"1"}},{"base_weights":[1.6463388E-2,6.0956705E-1,-5.3869194E-1,1.070759E0,1.04554996E-1,5.3942528E-2,-6.362303E-1,1.1290395E0,-1.2812411E-2,4.0033925E-1,-9.282419E-1,-4.7363383E-1,4.256349E-1,-6.8541056E-1,2.3009777E-1,1.1646242E0,1.1053847E-2,7.4358594E-1,1.2769473E-1,-7.5821705E-2,-1.9285193E-2,-8.776976E-4,-6.2404573E-2,-1.4526254E-1,7.416691E-2,-7.227643E-1,1.6307862E-2,4.4426933E-2,-2.0437721E-2,1.2107967E0,4.614246E-1,9.6981364E-1,2.948099E-1,-1.7460808E-1,5.463072E-1,5.3772632E-2,-6.452408E-2,-9.142705E-1,-4.5374426E-1,9.913675E-2,5.150815E-2,-1.5567259E-3,5.4866202E-2,8.437419E-2,2.8723203E-2,-1.080995E-2,3.8169898E-2,1.7273743E-2,-4.9151976E-2,7.7056795E-2,-2.7578643E-2,-7.451446E-2,-1.4189233E-2,-4.0554885E-2,3.0527899E-2],"categories":[],"categories_nodes":[],"categories_segments":[],"categories_sizes":[],"default_left":[0,0,0,0,0,0,0,0,0,0,0,0,0,0,0,0,0,0,0,0,0,0,0,0,0,0,0,0,0,0,0,0,0,0,0,0,0,0,0,0,0,0,0,0,0,0,0,0,0,0,0,0,0,0,0],"id":11,"left_children":[1,3,5,7,9,11,13,15,-1,17,19,21,23,25,27,29,-1,31,33,-1,-1,-1,-1,35,-1,37,-1,-1,-1,39,41,43,45,47,49,-1,-1,51,53,-1,-1,-1,-1,-1,-1,-1,-1,-1,-1,-1,-1,-1,-1,-1,-1],"loss_changes":[3.5460415E1,1.2012112E1,3.2507553E0,2.1538372E0,8.300606E0,1.9244167E0,2.196743E0,7.371483E-1,0E0,1.8586767E0,7.753801E-2,6.6986245E-1,1.9704298E0,1.6929226E0,7.6581633E-1,2.517624E-1,0E0,6.312647E-1,1.7204726E0,0E0,0E0,0E0,0E0,2.8938885E0,0E0,1.8499374E0,0E0,0E0,0E0,4.1915512E-1,4.2595518E-1,7.632685E-2,4.9295798E-1,1.7500491E0,2.852334E0,0E0,0E0,1.231142E0,1.737545E0,0E0,0E0,0E0,0E0,0E0,0E0,0E0,0E0,0E0,0E0,0E0,0E0,0E0,0E0,0E0,0E0],"parents":[2147483647,0,0,1,1,2,2,3,3,4,4,5,5,6,6,7,7,9,9,10,10,11,11,12,12,13,13,14,14,15,15,17,17,18,18,23,23,25,25,29,29,30,30,31,31,32,32,33,33,34,34,37,37,38,38],"right_children":[2,4,6,8,10,12,14,16,-1,18,20,22,24,26,28,30,-1,32,34,-1,-1,-1,-1,36,-1,38,-1,-1,-1,40,42,44,46,48,50,-1,-1,52,54,-1,-1,-1,-1,-1,-1,-1,-1,-1,-1,-1,-1,-1,-1,-1,-1],"split_conditions":[1.8340848E-1,3E0,7.2E1,4.8734084E-1,2.345E1,3.032202E-1,6.3470733E-1,5.219703E-1,-1.2812411E-2,2E0,4.786325E-1,3.8E1,4.2E1,4.8734084E-1,5.6581444E-1,1.5155E2,1.1053847E-2,4.2309296E-1,1.11333E1,-7.5821705E-2,-1.9285193E-2,-8.776976E-4,-6.2404573E-2,2.2E1,7.416691E-2,5.6581444E-1,1.6307862E-2,4.4426933E-2,-2.0437721E-2,4.2E1,4.118329E-1,8.05E0,6.5907294E-1,8.0292E0,1.78E1,5.3772632E-2,-6.452408E-2,4.8E1,5.2E1,9.913675E-2,5.150815E-2,-1.5567259E-3,5.4866202E-2,8.437419E-2,2.8723203E-2,-1.080995E-2,3.8169898E-2,1.7273743E-2,-4.9151976E-2,7.7056795E-2,-2.7578643E-2,-7.451446E-2,-1.4189233E-2,-4.0554885E-2,3.0527899E-2],"split_indices":[80,0,6,34,5,80,207,61,0,7,77,2,6,34,80,5,0,79,5,0,0,0,0,6,0,80,0,0,0,2,79,5,79,5,5,0,0,2,5,0,0,0,0,0,0,0,0,0,0,0,0,0,0,0,0],"split_type":[0,0,0,0,0,0,0,0,0,0,0,0,0,0,0,0,0,0,0,0,0,0,0,0,0,0,0,0,0,0,0,0,0,0,0,0,0,0,0,0,0,0,0,0,0,0,0,0,0,0,0,0,0,0,0],"sum_hessian":[1.0569851E2,5.1055275E1,5.4643234E1,2.6099852E1,2.4955425E1,7.7855983E0,4.6857635E1,2.5016237E1,1.0836143E0,1.9875597E1,5.0798283E0,3.1046405E0,4.680958E0,4.4538105E1,2.3195333E0,2.396126E1,1.0549779E0,8.0339365E0,1.184166E1,4.071599E0,1.0082293E0,1.8076457E0,1.2969948E0,2.693264E0,1.9876939E0,4.2960163E1,1.5779396E0,1.2441763E0,1.0753572E0,2.1807524E1,2.1537359E0,4.569457E0,3.4644792E0,7.2145386E0,4.6271214E0,1.2197706E0,1.4734933E0,2.3694408E1,1.9265757E1,1.6738592E1,5.068932E0,1.1047978E0,1.048938E0,2.8885982E0,1.680859E0,1.2430787E0,2.2214003E0,4.198866E0,3.0156724E0,2.9501657E0,1.6769558E0,2.102592E1,2.6684875E0,1.783521E1,1.4305459E0],"tree_param":{"num_deleted":"0","num_feature":"208","num_nodes":"55","size_leaf_vector":"1"}},{"base_weights":[1.7332029E-2,7.0629746E-1,-4.1729656E-1,1.1863846E0,2.1365486E-1,-4.7515363E-1,6.929348E-1,1.2534019E0,4.902833E-1,4.100902E-1,-6.617148E-2,7.772551E-2,-5.80333E-1,8.619515E-2,-1.862874E-2,9.725112E-2,2.3355637E-2,-5.1740697E-3,6.0524452E-2,2.8595117E-1,7.938571E-2,5.161075E-1,-2.0423695E-1,-6.217563E-1,2.2091176E-1,5.987117E-1,2.1260334E-3,7.6964125E-2,9.967052E-3,1.218939E-1,-5.093824E-2,-6.5984803E-1,1.03123255E-1,4.2665936E-2,-1.9725218E-2,5.4974083E-2,2.033946E-2,-5.270493E-2,5.419803E-2,2.7412996E-2,-2.685338E-2,-3.331436E-2,5.208842E-2,-6.0840588E-2,-2.9437974E-2,4.3451257E-2,-2.9935429E-2],"categories":[],"categories_nodes":[],"categories_segments":[],"categories_sizes":[],"default_left":[0,0,0,0,0,0,0,0,0,0,0,0,0,0,0,0,0,0,0,0,0,0,0,0,0,0,0,0,0,0,0,0,0,0,0,0,0,0,0,0,0,0,0,0,0,0,0],"id":12,"left_children":[1,3,5,7,9,11,13,15,17,19,-1,21,23,-1,-1,-1,-1,-1,-1,25,-1,27,29,31,33,35,37,-1,39,41,-1,43,45,-1,-1,-1,-1,-1,-1,-1,-1,-1,-1,-1,-1,-1,-1],"loss_changes":[3.157066E1,9.389904E0,4.4835176E0,3.3856392E-1,4.95662E0,3.6541653E0,1.8362107E0,3.297863E-1,6.643956E-1,1.2090778E0,0E0,1.4405649E0,1.8719254E0,0E0,0E0,0E0,0E0,0E0,0E0,1.5196903E0,0E0,1.154535E0,1.2119588E0,1.4473858E0,7.0645064E-1,1.5954542E-1,5.579328E0,0E0,5.592918E-1,1.9843438E0,0E0,1.6075459E0,1.034646E0,0E0,0E0,0E0,0E0,0E0,0E0,0E0,0E0,0E0,0E0,0E0,0E0,0E0,0E0],"parents":[2147483647,0,0,1,1,2,2,3,3,4,4,5,5,6,6,7,7,8,8,9,9,11,11,12,12,19,19,21,21,22,22,23,23,24,24,25,25,26,26,28,28,29,29,31,31,32,32],"right_children":[2,4,6,8,10,12,14,16,18,20,-1,22,24,-1,-1,-1,-1,-1,-1,26,-1,28,30,32,34,36,38,-1,40,42,-1,44,46,-1,-1,-1,-1,-1,-1,-1,-1,-1,-1,-1,-1,-1,-1],"split_conditions":[1E0,3E0,5.3155166E-1,7.52079E-1,2.345E1,7.2E1,3E0,6.3639444E-1,2.6E1,5.330815E-1,-6.617148E-2,1E0,6.3470733E-1,8.619515E-2,-1.862874E-2,9.725112E-2,2.3355637E-2,-5.1740697E-3,6.0524452E-2,8.05E0,7.938571E-2,2.2E1,3.9E1,7.3E1,5.6581444E-1,2.8E1,1.55E1,7.6964125E-2,7.72875E1,4.2E1,-5.093824E-2,5.6581444E-1,8.1E1,4.2665936E-2,-1.9725218E-2,5.4974083E-2,2.033946E-2,-5.270493E-2,5.419803E-2,2.7412996E-2,-2.685338E-2,-3.331436E-2,5.208842E-2,-6.0840588E-2,-2.9437974E-2,4.3451257E-2,-2.9935429E-2],"split_indices":[1,0,77,81,5,6,3,36,2,81,0,7,207,0,0,0,0,0,0,5,0,6,2,6,80,2,5,0,5,6,0,80,6,0,0,0,0,0,0,0,0,0,0,0,0,0,0],"split_type":[0,0,0,0,0,0,0,0,0,0,0,0,0,0,0,0,0,0,0,0,0,0,0,0,0,0,0,0,0,0,0,0,0,0,0,0,0,0,0,0,0,0,0,0,0,0,0],"sum_hessian":[1.0344664E2,3.977344E1,6.36732E1,1.9430216E1,2.0343224E1,6.1063065E1,2.6101336E0,1.6993555E1,2.43666E0,1.7781837E1,2.5613875E0,9.801603E0,5.1261463E1,1.6091385E0,1.0009952E0,1.5887096E1,1.106459E0,1.1637646E0,1.2728953E0,1.6133886E1,1.6479504E0,3.511569E0,6.290035E0,4.8954582E1,2.3068786E0,7.147868E0,8.986018E0,1.2372298E0,2.2743392E0,4.1699605E0,2.1200743E0,4.6595737E1,2.3588452E0,1.2398007E0,1.067078E0,4.1914563E0,2.956412E0,4.5548344E0,4.431184E0,1.1602349E0,1.1141042E0,2.2097256E0,1.9602348E0,2.8452532E1,1.8143208E1,1.1320221E0,1.2268231E0],"tree_param":{"num_deleted":"0","num_feature":"208","num_nodes":"47","size_leaf_vector":"1"}},{"base_weights":[1.956247E-2,5.598619E-1,-4.8941466E-1,9.948418E-1,9.8345526E-2,-6.1549914E-1,-7.694947E-2,1.0530255E0,-1.35628665E-2,3.6594713E-1,-6.619531E-2,-6.706731E-1,2.1215154E-1,5.893348E-2,-2.7367982E-1,1.087695E0,9.523898E-3,6.899047E-1,1.09255426E-1,-8.046185E-2,-7.576217E-1,4.0995814E-2,-1.9039107E-2,4.8473794E-2,-4.8988068E-1,5.783761E-1,1.1701865E0,9.041165E-1,2.7196842E-1,-1.6937622E-1,4.9055514E-1,4.3739807E-2,-5.017547E-1,-7.8931916E-1,3.5347417E-4,-7.002284E-1,3.915114E-2,5.3861838E-2,3.374883E-3,9.281404E-2,3.0654144E-2,7.888943E-2,2.6277162E-2,-1.1202121E-2,3.610927E-2,1.4839571E-2,-4.5892924E-2,7.149499E-2,-2.82469E-2,-1.4995512E-2,-5.1908627E-2,-4.955657E-3,-6.1276995E-2,-8.655142E-3,-8.426812E-2],"categories":[],"categories_nodes":[],"categories_segments":[],"categories_sizes":[],"default_left":[0,0,0,0,0,0,0,0,0,0,0,0,0,0,0,0,0,0,0,0,0,0,0,0,0,0,0,0,0,0,0,0,0,0,0,0,0,0,0,0,0,0,0,0,0,0,0,0,0,0,0,0,0,0,0],"id":13,"left_children":[1,3,5,7,9,11,13,15,-1,17,-1,19,21,-1,23,25,-1,27,29,31,33,-1,-1,-1,35,37,39,41,43,45,47,-1,49,51,-1,53,-1,-1,-1,-1,-1,-1,-1,-1,-1,-1,-1,-1,-1,-1,-1,-1,-1,-1,-1],"loss_changes":[2.8359055E1,9.940849E0,2.715252E0,1.9438839E0,6.9833665E0,1.9936237E0,2.5198565E0,6.507416E-1,0E0,1.6411004E0,0E0,1.9018803E0,6.5207636E-1,0E0,2.6636324E0,3.1272888E-1,0E0,5.542016E-1,1.4328353E0,1.9785814E0,8.0641365E-1,0E0,0E0,0E0,2.5202656E0,3.5986626E-1,4.8334885E-1,7.966328E-2,4.6544564E-1,1.434797E0,2.6143286E0,0E0,1.04420066E-1,5.852318E-1,0E0,2.0510964E0,0E0,0E0,0E0,0E0,0E0,0E0,0E0,0E0,0E0,0E0,0E0,0E0,0E0,0E0,0E0,0E0,0E0,0E0,0E0],"parents":[2147483647,0,0,1,1,2,2,3,3,4,4,5,5,6,6,7,7,9,9,11,11,12,12,14,14,15,15,17,17,18,18,19,19,20,20,24,24,25,25,26,26,27,27,28,28,29,29,30,30,32,32,33,33,35,35],"right_children":[2,4,6,8,10,12,14,16,-1,18,-1,20,22,-1,24,26,-1,28,30,32,34,-1,-1,-1,36,38,40,42,44,46,48,-1,50,52,-1,54,-1,-1,-1,-1,-1,-1,-1,-1,-1,-1,-1,-1,-1,-1,-1,-1,-1,-1,-1],"split_conditions":[1.8340848E-1,3E0,2.62875E1,4.8734084E-1,2.345E1,6.3470733E-1,2.7E1,5.219703E-1,-1.35628665E-2,2E0,-6.619531E-2,1E0,5.6581444E-1,5.893348E-2,2.2E1,1.41083E1,9.523898E-3,4.2309296E-1,1.11333E1,2.7E1,4.8734084E-1,4.0995814E-2,-1.9039107E-2,4.8473794E-2,3E0,3.65E1,1.5155E2,8.05E0,6.5907294E-1,8.0292E0,1.78E1,4.3739807E-2,3E1,7.2E1,3.5347417E-4,6.8E1,3.915114E-2,5.3861838E-2,3.374883E-3,9.281404E-2,3.0654144E-2,7.888943E-2,2.6277162E-2,-1.1202121E-2,3.610927E-2,1.4839571E-2,-4.5892924E-2,7.149499E-2,-2.82469E-2,-1.4995512E-2,-5.1908627E-2,-4.955657E-3,-6.1276995E-2,-8.655142E-3,-8.426812E-2],"split_indices":[80,0,5,34,5,207,5,61,0,7,0,7,80,0,6,5,0,79,5,2,34,0,0,0,0,2,5,5,79,5,5,0,2,6,0,6,0,0,0,0,0,0,0,0,0,0,0,0,0,0,0,0,0,0,0],"split_type":[0,0,0,0,0,0,0,0,0,0,0,0,0,0,0,0,0,0,0,0,0,0,0,0,0,0,0,0,0,0,0,0,0,0,0,0,0,0,0,0,0,0,0,0,0,0,0,0,0,0,0,0,0,0,0],"sum_hessian":[1.0112743E2,4.9005825E1,5.212161E1,2.4633305E1,2.437252E1,3.954197E1,1.25796385E1,2.3571112E1,1.062194E0,1.9641338E1,4.731182E0,3.7248524E1,2.293444E0,1.7799144E0,1.0799725E1,2.2552227E1,1.0188847E0,7.9369006E0,1.1704438E1,5.030007E0,3.2218517E1,1.2344751E0,1.0589688E0,1.6764624E0,9.123261E0,4.2602086E0,1.8292017E1,4.4782834E0,3.4586172E0,7.083801E0,4.620637E0,1.8039519E0,3.2260551E0,3.0898382E1,1.3201351E0,7.8081474E0,1.3151143E0,3.1010785E0,1.1591303E0,1.6231527E1,2.0604897E0,2.825051E0,1.6532325E0,1.2438875E0,2.2147295E0,4.173374E0,2.9104269E0,2.94824E0,1.672397E0,2.0407653E0,1.1852899E0,1.2649235E0,2.963346E1,3.8131359E0,3.9950116E0],"tree_param":{"num_deleted":"0","num_feature":"208","num_nodes":"55","size_leaf_vector":"1"}},{"base_weights":[2.0668404E-2,6.510626E-1,-3.7549448E-1,1.1185873E0,1.9444871E-1,-4.3020096E-1,6.539581E-1,1.1892533E0,4.3184906E-1,3.7081552E-1,-6.3064784E-2,-5.234719E-1,1.2927179E-1,7.7063255E-2,-3.5162512E-3,9.297376E-2,2.1259623E-2,-7.928928E-3,5.6860443E-2,2.505466E-1,7.5975925E-2,-5.615244E-1,2.0379187E-1,7.82871E-2,-2.3114805E-1,3.6053813E-1,-3.4792177E-2,-1.9754462E-1,-6.5752E-1,3.9409485E-2,-1.8378248E-2,-5.6586987E-1,2.8191087E-1,9.746609E-3,6.484039E-2,5.3283814E-2,-2.9143957E-2,-5.26069E-2,1.7045433E-2,-7.208175E-2,1.6935885E-2,-2.97338E-2,5.841287E-2],"categories":[],"categories_nodes":[],"categories_segments":[],"categories_sizes":[],"default_left":[0,0,0,0,0,0,0,0,0,0,0,0,0,0,0,0,0,0,0,0,0,0,0,0,0,0,0,0,0,0,0,0,0,0,0,0,0,0,0,0,0,0,0],"id":14,"left_children":[1,3,5,7,9,11,13,15,17,19,-1,21,23,-1,-1,-1,-1,-1,-1,25,-1,27,29,-1,31,33,-1,35,37,-1,-1,39,41,-1,-1,-1,-1,-1,-1,-1,-1,-1,-1],"loss_changes":[2.5213062E1,8.097261E0,3.7747097E0,4.1013336E-1,4.1307473E0,3.1726875E0,9.7149646E-1,4.104004E-1,6.670599E-1,1.1800499E0,0E0,1.5313139E0,3.3082254E0,0E0,0E0,0E0,0E0,0E0,0E0,1.5003921E0,0E0,1.5793724E0,6.0222304E-1,0E0,1.4462867E0,1.6615593E0,0E0,2.2949896E0,1.6465015E0,0E0,0E0,1.7398666E0,1.5310173E0,0E0,0E0,0E0,0E0,0E0,0E0,0E0,0E0,0E0,0E0],"parents":[2147483647,0,0,1,1,2,2,3,3,4,4,5,5,6,6,7,7,8,8,9,9,11,11,12,12,19,19,21,21,22,22,24,24,25,25,27,27,28,28,31,31,32,32],"right_children":[2,4,6,8,10,12,14,16,18,20,-1,22,24,-1,-1,-1,-1,-1,-1,26,-1,28,30,-1,32,34,-1,36,38,-1,-1,40,42,-1,-1,-1,-1,-1,-1,-1,-1,-1,-1],"split_conditions":[1E0,3E0,5.3155166E-1,7.52079E-1,2.345E1,5.25542E1,2E0,1E0,2.6E1,5.330815E-1,-6.3064784E-2,6.3470733E-1,5.79792E1,7.7063255E-2,-3.5162512E-3,9.297376E-2,2.1259623E-2,-7.928928E-3,5.6860443E-2,3.5173976E-1,7.5975925E-2,2E0,5.6581444E-1,7.82871E-2,2.8752273E-1,1E0,-3.4792177E-2,2.2472534E-1,5.7596904E-1,3.9409485E-2,-1.8378248E-2,1.108833E2,3.25E1,9.746609E-3,6.484039E-2,5.3283814E-2,-2.9143957E-2,-5.26069E-2,1.7045433E-2,-7.208175E-2,1.6935885E-2,-2.97338E-2,5.841287E-2],"split_indices":[1,0,77,81,5,5,3,203,2,81,0,207,5,0,0,0,0,0,0,81,0,7,80,0,80,4,0,80,34,0,0,5,2,0,0,0,0,0,0,0,0,0,0],"split_type":[0,0,0,0,0,0,0,0,0,0,0,0,0,0,0,0,0,0,0,0,0,0,0,0,0,0,0,0,0,0,0,0,0,0,0,0,0,0,0,0,0,0,0],"sum_hessian":[9.897883E1,3.7949024E1,6.1029804E1,1.8034176E1,1.9914848E1,5.8502983E1,2.5268183E0,1.5688112E1,2.3460636E0,1.7564539E1,2.3503094E0,5.0198612E1,8.304373E0,1.3442286E0,1.1825897E0,1.45121E1,1.176012E0,1.1414702E0,1.2045933E0,1.5964828E1,1.5997108E0,4.7919235E1,2.2793746E0,1.8115261E0,6.492847E0,1.4264155E1,1.700672E0,1.0638779E1,3.7280457E1,1.228339E0,1.0510356E0,3.86704E0,2.625807E0,1.0649698E1,3.6144571E0,1.376695E0,9.262084E0,3.5715424E1,1.5650351E0,2.4366431E0,1.4303967E0,1.1957163E0,1.4300907E0],"tree_param":{"num_deleted":"0","num_feature":"208","num_nodes":"43","size_leaf_vector":"1"}},{"base_weights":[2.3106502E-2,5.115119E-1,-4.3963835E-1,9.248987E-1,8.900711E-2,-5.625259E-1,-5.2241612E-2,1.0869312E0,3.5992447E-1,3.3154735E-1,-6.309429E-2,-6.1540854E-1,1.9580926E-1,5.804988E-2,-2.4709184E-1,1.1578292E0,4.178491E-1,8.514008E-1,-4.3932268E-1,6.340397E-1,9.283187E-2,-5.5368815E-2,-7.0216256E-1,3.7900634E-2,-1.774157E-2,4.5686208E-2,-4.531356E-1,9.0551734E-2,1.6599482E-2,-7.602348E-3,5.5329118E-2,7.455899E-2,2.1537509E-2,-5.4977648E-2,4.967908E-3,8.435287E-1,2.3780382E-1,-1.6649064E-1,4.4807065E-1,4.2821523E-2,-4.702291E-1,-7.329235E-1,-3.8987614E-4,-6.5585756E-1,3.582245E-2,7.431893E-2,2.3259774E-2,4.132308E-2,-3.8354197E-3,1.4078285E-2,-4.4690095E-2,6.682203E-2,-2.8014056E-2,-1.3019523E-2,-4.9933128E-2,-2.5832797E-3,-5.7156693E-2,-7.2452747E-3,-8.079653E-2],"categories":[],"categories_nodes":[],"categories_segments":[],"categories_sizes":[],"default_left":[0,0,0,0,0,0,0,0,0,0,0,0,0,0,0,0,0,0,0,0,0,0,0,0,0,0,0,0,0,0,0,0,0,0,0,0,0,0,0,0,0,0,0,0,0,0,0,0,0,0,0,0,0,0,0,0,0,0,0],"id":15,"left_children":[1,3,5,7,9,11,13,15,17,19,-1,21,23,-1,25,27,29,31,33,35,37,39,41,-1,-1,-1,43,-1,-1,-1,-1,-1,-1,-1,-1,45,47,49,51,-1,53,55,-1,57,-1,-1,-1,-1,-1,-1,-1,-1,-1,-1,-1,-1,-1,-1,-1],"loss_changes":[2.2336172E1,8.311692E0,2.3878078E0,1.8228321E0,5.8912044E0,1.662241E0,2.3372931E0,3.842945E-1,3.078723E0,1.4176438E0,0E0,1.7189474E0,5.5647093E-1,0E0,2.312716E0,4.7406578E-1,6.25842E-1,8.52685E-2,5.3581655E-1,5.3380346E-1,1.2353328E0,1.8114889E0,6.659851E-1,0E0,0E0,0E0,2.1772237E0,0E0,0E0,0E0,0E0,0E0,0E0,0E0,0E0,1.1682582E-1,4.3107197E-1,1.3304192E0,2.3660007E0,0E0,1.23444855E-1,5.8314323E-1,0E0,1.9070914E0,0E0,0E0,0E0,0E0,0E0,0E0,0E0,0E0,0E0,0E0,0E0,0E0,0E0,0E0,0E0],"parents":[2147483647,0,0,1,1,2,2,3,3,4,4,5,5,6,6,7,7,8,8,9,9,11,11,12,12,14,14,15,15,16,16,17,17,18,18,19,19,20,20,21,21,22,22,26,26,35,35,36,36,37,37,38,38,40,40,41,41,43,43],"right_children":[2,4,6,8,10,12,14,16,18,20,-1,22,24,-1,26,28,30,32,34,36,38,40,42,-1,-1,-1,44,-1,-1,-1,-1,-1,-1,-1,-1,46,48,50,52,-1,54,56,-1,58,-1,-1,-1,-1,-1,-1,-1,-1,-1,-1,-1,-1,-1,-1,-1],"split_conditions":[1.8340848E-1,3E0,2.62875E1,1E0,2.345E1,6.3470733E-1,2.7E1,7.52079E-1,3.65E1,2E0,-6.309429E-2,1E0,5.6581444E-1,5.804988E-2,2.2E1,6.3639444E-1,2.6E1,2.8E1,2.7E1,4.2309296E-1,1.11333E1,2.7E1,4.8734084E-1,3.7900634E-2,-1.774157E-2,4.5686208E-2,3E0,9.0551734E-2,1.6599482E-2,-7.602348E-3,5.5329118E-2,7.455899E-2,2.1537509E-2,-5.4977648E-2,4.967908E-3,8.05E0,1.5E1,8.0292E0,1.78E1,4.2821523E-2,3E1,7.2E1,-3.8987614E-4,6.8E1,3.582245E-2,7.431893E-2,2.3259774E-2,4.132308E-2,-3.8354197E-3,1.4078285E-2,-4.4690095E-2,6.682203E-2,-2.8014056E-2,-1.3019523E-2,-4.9933128E-2,-2.5832797E-3,-5.7156693E-2,-7.2452747E-3,-8.079653E-2],"split_indices":[80,0,5,1,5,207,5,81,2,7,0,7,80,0,6,36,2,2,5,79,5,2,34,0,0,0,0,0,0,0,0,0,0,0,0,5,2,5,5,0,2,6,0,6,0,0,0,0,0,0,0,0,0,0,0,0,0,0,0],"split_type":[0,0,0,0,0,0,0,0,0,0,0,0,0,0,0,0,0,0,0,0,0,0,0,0,0,0,0,0,0,0,0,0,0,0,0,0,0,0,0,0,0,0,0,0,0,0,0,0,0,0,0,0,0,0,0,0,0,0,0],"sum_hessian":[9.68345E1,4.7059753E1,4.9774746E1,2.3185518E1,2.3874235E1,3.7444702E1,1.2330042E1,1.7300062E1,5.8854556E0,1.9447456E1,4.426779E0,3.51799E1,2.2648013E0,1.7857025E0,1.0544339E1,1.4982048E1,2.3180149E0,3.6040096E0,2.281446E0,7.8474193E0,1.1600038E1,4.938392E0,3.024151E1,1.2215177E0,1.0432835E0,1.665739E0,8.8786E0,1.3954824E1,1.0272235E0,1.1440744E0,1.1739404E0,2.268353E0,1.3356568E0,1.1584729E0,1.1229731E0,4.39496E0,3.4524593E0,7.01237E0,4.5876675E0,1.8177879E0,3.1206043E0,2.891379E1,1.3277218E0,7.533219E0,1.3453813E0,2.7714086E0,1.6235514E0,1.2215831E0,2.2308762E0,4.1509814E0,2.8613887E0,2.9259586E0,1.6617091E0,1.9898375E0,1.1307666E0,1.2463483E0,2.766744E1,3.7654905E0,3.7677286E0],"tree_param":{"num_deleted":"0","num_feature":"208","num_nodes":"59","size_leaf_vector":"1"}},{"base_weights":[2.4616597E-2,4.9053404E-1,-4.1685498E-1,8.938284E-1,8.642485E-2,-5.3698224E-1,-4.5373473E-2,1.0577018E0,3.41985E-1,3.157278E-1,-8.16254E-1,-5.887197E-1,1.8818219E-1,5.4697424E-2,-2.3239592E-1,1.1291007E0,4.0456402E-1,8.1191975E-1,-4.2558897E-1,6.0607857E-1,8.69428E-2,-6.775135E-2,-1.8743047E-2,-5.4984786E-2,-6.7391634E-1,3.6463644E-2,-1.7128069E-2,4.3516245E-2,-4.3102786E-1,8.846903E-2,1.6027607E-2,-7.2893747E-3,5.3872254E-2,7.12356E-2,2.056063E-2,-5.3538583E-2,4.7676894E-3,3.6682537E-1,7.6962665E-2,-1.24123745E-1,5.2207756E-1,5.2137334E-2,-3.7702677E-1,-7.044581E-1,-3.7322668E-4,-6.292895E-1,3.396326E-2,5.6480557E-2,-4.1483693E-2,2.1718662E-2,-8.199479E-2,5.81558E-2,3.5927806E-3,-5.0545808E-2,-7.463362E-3,-2.47677E-3,-5.501169E-2,-6.82486E-3,-7.8594625E-2],"categories":[],"categories_nodes":[],"categories_segments":[],"categories_sizes":[],"default_left":[0,0,0,0,0,0,0,0,0,0,0,0,0,0,0,0,0,0,0,0,0,0,0,0,0,0,0,0,0,0,0,0,0,0,0,0,0,0,0,0,0,0,0,0,0,0,0,0,0,0,0,0,0,0,0,0,0,0,0],"id":16,"left_children":[1,3,5,7,9,11,13,15,17,19,21,23,25,-1,27,29,31,33,35,37,39,-1,-1,41,43,-1,-1,-1,45,-1,-1,-1,-1,-1,-1,-1,-1,47,-1,49,51,-1,53,55,-1,57,-1,-1,-1,-1,-1,-1,-1,-1,-1,-1,-1,-1,-1],"loss_changes":[1.9874886E1,7.5804596E0,2.1910286E0,1.7553215E0,5.344798E0,1.5147686E0,2.0852823E0,3.6265945E-1,2.8120446E0,1.2970846E0,3.3578396E-2,1.5622787E0,5.14446E-1,0E0,2.0917919E0,4.541912E-1,5.87718E-1,7.962346E-2,5.040284E-1,5.067766E-1,1.2157774E0,0E0,0E0,1.6947205E0,6.143427E-1,0E0,0E0,0E0,1.9922416E0,0E0,0E0,0E0,0E0,0E0,0E0,0E0,0E0,2.9589274E0,0E0,4.0239444E0,4.7763288E-1,0E0,3.2823628E-1,5.3937817E-1,0E0,1.7921903E0,0E0,0E0,0E0,0E0,0E0,0E0,0E0,0E0,0E0,0E0,0E0,0E0,0E0],"parents":[2147483647,0,0,1,1,2,2,3,3,4,4,5,5,6,6,7,7,8,8,9,9,10,10,11,11,12,12,14,14,15,15,16,16,17,17,18,18,19,19,20,20,23,23,24,24,28,28,37,37,39,39,40,40,42,42,43,43,45,45],"right_children":[2,4,6,8,10,12,14,16,18,20,22,24,26,-1,28,30,32,34,36,38,40,-1,-1,42,44,-1,-1,-1,46,-1,-1,-1,-1,-1,-1,-1,-1,48,-1,50,52,-1,54,56,-1,58,-1,-1,-1,-1,-1,-1,-1,-1,-1,-1,-1,-1,-1],"split_conditions":[1.8340848E-1,3E0,2.62875E1,1E0,2.345E1,6.3470733E-1,2.7E1,7.52079E-1,3.65E1,2E0,4.697095E-1,1E0,5.6581444E-1,5.4697424E-2,2.2E1,6.3639444E-1,2.6E1,2.8E1,2.7E1,1.55E1,4.2309296E-1,-6.775135E-2,-1.8743047E-2,2.3E1,4.8734084E-1,3.6463644E-2,-1.7128069E-2,4.3516245E-2,3E0,8.846903E-2,1.6027607E-2,-7.2893747E-3,5.3872254E-2,7.12356E-2,2.056063E-2,-5.3538583E-2,4.7676894E-3,8.05E0,7.6962665E-2,3.175265E-1,8.0292E0,5.2137334E-2,7.2292E0,7.2E1,-3.7322668E-4,6.8E1,3.396326E-2,5.6480557E-2,-4.1483693E-2,2.1718662E-2,-8.199479E-2,5.81558E-2,3.5927806E-3,-5.0545808E-2,-7.463362E-3,-2.47677E-3,-5.501169E-2,-6.82486E-3,-7.8594625E-2],"split_indices":[80,0,5,1,5,207,5,81,2,7,77,7,80,0,6,36,2,2,5,5,79,0,0,2,34,0,0,0,0,0,0,0,0,0,0,0,0,5,0,79,5,0,5,6,0,6,0,0,0,0,0,0,0,0,0,0,0,0,0],"split_type":[0,0,0,0,0,0,0,0,0,0,0,0,0,0,0,0,0,0,0,0,0,0,0,0,0,0,0,0,0,0,0,0,0,0,0,0,0,0,0,0,0,0,0,0,0,0,0,0,0,0,0,0,0,0,0,0,0,0,0],"sum_hessian":[9.463163E1,4.5987015E1,4.8644615E1,2.2410175E1,2.357684E1,3.6421387E1,1.22232275E1,1.6572266E1,5.8379107E0,1.931945E1,4.2573895E0,3.4171547E1,2.2498395E0,1.8131961E0,1.0410031E1,1.4282246E1,2.2900198E0,3.5851724E0,2.252738E0,7.787379E0,1.1532071E1,3.1741884E0,1.0832014E0,4.9302416E0,2.9241306E1,1.214124E0,1.0357156E0,1.6674309E0,8.7426E0,1.3262202E1,1.0200435E0,1.1465461E0,1.1434736E0,2.2437072E0,1.3414654E0,1.1284236E0,1.1243144E0,6.1550894E0,1.6322895E0,8.246681E0,3.2853901E0,1.1328412E0,3.7974005E0,2.7913754E1,1.3275533E0,7.3760953E0,1.3665054E0,4.4627414E0,1.692348E0,6.2709417E0,1.9757391E0,1.7272813E0,1.5581088E0,1.1444473E0,2.6529531E0,1.2454875E0,2.6668266E1,3.7594767E0,3.6166186E0],"tree_param":{"num_deleted":"0","num_feature":"208","num_nodes":"59","size_leaf_vector":"1"}},{"base_weights":[2.5374394E-2,5.749192E-1,-3.1572428E-1,1.0304402E0,1.6840275E-1,-3.5565662E-1,6.362487E-2,1.1025342E0,3.9194208E-1,3.1831166E-1,-5.8697965E-2,-4.3826136E-1,1.2746014E-1,8.693175E-2,1.5273083E-2,-6.9894134E-3,5.248347E-2,2.0186764E-1,7.210644E-2,-7.362262E-2,-3.72974E-1,7.135221E-2,-2.1300785E-1,3.0920127E-1,-3.5394568E-2,-4.106233E-1,2.165506E-2,-5.461322E-1,2.9371434E-1,6.801658E-3,5.963083E-2,1.7355444E-2,-3.4169585E-2,-6.8993576E-2,1.3572466E-2,-2.5378773E-2,5.462652E-2],"categories":[],"categories_nodes":[],"categories_segments":[],"categories_sizes":[],"default_left":[0,0,0,0,0,0,0,0,0,0,0,0,0,0,0,0,0,0,0,0,0,0,0,0,0,0,0,0,0,0,0,0,0,0,0,0,0],"id":17,"left_children":[1,3,5,7,9,11,-1,13,15,17,-1,19,21,-1,-1,-1,-1,23,-1,-1,25,-1,27,29,-1,31,-1,33,35,-1,-1,-1,-1,-1,-1,-1,-1],"loss_changes":[1.7710684E1,6.5240593E0,3.0138268E0,3.440094E-1,3.1443868E0,2.335198E0,0E0,5.061245E-1,5.524012E-1,1.1728468E0,0E0,1.3721962E0,2.759367E0,0E0,0E0,0E0,0E0,1.3551859E0,0E0,0E0,1.2485456E0,0E0,1.3869871E0,1.5233564E0,0E0,1.3564429E0,0E0,1.4530402E0,1.21696E0,0E0,0E0,0E0,0E0,0E0,0E0,0E0,0E0],"parents":[2147483647,0,0,1,1,2,2,3,3,4,4,5,5,7,7,8,8,9,9,11,11,12,12,17,17,20,20,22,22,23,23,25,25,27,27,28,28],"right_children":[2,4,6,8,10,12,-1,14,16,18,-1,20,22,-1,-1,-1,-1,24,-1,-1,26,-1,28,30,-1,32,-1,34,36,-1,-1,-1,-1,-1,-1,-1,-1],"split_conditions":[1E0,3E0,6.596116E-1,7.52079E-1,2.345E1,5.25542E1,6.362487E-2,1E0,2.6E1,5.330815E-1,-5.8697965E-2,7.1417E0,5.79792E1,8.693175E-2,1.5273083E-2,-6.9894134E-3,5.248347E-2,3.5173976E-1,7.210644E-2,-7.362262E-2,6.3470733E-1,7.135221E-2,2.8752273E-1,1E0,-3.5394568E-2,7.25E0,2.165506E-2,1.108833E2,3.25E1,6.801658E-3,5.963083E-2,1.7355444E-2,-3.4169585E-2,-6.8993576E-2,1.3572466E-2,-2.5378773E-2,5.462652E-2],"split_indices":[1,0,77,81,5,5,0,203,2,81,0,5,5,0,0,0,0,81,0,0,207,0,80,4,0,5,0,5,2,0,0,0,0,0,0,0,0],"split_type":[0,0,0,0,0,0,0,0,0,0,0,0,0,0,0,0,0,0,0,0,0,0,0,0,0,0,0,0,0,0,0,0,0,0,0,0,0],"sum_hessian":[9.251432E1,3.516861E1,5.7345715E1,1.5860905E1,1.9307703E1,5.611518E1,1.2305356E0,1.3598691E1,2.2622135E0,1.725342E1,2.054284E0,4.800072E1,8.114458E0,1.2521416E1,1.0772754E0,1.1488926E0,1.1133208E0,1.5720828E1,1.5325919E0,3.6432316E0,4.435749E1,1.8480529E0,6.2664056E0,1.4027407E1,1.6934208E0,4.2328564E1,2.028926E0,3.7339163E0,2.5324893E0,1.0494417E1,3.5329895E0,2.4994576E0,3.9829105E1,2.2909923E0,1.442924E0,1.1220896E0,1.4103997E0],"tree_param":{"num_deleted":"0","num_feature":"208","num_nodes":"37","size_leaf_vector":"1"}},{"base_weights":[2.6546244E-2,4.5286068E-1,-3.7594837E-1,8.444456E-1,7.817789E-2,-4.9185303E-1,-2.810154E-2,1.0045079E0,3.3328754E-1,2.8693834E-1,-7.81887E-1,-5.4121035E-1,1.721227E-1,5.3527713E-2,-2.131568E-1,1.0773757E0,3.7993667E-1,7.743832E-1,-3.951835E-1,1.8512586E-1,6.977984E-2,-1.7646007E-2,-6.5620616E-2,-7.321636E-1,-2.7091503E-1,3.4285214E-2,-1.6639553E-2,4.0803477E-2,-4.0199295E-1,8.514296E-2,1.4741995E-2,-6.7019374E-3,5.11572E-2,6.7215115E-2,2.0794198E-2,-5.1303834E-2,5.6632464E-3,7.328585E-1,4.360738E-2,-1.7273739E-1,-8.294819E-1,-5.0571734E-1,1.0738405E-1,-5.924226E-1,3.1004092E-2,-1.7963031E-3,7.87306E-2,3.151173E-2,-2.8709061E-2,-5.405726E-2,3.3925705E-2,-6.520223E-2,-1.3099595E-2,1.2197299E-2,-5.8658965E-2,-2.9912602E-2,2.6341474E-2,-5.6672227E-3,-7.582102E-2],"categories":[],"categories_nodes":[],"categories_segments":[],"categories_sizes":[],"default_left":[0,0,0,0,0,0,0,0,0,0,0,0,0,0,0,0,0,0,0,0,0,0,0,0,0,0,0,0,0,0,0,0,0,0,0,0,0,0,0,0,0,0,0,0,0,0,0,0,0,0,0,0,0,0,0,0,0,0,0],"id":18,"left_children":[1,3,5,7,9,11,13,15,17,19,21,23,25,-1,27,29,31,33,35,37,-1,-1,-1,39,41,-1,-1,-1,43,-1,-1,-1,-1,-1,-1,-1,-1,45,47,49,51,53,55,57,-1,-1,-1,-1,-1,-1,-1,-1,-1,-1,-1,-1,-1,-1,-1],"loss_changes":[1.59030075E1,6.533495E0,1.9096327E0,1.4563532E0,4.549338E0,1.2639036E0,1.9345375E0,3.2680893E-1,2.4643712E0,1.1455321E0,4.7107697E-2,1.530366E0,4.6417946E-1,0E0,1.8147044E0,4.873581E-1,5.1963997E-1,2.5348186E-2,4.8612472E-1,1.4110014E0,0E0,0E0,0E0,8.933039E-1,1.4269586E0,0E0,0E0,0E0,1.7213786E0,0E0,0E0,0E0,0E0,0E0,0E0,0E0,0E0,9.265971E-1,2.7067297E0,1.7251955E0,2.6483822E-1,1.9210014E0,9.72407E-1,1.6800301E0,0E0,0E0,0E0,0E0,0E0,0E0,0E0,0E0,0E0,0E0,0E0,0E0,0E0,0E0,0E0],"parents":[2147483647,0,0,1,1,2,2,3,3,4,4,5,5,6,6,7,7,8,8,9,9,10,10,11,11,12,12,14,14,15,15,16,16,17,17,18,18,19,19,23,23,24,24,28,28,37,37,38,38,39,39,40,40,41,41,42,42,43,43],"right_children":[2,4,6,8,10,12,14,16,18,20,22,24,26,-1,28,30,32,34,36,38,-1,-1,-1,40,42,-1,-1,-1,44,-1,-1,-1,-1,-1,-1,-1,-1,46,48,50,52,54,56,58,-1,-1,-1,-1,-1,-1,-1,-1,-1,-1,-1,-1,-1,-1,-1],"split_conditions":[1.8340848E-1,3E0,2.62875E1,1E0,2.345E1,6.3470733E-1,2.7E1,7.52079E-1,3.65E1,5.330815E-1,4E0,5.6581444E-1,5.6581444E-1,5.3527713E-2,2.2E1,1E0,2.6E1,2.8E1,2.7E1,1.4E1,6.977984E-2,-1.7646007E-2,-6.5620616E-2,2.2472534E-1,8.1125E0,3.4285214E-2,-1.6639553E-2,4.0803477E-2,3E0,8.514296E-2,1.4741995E-2,-6.7019374E-3,5.11572E-2,6.7215115E-2,2.0794198E-2,-5.1303834E-2,5.6632464E-3,4.2309296E-1,8.05E0,2.0492457E-1,7.169126E-1,1E0,2.6E1,6.8E1,3.1004092E-2,-1.7963031E-3,7.87306E-2,3.151173E-2,-2.8709061E-2,-5.405726E-2,3.3925705E-2,-6.520223E-2,-1.3099595E-2,1.2197299E-2,-5.8658965E-2,-2.9912602E-2,2.6341474E-2,-5.6672227E-3,-7.582102E-2],"split_indices":[80,0,5,1,5,207,5,81,2,81,2,80,80,0,6,203,2,2,5,2,0,0,0,80,5,0,0,0,0,0,0,0,0,0,0,0,0,79,5,80,61,7,2,6,0,0,0,0,0,0,0,0,0,0,0,0,0,0,0],"split_type":[0,0,0,0,0,0,0,0,0,0,0,0,0,0,0,0,0,0,0,0,0,0,0,0,0,0,0,0,0,0,0,0,0,0,0,0,0,0,0,0,0,0,0,0,0,0,0,0,0,0,0,0,0,0,0,0,0,0,0],"sum_hessian":[9.068846E1,4.3980274E1,4.6708183E1,2.0892033E1,2.3088242E1,3.472396E1,1.1984226E1,1.5175016E1,5.717016E0,1.9114922E1,3.9733198E0,3.249342E1,2.230538E0,1.8223867E0,1.01618395E1,1.2940308E1,2.2347085E0,3.5216193E0,2.1953967E0,1.76154E1,1.4995223E0,1.0913113E0,2.8820083E0,1.804006E1,1.4453362E1,1.2012459E0,1.029292E0,1.6529042E0,8.508935E0,1.18715725E1,1.0687355E0,1.1511208E0,1.0835878E0,2.183744E0,1.3378755E0,1.0795724E0,1.1158242E0,2.758885E0,1.4856515E1,3.0844314E0,1.4955627E1,8.710265E0,5.7430973E0,7.119612E0,1.3893229E0,1.0870671E0,1.6718179E0,7.8971643E0,6.95935E0,1.5619502E0,1.5224812E0,1.3788235E1,1.1673926E0,2.668756E0,6.0415087E0,1.6603763E0,4.082721E0,3.7137878E0,3.4058244E0],"tree_param":{"num_deleted":"0","num_feature":"208","num_nodes":"59","size_leaf_vector":"1"}},{"base_weights":[2.6804248E-2,4.343158E-1,-3.570867E-1,8.176714E-1,7.571853E-2,-4.6989873E-1,-2.3296768E-2,9.800289E-1,3.1710774E-1,2.7429968E-1,-7.624164E-1,-5.17978E-1,1.6550367E-1,5.051482E-2,-2.0092368E-1,1.0538057E0,3.6850625E-1,7.400888E-1,-3.833474E-1,1.761812E-1,6.760142E-2,-6.395218E-2,-1.6480844E-2,-7.0615196E-1,-2.5717363E-1,3.301345E-2,-1.6065948E-2,3.8920727E-2,-3.830111E-1,8.348652E-2,1.4229836E-2,-6.4263823E-3,4.988852E-2,6.439846E-2,1.9853955E-2,-5.0029304E-2,5.4351096E-3,7.039637E-1,4.0590435E-2,-7.6501226E-1,3.193904E-3,-4.833781E-1,9.812056E-2,-5.690329E-1,2.9435335E-2,-1.7263939E-3,7.586337E-2,2.944465E-2,-2.692267E-2,-4.2554453E-2,-7.498588E-2,1.127031E-2,-5.6981336E-2,-2.885616E-2,2.4434436E-2,-5.338023E-3,-7.391108E-2],"categories":[],"categories_nodes":[],"categories_segments":[],"categories_sizes":[],"default_left":[0,0,0,0,0,0,0,0,0,0,0,0,0,0,0,0,0,0,0,0,0,0,0,0,0,0,0,0,0,0,0,0,0,0,0,0,0,0,0,0,0,0,0,0,0,0,0,0,0,0,0,0,0,0,0,0,0],"id":19,"left_children":[1,3,5,7,9,11,13,15,17,19,21,23,25,-1,27,29,31,33,35,37,-1,-1,-1,39,41,-1,-1,-1,43,-1,-1,-1,-1,-1,-1,-1,-1,45,47,49,-1,51,53,55,-1,-1,-1,-1,-1,-1,-1,-1,-1,-1,-1,-1,-1],"loss_changes":[1.42076845E1,5.9901314E0,1.7514448E0,1.4101734E0,4.178468E0,1.1527777E0,1.7288923E0,3.1146812E-1,2.2582688E0,1.0726919E0,4.9392223E-2,1.4238625E0,4.2959964E-1,0E0,1.6445146E0,4.7101688E-1,4.8920947E-1,2.6116133E-2,4.5802513E-1,1.2989597E0,0E0,0E0,0E0,8.448038E-1,1.2757542E0,0E0,0E0,0E0,1.5762166E0,0E0,0E0,0E0,0E0,0E0,0E0,0E0,0E0,8.573555E-1,2.3659918E0,2.2800064E-1,0E0,1.7790565E0,8.703389E-1,1.5827355E0,0E0,0E0,0E0,0E0,0E0,0E0,0E0,0E0,0E0,0E0,0E0,0E0,0E0],"parents":[2147483647,0,0,1,1,2,2,3,3,4,4,5,5,6,6,7,7,8,8,9,9,10,10,11,11,12,12,14,14,15,15,16,16,17,17,18,18,19,19,23,23,24,24,28,28,37,37,38,38,39,39,41,41,42,42,43,43],"right_children":[2,4,6,8,10,12,14,16,18,20,22,24,26,-1,28,30,32,34,36,38,-1,-1,-1,40,42,-1,-1,-1,44,-1,-1,-1,-1,-1,-1,-1,-1,46,48,50,-1,52,54,56,-1,-1,-1,-1,-1,-1,-1,-1,-1,-1,-1,-1,-1],"split_conditions":[1.8340848E-1,3E0,2.62875E1,1E0,2.345E1,6.3470733E-1,2.7E1,7.52079E-1,3.65E1,5.330815E-1,4.697095E-1,5.6581444E-1,5.6581444E-1,5.051482E-2,2.2E1,1E0,2.6E1,2.8E1,2.7E1,1.4E1,6.760142E-2,-6.395218E-2,-1.6480844E-2,4.8734084E-1,8.1125E0,3.301345E-2,-1.6065948E-2,3.8920727E-2,3E0,8.348652E-2,1.4229836E-2,-6.4263823E-3,4.988852E-2,6.439846E-2,1.9853955E-2,-5.0029304E-2,5.4351096E-3,4.2309296E-1,8.05E0,1.05167E1,3.193904E-3,7.25E0,2.6E1,6.8E1,2.9435335E-2,-1.7263939E-3,7.586337E-2,2.944465E-2,-2.692267E-2,-4.2554453E-2,-7.498588E-2,1.127031E-2,-5.6981336E-2,-2.885616E-2,2.4434436E-2,-5.338023E-3,-7.391108E-2],"split_indices":[80,0,5,1,5,207,5,81,2,81,77,80,80,0,6,203,2,2,5,2,0,0,0,34,5,0,0,0,0,0,0,0,0,0,0,0,0,79,5,5,0,5,2,6,0,0,0,0,0,0,0,0,0,0,0,0,0],"split_type":[0,0,0,0,0,0,0,0,0,0,0,0,0,0,0,0,0,0,0,0,0,0,0,0,0,0,0,0,0,0,0,0,0,0,0,0,0,0,0,0,0,0,0,0,0,0,0,0,0,0,0,0,0,0,0,0,0],"sum_hessian":[8.882739E1,4.3024387E1,4.580301E1,2.0175611E1,2.2848776E1,3.392836E1,1.1874647E1,1.4511096E1,5.6645155E0,1.9015999E1,3.832776E0,3.1713486E1,2.214875E0,1.8449819E0,1.0029665E1,1.2303498E1,2.207598E0,3.4965096E0,2.1680062E0,1.7550707E1,1.4652915E0,2.7962914E0,1.0364846E0,1.7429947E1,1.4283539E1,1.1928035E0,1.0220715E0,1.6513258E0,8.37834E0,1.1243024E1,1.0604738E0,1.1532372E0,1.0543609E0,2.1532235E0,1.343286E0,1.0506319E0,1.1173743E0,2.7305002E0,1.4820208E1,1.6139444E1,1.2905025E0,8.50694E0,5.7765985E0,6.9721E0,1.4062394E0,1.0867627E0,1.6437377E0,7.8882365E0,6.931971E0,1.0618692E1,5.520752E0,2.7221227E0,5.7848177E0,1.6298735E0,4.146725E0,3.708971E0,3.263129E0],"tree_param":{"num_deleted":"0","num_feature":"208","num_nodes":"57","size_leaf_vector":"1"}},{"base_weights":[2.6791476E-2,4.1670936E-1,-3.3962533E-1,7.9209447E-1,7.337255E-2,-4.4945195E-1,-1.9087652E-2,9.567904E-1,3.017627E-1,2.6241812E-1,-7.437711E-1,-4.9630803E-1,1.5916818E-1,4.7718804E-2,-1.8955566E-1,1.031586E0,3.5761282E-1,7.078135E-1,-3.7205765E-1,5.2402866E-1,6.0488474E-2,-1.5764134E-2,-6.3057385E-2,-6.822164E-1,-2.4419953E-1,3.1797633E-2,-1.5512942E-2,3.7140034E-2,-3.6512357E-1,8.194348E-2,1.3735891E-2,-6.1622676E-3,4.8673097E-2,6.1754268E-2,1.8958524E-2,-4.880831E-2,5.2162195E-3,7.4181795E-1,1.4817365E-1,-1.9385722E-1,4.12691E-1,-1.3266651E-1,-7.8237617E-1,-4.6182838E-1,8.953988E-2,-5.467487E-1,2.795484E-2,6.562793E-2,1.9717611E-2,-1.7031439E-2,2.7737645E-2,1.0225799E-2,-4.5856483E-2,6.292022E-2,-2.7499864E-2,-5.156778E-2,3.4575596E-2,-6.178554E-2,-1.0616394E-2,1.1754124E-2,-5.5126075E-2,-2.7837042E-2,2.2684958E-2,-5.0277645E-3,-7.209956E-2],"categories":[],"categories_nodes":[],"categories_segments":[],"categories_sizes":[],"default_left":[0,0,0,0,0,0,0,0,0,0,0,0,0,0,0,0,0,0,0,0,0,0,0,0,0,0,0,0,0,0,0,0,0,0,0,0,0,0,0,0,0,0,0,0,0,0,0,0,0,0,0,0,0,0,0,0,0,0,0,0,0,0,0,0,0],"id":20,"left_children":[1,3,5,7,9,11,13,15,17,19,21,23,25,-1,27,29,31,33,35,37,39,-1,-1,41,43,-1,-1,-1,45,-1,-1,-1,-1,-1,-1,-1,-1,47,49,51,53,55,57,59,61,63,-1,-1,-1,-1,-1,-1,-1,-1,-1,-1,-1,-1,-1,-1,-1,-1,-1,-1,-1],"loss_changes":[1.2716291E1,5.495293E0,1.6081572E0,1.3652763E0,3.8419366E0,1.0531855E0,1.5465528E0,2.9755306E-1,2.0719972E0,1.020134E0,6.632781E-2,1.3314295E0,3.9775038E-1,0E0,1.4912004E0,4.5660877E-1,4.6091083E-1,2.691102E-2,4.3188298E-1,5.894036E-1,1.1879174E0,0E0,0E0,8.781004E-1,1.1397684E0,0E0,0E0,0E0,1.4435549E0,0E0,0E0,0E0,0E0,0E0,0E0,0E0,0E0,9.912777E-2,4.4863376E-1,1.1673611E0,2.1366158E0,1.619626E0,2.7857113E-1,1.6894623E0,7.799806E-1,1.4925911E0,0E0,0E0,0E0,0E0,0E0,0E0,0E0,0E0,0E0,0E0,0E0,0E0,0E0,0E0,0E0,0E0,0E0,0E0,0E0],"parents":[2147483647,0,0,1,1,2,2,3,3,4,4,5,5,6,6,7,7,8,8,9,9,10,10,11,11,12,12,14,14,15,15,16,16,17,17,18,18,19,19,20,20,23,23,24,24,28,28,37,37,38,38,39,39,40,40,41,41,42,42,43,43,44,44,45,45],"right_children":[2,4,6,8,10,12,14,16,18,20,22,24,26,-1,28,30,32,34,36,38,40,-1,-1,42,44,-1,-1,-1,46,-1,-1,-1,-1,-1,-1,-1,-1,48,50,52,54,56,58,60,62,64,-1,-1,-1,-1,-1,-1,-1,-1,-1,-1,-1,-1,-1,-1,-1,-1,-1,-1,-1],"split_conditions":[1.8340848E-1,3E0,2.62875E1,1E0,2.345E1,6.3470733E-1,2.7E1,7.52079E-1,3.65E1,2E0,4E0,5.6581444E-1,5.6581444E-1,4.7718804E-2,2.2E1,1E0,2.6E1,2.8E1,2.7E1,4.2309296E-1,1.11333E1,-1.5764134E-2,-6.3057385E-2,2.2472534E-1,8.1125E0,3.1797633E-2,-1.5512942E-2,3.7140034E-2,3E0,8.194348E-2,1.3735891E-2,-6.1622676E-3,4.8673097E-2,6.1754268E-2,1.8958524E-2,-4.880831E-2,5.2162195E-3,8.05E0,6.5907294E-1,2.8E1,1.78E1,2.0492457E-1,7.169126E-1,1E0,2.6E1,6.8E1,2.795484E-2,6.562793E-2,1.9717611E-2,-1.7031439E-2,2.7737645E-2,1.0225799E-2,-4.5856483E-2,6.292022E-2,-2.7499864E-2,-5.156778E-2,3.4575596E-2,-6.178554E-2,-1.0616394E-2,1.1754124E-2,-5.5126075E-2,-2.7837042E-2,2.2684958E-2,-5.0277645E-3,-7.209956E-2],"split_indices":[80,0,5,1,5,207,5,81,2,7,2,80,80,0,6,203,2,2,5,79,5,0,0,80,5,0,0,0,0,0,0,0,0,0,0,0,0,5,79,2,5,80,61,7,2,6,0,0,0,0,0,0,0,0,0,0,0,0,0,0,0,0,0,0,0],"split_type":[0,0,0,0,0,0,0,0,0,0,0,0,0,0,0,0,0,0,0,0,0,0,0,0,0,0,0,0,0,0,0,0,0,0,0,0,0,0,0,0,0,0,0,0,0,0,0,0,0,0,0,0,0,0,0,0,0,0,0,0,0,0,0,0,0],"sum_hessian":[8.701393E1,4.2088604E1,4.4925323E1,1.948154E1,2.2607065E1,3.3161076E1,1.1764247E1,1.3871107E1,5.610434E0,1.89109E1,3.6961634E0,3.0961935E1,2.1991415E0,1.8644145E0,9.899833E0,1.169015E1,2.1809568E0,3.4693317E0,2.141102E0,7.5431914E0,1.1367709E1,1.0556815E0,2.640482E0,1.6838755E1,1.412318E1,1.1841027E0,1.0150388E0,1.6487514E0,8.251081E0,1.0637667E1,1.0524836E0,1.1552478E0,1.0257092E0,2.121071E0,1.3482606E0,1.0222522E0,1.11885E0,4.159365E0,3.3838263E0,6.861913E0,4.5057964E0,2.9542294E0,1.3884524E1,8.316353E0,5.8068275E0,6.8290844E0,1.4219971E0,2.6070375E0,1.5523276E0,1.2474682E0,2.1363578E0,4.2078753E0,2.6540382E0,2.8633337E0,1.6424625E0,1.4452254E0,1.509004E0,1.2773162E1,1.1113632E0,2.678343E0,5.6380095E0,1.6005774E0,4.20625E0,3.7043986E0,3.1246858E0],"tree_param":{"num_deleted":"0","num_feature":"208","num_nodes":"65","size_leaf_vector":"1"}},{"base_weights":[2.643304E-2,3.9902702E-1,-3.2257178E-1,7.6756763E-1,6.92467E-2,-4.2917606E-1,-1.5416076E-2,9.3461365E-1,2.8718594E-1,2.4923854E-1,-7.2540003E-1,-4.7475833E-1,1.5310134E-1,4.511739E-2,-1.7898521E-1,9.809463E-1,1.3513033E-2,6.7736715E-1,-2.709599E-2,1.5383972E-1,6.546125E-2,-6.1505903E-2,-1.4705698E-2,-6.575075E-1,-2.3196058E-1,3.0634273E-2,-1.4979721E-2,3.5453714E-2,-3.482503E-1,8.048184E-2,2.6041687E-2,5.9264522E-2,1.8105486E-2,6.6470844E-1,2.4152603E-2,-7.1912175E-1,5.0067585E-3,-4.4122943E-1,8.159106E-2,-5.2548814E-1,2.6556594E-2,-2.0279624E-3,7.228799E-2,2.661188E-2,-2.6237762E-2,-3.867344E-2,-7.264153E-2,1.087935E-2,-5.3528897E-2,-2.6853777E-2,2.1077167E-2,-4.73538E-3,-7.037477E-2],"categories":[],"categories_nodes":[],"categories_segments":[],"categories_sizes":[],"default_left":[0,0,0,0,0,0,0,0,0,0,0,0,0,0,0,0,0,0,0,0,0,0,0,0,0,0,0,0,0,0,0,0,0,0,0,0,0,0,0,0,0,0,0,0,0,0,0,0,0,0,0,0,0],"id":21,"left_children":[1,3,5,7,9,11,13,15,17,19,21,23,25,-1,27,29,-1,31,-1,33,-1,-1,-1,35,37,-1,-1,-1,39,-1,-1,-1,-1,41,43,45,-1,47,49,51,-1,-1,-1,-1,-1,-1,-1,-1,-1,-1,-1,-1,-1],"loss_changes":[1.1344314E1,5.0710964E0,1.469729E0,1.3213987E0,3.5205755E0,9.6005964E-1,1.3846916E0,3.2159328E-1,1.9033335E0,1.0425459E0,6.812739E-2,1.2340822E0,3.6839715E-1,0E0,1.3529844E0,3.9858532E-1,0E0,2.766323E-2,0E0,1.2011071E0,0E0,0E0,0E0,8.193393E-1,1.0179704E0,0E0,0E0,0E0,1.3222768E0,0E0,0E0,0E0,0E0,7.8790677E-1,2.0644345E0,3.1336308E-1,0E0,1.5623025E0,6.998419E-1,1.4087737E0,0E0,0E0,0E0,0E0,0E0,0E0,0E0,0E0,0E0,0E0,0E0,0E0,0E0],"parents":[2147483647,0,0,1,1,2,2,3,3,4,4,5,5,6,6,7,7,8,8,9,9,10,10,11,11,12,12,14,14,15,15,17,17,19,19,23,23,24,24,28,28,33,33,34,34,35,35,37,37,38,38,39,39],"right_children":[2,4,6,8,10,12,14,16,18,20,22,24,26,-1,28,30,-1,32,-1,34,-1,-1,-1,36,38,-1,-1,-1,40,-1,-1,-1,-1,42,44,46,-1,48,50,52,-1,-1,-1,-1,-1,-1,-1,-1,-1,-1,-1,-1,-1],"split_conditions":[1.8340848E-1,3E0,2.62875E1,1E0,2.345E1,6.3470733E-1,2.7E1,6.175251E-1,3.65E1,5.330815E-1,4.697095E-1,5.6581444E-1,5.6581444E-1,4.511739E-2,2.2E1,7.52079E-1,1.3513033E-2,2.8E1,-2.709599E-2,1.4E1,6.546125E-2,-6.1505903E-2,-1.4705698E-2,4.8734084E-1,8.1125E0,3.0634273E-2,-1.4979721E-2,3.5453714E-2,3E0,8.048184E-2,2.6041687E-2,5.9264522E-2,1.8105486E-2,4.2309296E-1,8.05E0,1.05167E1,5.0067585E-3,7.25E0,2.6E1,6.8E1,2.6556594E-2,-2.0279624E-3,7.228799E-2,2.661188E-2,-2.6237762E-2,-3.867344E-2,-7.264153E-2,1.087935E-2,-5.3528897E-2,-2.6853777E-2,2.1077167E-2,-4.73538E-3,-7.037477E-2],"split_indices":[80,0,5,1,5,207,5,36,2,81,77,80,80,0,6,81,0,2,0,2,0,0,0,34,5,0,0,0,0,0,0,0,0,79,5,5,0,5,2,6,0,0,0,0,0,0,0,0,0,0,0,0,0],"split_type":[0,0,0,0,0,0,0,0,0,0,0,0,0,0,0,0,0,0,0,0,0,0,0,0,0,0,0,0,0,0,0,0,0,0,0,0,0,0,0,0,0,0,0,0,0,0,0,0,0,0,0,0,0],"sum_hessian":[8.524922E1,4.116189E1,4.4087337E1,1.8811686E1,2.2350203E1,3.2433434E1,1.1653901E1,1.3256393E1,5.555291E0,1.878227E1,3.5679336E0,3.0250032E1,2.1834023E0,1.8810091E0,9.772892E0,1.220652E1,1.0498734E0,3.4405482E0,2.114743E0,1.7371391E1,1.4108778E0,2.560628E0,1.0073057E0,1.6284763E1,1.396527E1,1.1752083E0,1.008194E0,1.6453271E0,8.127565E0,1.0051674E1,2.1548462E0,2.0877142E0,1.352834E0,2.6817715E0,1.468962E1,1.5014551E1,1.2702118E0,8.131195E0,5.834075E0,6.690893E0,1.436672E0,1.0841826E0,1.597589E0,7.823507E0,6.8661137E0,9.958286E0,5.0562644E0,2.7284086E0,5.4027863E0,1.5724542E0,4.2616205E0,3.7000606E0,2.9908326E0],"tree_param":{"num_deleted":"0","num_feature":"208","num_nodes":"53","size_leaf_vector":"1"}},{"base_weights":[2.6345829E-2,4.718048E-1,-2.4070951E-1,9.120405E-1,1.366742E-1,-2.8667417E-1,5.698837E-1,9.591879E-1,1.304438E-2,2.5285086E-1,-5.2204628E-2,-6.876242E-2,-2.2628486E-1,6.404479E-2,-5.122869E-4,7.912054E-2,2.489778E-2,5.6678694E-1,2.9628556E-2,1.1970813E-1,-3.082853E-1,6.514574E-2,2.783468E-1,-4.7738302E-1,2.695943E-1,-1.03875905E-1,5.1858444E-2,-6.848275E-2,-2.3037618E-1,-1.1006778E-2,6.3545324E-2,1.5283637E-2,-7.3739804E-2,5.7885703E-2,1.5106623E-3,1.0602274E-2,-6.009991E-2,1.9403944E-2,-3.0630924E-2],"categories":[],"categories_nodes":[],"categories_segments":[],"categories_sizes":[],"default_left":[0,0,0,0,0,0,0,0,0,0,0,0,0,0,0,0,0,0,0,0,0,0,0,0,0,0,0,0,0,0,0,0,0,0,0,0,0,0,0],"id":22,"left_children":[1,3,5,7,9,11,13,15,-1,17,-1,-1,19,-1,-1,-1,-1,21,23,25,27,-1,29,31,33,35,-1,-1,37,-1,-1,-1,-1,-1,-1,-1,-1,-1,-1],"loss_changes":[1.0174267E1,4.6017447E0,2.1580155E0,3.0890083E-1,2.0494847E0,1.7457972E0,5.312631E-1,4.0819454E-1,0E0,1.2255354E0,0E0,0E0,1.4034672E0,0E0,0E0,0E0,0E0,3.9478135E-1,1.5176361E0,1.3435783E0,1.6376255E0,0E0,1.3844858E0,1.5882812E0,1.0352571E0,1.4852661E0,0E0,0E0,3.2473936E0,0E0,0E0,0E0,0E0,0E0,0E0,0E0,0E0,0E0,0E0],"parents":[2147483647,0,0,1,1,2,2,3,3,4,4,5,5,6,6,7,7,9,9,12,12,17,17,18,18,19,19,20,20,22,22,23,23,24,24,25,25,28,28],"right_children":[2,4,6,8,10,12,14,16,-1,18,-1,-1,20,-1,-1,-1,-1,22,24,26,28,-1,30,32,34,36,-1,-1,38,-1,-1,-1,-1,-1,-1,-1,-1,-1,-1],"split_conditions":[1E0,3E0,5.3155166E-1,6.175251E-1,2.345E1,7.1417E0,2E0,7.52079E-1,1.304438E-2,3.8299125E-1,-5.2204628E-2,-6.876242E-2,7.2E1,6.404479E-2,-5.122869E-4,7.912054E-2,2.489778E-2,2.897533E-1,4.118329E-1,5.8E1,1.9E1,6.514574E-2,5.330815E-1,2E0,1.4E1,5E1,5.1858444E-2,-6.848275E-2,2.8E1,-1.1006778E-2,6.3545324E-2,1.5283637E-2,-7.3739804E-2,5.7885703E-2,1.5106623E-3,1.0602274E-2,-6.009991E-2,1.9403944E-2,-3.0630924E-2],"split_indices":[1,0,77,36,5,5,3,81,0,79,0,0,6,0,0,0,0,81,79,6,2,0,81,7,2,6,0,0,2,0,0,0,0,0,0,0,0,0,0],"split_type":[0,0,0,0,0,0,0,0,0,0,0,0,0,0,0,0,0,0,0,0,0,0,0,0,0,0,0,0,0,0,0,0,0,0,0,0,0,0,0],"sum_hessian":[8.357055E1,3.1035465E1,5.2535088E1,1.2670173E1,1.8365292E1,5.0327602E1,2.207485E0,1.1627924E1,1.0422482E0,1.672791E1,1.6373833E0,3.1609793E0,4.7166622E1,1.1569664E0,1.0505184E0,9.4962635E0,2.1316605E0,6.311877E0,1.0416032E1,8.948679E0,3.8217945E1,2.1014855E0,4.2103915E0,3.0283031E0,7.387729E0,7.021258E0,1.9274211E0,3.137904E0,3.508004E1,2.8344882E0,1.3759034E0,1.5449233E0,1.4833798E0,1.7567984E0,5.6309304E0,5.7845945E0,1.2366636E0,9.240803E0,2.5839237E1],"tree_param":{"num_deleted":"0","num_feature":"208","num_nodes":"39","size_leaf_vector":"1"}},{"base_weights":[2.6044782E-2,3.703338E-1,-2.9284674E-1,7.2570145E-1,6.583636E-2,-6.5459795E-2,-2.314704E-1,8.9020544E-1,2.781449E-1,2.3105654E-1,-6.9318575E-1,-6.133512E-2,-1.7777093E-1,9.7117907E-1,2.3803929E-2,6.426817E-1,-2.491185E-2,1.4215611E-1,6.1733395E-2,-1.3160523E-2,-5.9720542E-2,5.7848133E-2,-2.481703E-1,7.783067E-2,1.25923E-2,6.0959965E-2,2.2998855E-2,-1.972841E-2,5.2745616E-1,-3.6971253E-1,3.1467896E-2,2.72099E-2,-4.592844E-2,4.8549026E-3,5.8756616E-2,-1.8693324E-2,-4.7836553E-2,4.4005066E-2,-9.65962E-3],"categories":[],"categories_nodes":[],"categories_segments":[],"categories_sizes":[],"default_left":[0,0,0,0,0,0,0,0,0,0,0,0,0,0,0,0,0,0,0,0,0,0,0,0,0,0,0,0,0,0,0,0,0,0,0,0,0,0,0],"id":23,"left_children":[1,3,5,7,9,-1,11,13,15,17,19,-1,21,23,-1,25,-1,27,-1,-1,-1,-1,29,-1,-1,-1,-1,31,33,35,37,-1,-1,-1,-1,-1,-1,-1,-1],"loss_changes":[9.235965E0,4.325732E0,1.3541284E0,1.1182089E0,3.0277445E0,0E0,1.1422276E0,2.998743E-1,1.6463208E0,9.108652E-1,9.1775894E-2,0E0,2.7799244E0,4.1399765E-1,0E0,7.226467E-4,0E0,1.1448652E0,0E0,0E0,0E0,0E0,1.2631671E0,0E0,0E0,0E0,0E0,3.3441274E0,5.9088075E-1,6.725669E-1,1.1503276E0,0E0,0E0,0E0,0E0,0E0,0E0,0E0,0E0],"parents":[2147483647,0,0,1,1,2,2,3,3,4,4,6,6,7,7,8,8,9,9,10,10,12,12,13,13,15,15,17,17,22,22,27,27,28,28,29,29,30,30],"right_children":[2,4,6,8,10,-1,12,14,16,18,20,-1,22,24,-1,26,-1,28,-1,-1,-1,-1,30,-1,-1,-1,-1,32,34,36,38,-1,-1,-1,-1,-1,-1,-1,-1],"split_conditions":[1.8340848E-1,3E0,7.1417E0,1E0,2.345E1,-6.5459795E-2,1.9E1,7.52079E-1,3.65E1,5.330815E-1,4E0,-6.133512E-2,2.1E1,6.175251E-1,2.3803929E-2,1.8E1,-2.491185E-2,1.55E1,6.1733395E-2,-1.3160523E-2,-5.9720542E-2,5.7848133E-2,2.62875E1,7.783067E-2,1.25923E-2,6.0959965E-2,2.2998855E-2,8.05E0,2.7E1,1.34167E1,2.7E1,2.72099E-2,-4.592844E-2,4.8549026E-3,5.8756616E-2,-1.8693324E-2,-4.7836553E-2,4.4005066E-2,-9.65962E-3],"split_indices":[80,0,5,1,5,0,2,81,2,81,2,0,2,36,0,2,0,5,0,0,0,0,5,0,0,0,0,5,2,5,5,0,0,0,0,0,0,0,0],"split_type":[0,0,0,0,0,0,0,0,0,0,0,0,0,0,0,0,0,0,0,0,0,0,0,0,0,0,0,0,0,0,0,0,0,0,0,0,0,0,0],"sum_hessian":[8.2135475E1,3.941742E1,4.271806E1,1.755101E1,2.186641E1,2.8229868E0,3.989507E1,1.21106E1,5.4404106E0,1.8528748E1,3.3376598E0,2.1534E0,3.7741673E1,1.0001373E1,2.1092265E0,3.3727796E0,2.067631E0,1.7187983E1,1.340766E0,1.0029557E0,2.3347042E0,1.9187069E0,3.5822964E1,8.9664955E0,1.034878E0,1.2972231E0,2.0755565E0,1.2771015E1,4.416968E0,2.4745462E1,1.1077502E1,7.9971094E0,4.7739058E0,2.0193534E0,2.3976142E0,1.8405167E1,6.3402963E0,1.8850949E0,9.192407E0],"tree_param":{"num_deleted":"0","num_feature":"208","num_nodes":"39","size_leaf_vector":"1"}},{"base_weights":[2.5826322E-2,3.552494E-1,-2.7724776E-1,7.0390743E-1,6.2877655E-2,-6.404675E-2,-2.1768622E-1,8.6900157E-1,2.6871324E-1,2.2050278E-1,-6.76123E-1,-5.9940796E-2,-1.6556905E-1,9.526238E-1,2.2757703E-2,6.1816525E-1,-2.3825094E-2,2.8034532E-1,-3.147356E-2,-5.7278525E-2,-1.628775E-2,5.3918373E-2,-2.3330404E-1,7.660192E-2,1.2156195E-2,5.9289675E-2,2.1806128E-2,5.069739E-1,7.892645E-2,-1.6950499E-1,-6.331714E-2,4.902295E-2,-2.7089927E-3,-2.2898305E-2,2.2295073E-2,1.8652601E-2,-2.0487044E-2],"categories":[],"categories_nodes":[],"categories_segments":[],"categories_sizes":[],"default_left":[0,0,0,0,0,0,0,0,0,0,0,0,0,0,0,0,0,0,0,0,0,0,0,0,0,0,0,0,0,0,0,0,0,0,0,0,0],"id":24,"left_children":[1,3,5,7,9,-1,11,13,15,17,19,-1,21,23,-1,25,-1,27,-1,-1,-1,-1,29,-1,-1,-1,-1,31,33,35,-1,-1,-1,-1,-1,-1,-1],"loss_changes":[8.259675E0,3.993204E0,1.295805E0,1.0573549E0,2.7863722E0,0E0,1.0933056E0,3.057871E-1,1.5055349E0,8.613791E-1,4.0330887E-3,0E0,2.4667854E0,4.0447044E-1,0E0,1.5231967E-2,0E0,7.978059E-1,0E0,0E0,0E0,0E0,1.2756505E0,0E0,0E0,0E0,0E0,6.968558E-1,1.0053779E0,1.5509036E0,0E0,0E0,0E0,0E0,0E0,0E0,0E0],"parents":[2147483647,0,0,1,1,2,2,3,3,4,4,6,6,7,7,8,8,9,9,10,10,12,12,13,13,15,15,17,17,22,22,27,27,28,28,29,29],"right_children":[2,4,6,8,10,-1,12,14,16,18,20,-1,22,24,-1,26,-1,28,-1,-1,-1,-1,30,-1,-1,-1,-1,32,34,36,-1,-1,-1,-1,-1,-1,-1],"split_conditions":[1.8340848E-1,3E0,7.1417E0,1E0,2.345E1,-6.404675E-2,1.9E1,7.52079E-1,3.65E1,3.65E1,4.6754113E-1,-5.9940796E-2,2.1E1,6.175251E-1,2.2757703E-2,1.8E1,-2.3825094E-2,3.8299125E-1,-3.147356E-2,-5.7278525E-2,-1.628775E-2,5.3918373E-2,3.9499837E-1,7.660192E-2,1.2156195E-2,5.9289675E-2,2.1806128E-2,1.78E1,4.2309296E-1,7.2E1,-6.331714E-2,4.902295E-2,-2.7089927E-3,-2.2898305E-2,2.2295073E-2,1.8652601E-2,-2.0487044E-2],"split_indices":[80,0,5,1,5,0,2,81,2,2,77,0,2,36,0,2,0,79,0,0,0,0,106,0,0,0,0,5,79,6,0,0,0,0,0,0,0],"split_type":[0,0,0,0,0,0,0,0,0,0,0,0,0,0,0,0,0,0,0,0,0,0,0,0,0,0,0,0,0,0,0,0,0,0,0,0,0],"sum_hessian":[8.074295E1,3.860716E1,4.2135788E1,1.6966618E1,2.1640543E1,2.6958299E0,3.9439957E1,1.1577713E1,5.3889046E0,1.8414454E1,3.22609E0,2.0648987E0,3.7375057E1,9.490163E0,2.0875497E0,3.3426557E0,2.046249E0,1.735421E1,1.0602431E0,2.1514533E0,1.0746366E0,1.9747862E0,3.5400272E1,8.462407E0,1.0277559E0,1.2632139E0,2.0794418E0,7.4522343E0,9.901975E0,3.3209637E1,2.1906364E0,5.7073784E0,1.744856E0,3.4436007E0,6.4583745E0,6.3183737E0,2.6891262E1],"tree_param":{"num_deleted":"0","num_feature":"208","num_nodes":"37","size_leaf_vector":"1"}},{"base_weights":[2.3970764E-2,3.375991E-1,-2.6335198E-1,6.82776E-1,5.572961E-2,-6.268124E-2,-2.0561683E-1,7.689741E-1,-1.8002739E-3,2.0490709E-1,-6.598576E-1,-5.8594655E-2,-1.5508588E-1,9.404682E-1,2.385479E-1,1.19532295E-1,5.9366822E-2,-5.6113448E-2,-1.5727647E-2,5.031259E-2,-2.2024277E-1,2.4688018E-2,7.659645E-2,-2.4779126E-1,5.663935E-2,6.1936396E-1,-3.9806254E-3,-1.5843159E-1,-6.1837807E-2,-2.6242444E-2,-2.6734371E-3,-2.1954868E-3,6.779924E-2,2.2528574E-2,-2.6097901E-2,1.7413666E-2,-1.9244356E-2],"categories":[],"categories_nodes":[],"categories_segments":[],"categories_sizes":[],"default_left":[0,0,0,0,0,0,0,0,0,0,0,0,0,0,0,0,0,0,0,0,0,0,0,0,0,0,0,0,0,0,0,0,0,0,0,0,0],"id":25,"left_children":[1,3,5,7,9,-1,11,13,-1,15,17,-1,19,21,23,25,-1,-1,-1,-1,27,-1,-1,29,-1,31,33,35,-1,-1,-1,-1,-1,-1,-1,-1,-1],"loss_changes":[7.342916E0,3.7492547E0,1.2350976E0,1.0790777E0,2.5388799E0,0E0,1.0423218E0,1.189887E0,0E0,8.768181E-1,6.9606304E-3,0E0,2.1937046E0,2.2744846E-1,1.4782037E0,1.1204666E0,0E0,0E0,0E0,0E0,1.2136636E0,0E0,0E0,6.1171576E-2,0E0,6.901119E-1,1.7288876E0,1.3589857E0,0E0,0E0,0E0,0E0,0E0,0E0,0E0,0E0,0E0],"parents":[2147483647,0,0,1,1,2,2,3,3,4,4,6,6,7,7,9,9,10,10,12,12,13,13,14,14,15,15,20,20,23,23,25,25,26,26,27,27],"right_children":[2,4,6,8,10,-1,12,14,-1,16,18,-1,20,22,24,26,-1,-1,-1,-1,28,-1,-1,30,-1,32,34,36,-1,-1,-1,-1,-1,-1,-1,-1,-1],"split_conditions":[1.8340848E-1,3E0,7.1417E0,1.5155E2,2.345E1,-6.268124E-2,1.9E1,4.2E1,-1.8002739E-3,5.330815E-1,4.6754113E-1,-5.8594655E-2,2.1E1,1.37917E1,2.0149961E-1,1.4E1,5.9366822E-2,-5.6113448E-2,-1.5727647E-2,5.031259E-2,3.9499837E-1,2.4688018E-2,7.659645E-2,5.1E1,5.663935E-2,4.2309296E-1,8.05E0,7.2E1,-6.1837807E-2,-2.6242444E-2,-2.6734371E-3,-2.1954868E-3,6.779924E-2,2.2528574E-2,-2.6097901E-2,1.7413666E-2,-1.9244356E-2],"split_indices":[80,0,5,5,5,0,2,2,0,81,77,0,2,5,81,2,0,0,0,0,106,0,0,6,0,79,5,6,0,0,0,0,0,0,0,0,0],"split_type":[0,0,0,0,0,0,0,0,0,0,0,0,0,0,0,0,0,0,0,0,0,0,0,0,0,0,0,0,0,0,0,0,0,0,0,0,0],"sum_hessian":[7.949942E1,3.7926075E1,4.157335E1,1.640915E1,2.1516926E1,2.5744233E0,3.8998924E1,1.4547012E1,1.8621372E0,1.8395658E1,3.1212664E0,1.9801484E0,3.7018776E1,1.0408696E1,4.138316E0,1.7109484E1,1.2861762E0,2.0558562E0,1.0654101E0,2.0271544E0,3.4991623E1,1.8077952E0,8.600901E0,2.3997288E0,1.7385877E0,2.5946982E0,1.4514785E1,3.2889477E1,2.1021442E0,1.1816506E0,1.2180781E0,1.0649419E0,1.5297564E0,7.7682548E0,6.74653E0,6.3309526E0,2.6558525E1],"tree_param":{"num_deleted":"0","num_feature":"208","num_nodes":"37","size_leaf_vector":"1"}},{"base_weights":[2.3074217E-2,4.0269825E-1,-1.9621383E-1,8.294316E-1,1.1483971E-1,-6.3787706E-2,-1.4250599E-1,9.2168266E-1,1.9375985E-2,2.1089384E-1,-4.7615338E-2,-1.8366994E-1,5.2710086E-1,7.465276E-2,1.0650521E-2,5.067069E-1,4.2444575E-3,-5.2957907E-2,-1.3227303E-1,5.863484E-2,2.7057686E-4,6.0282767E-2,2.2866379E-1,-3.9396408E-1,2.6329923E-1,1.5479183E-1,-2.2508715E-1,-1.1270255E-2,5.7767347E-2,2.8228983E-2,-7.8721896E-2,6.571071E-2,-3.0385535E-3,6.864743E-2,-1.1090563E-2,1.13664465E-2,-2.5870508E-2],"categories":[],"categories_nodes":[],"categories_segments":[],"categories_sizes":[],"default_left":[0,0,0,0,0,0,0,0,0,0,0,0,0,0,0,0,0,0,0,0,0,0,0,0,0,0,0,0,0,0,0,0,0,0,0,0,0],"id":26,"left_children":[1,3,5,7,9,-1,11,13,-1,15,-1,17,19,-1,-1,21,23,-1,25,-1,-1,-1,27,29,31,33,35,-1,-1,-1,-1,-1,-1,-1,-1,-1,-1],"loss_changes":[6.6803536E0,3.5115633E0,1.6687131E0,3.765545E-1,1.4801657E0,0E0,1.4274033E0,4.133644E-1,0E0,1.0567598E0,0E0,1.1476597E0,4.043944E-1,0E0,0E0,4.0394545E-1,1.2597789E0,0E0,1.1887783E0,0E0,0E0,0E0,1.1568487E0,2.8283741E0,1.4112567E0,2.7074351E0,1.548069E0,0E0,0E0,0E0,0E0,0E0,0E0,0E0,0E0,0E0,0E0],"parents":[2147483647,0,0,1,1,2,2,3,3,4,4,6,6,7,7,9,9,11,11,12,12,15,15,16,16,18,18,22,22,23,23,24,24,25,25,26,26],"right_children":[2,4,6,8,10,-1,12,14,-1,16,-1,18,20,-1,-1,22,24,-1,26,-1,-1,-1,28,30,32,34,36,-1,-1,-1,-1,-1,-1,-1,-1,-1,-1],"split_conditions":[1E0,3E0,7.1417E0,7.52079E-1,2.345E1,-6.3787706E-2,5.3155166E-1,6.175251E-1,1.9375985E-2,3.8299125E-1,-4.7615338E-2,1.9E1,2E0,7.465276E-2,1.0650521E-2,2.897533E-1,4.2309296E-1,-5.2957907E-2,2.8E1,5.863484E-2,2.7057686E-4,6.0282767E-2,5.330815E-1,2E0,1.4E1,7.8E0,7.2E1,-1.1270255E-2,5.7767347E-2,2.8228983E-2,-7.8721896E-2,6.571071E-2,-3.0385535E-3,6.864743E-2,-1.1090563E-2,1.13664465E-2,-2.5870508E-2],"split_indices":[1,0,5,81,5,0,77,36,0,79,0,2,3,0,0,81,79,0,2,0,0,0,81,7,2,5,6,0,0,0,0,0,0,0,0,0,0],"split_type":[0,0,0,0,0,0,0,0,0,0,0,0,0,0,0,0,0,0,0,0,0,0,0,0,0,0,0,0,0,0,0,0,0,0,0,0,0],"sum_hessian":[7.82982E1,2.8362177E1,4.9936028E1,1.0667239E1,1.7694939E1,2.6626701E0,4.727336E1,8.655194E0,2.012045E0,1.6322388E1,1.3725501E0,4.521922E1,2.0541384E0,7.6550646E0,1.0001295E0,6.1157875E0,1.02066E1,2.9092457E0,4.2309975E1,1.049901E0,1.0042373E0,2.042623E0,4.0731645E0,3.8175855E0,6.3890142E0,1.0174253E1,3.2135723E1,2.821496E0,1.2516686E0,1.9511184E0,1.8664672E0,1.4931846E0,4.8958297E0,2.3201935E0,7.8540597E0,7.6936903E0,2.4442032E1],"tree_param":{"num_deleted":"0","num_feature":"208","num_nodes":"37","size_leaf_vector":"1"}},{"base_weights":[2.3781506E-2,3.879839E-1,-1.8407024E-1,8.0952924E-1,1.1134164E-1,-6.2437367E-2,-1.3220592E-1,9.044716E-1,1.8521449E-2,2.0394397E-1,-4.663018E-2,-1.718735E-1,5.1109505E-1,7.3694944E-2,1.6798787E-2,4.017781E-2,5.599651E-1,-1.01414576E-1,-5.269435E-1,5.7077724E-2,2.6040056E-4,2.0973544E-1,-5.950354E-2,6.5800175E-2,2.1943162E-1,-1.7844738E-1,4.1644728E-1,9.044051E-3,-7.726892E-1,5.0239123E-2,2.2709423E-3,4.9270775E-2,-2.34684E-2,-1.611759E-2,3.2683354E-2,-1.4839274E-2,5.095897E-2,-1.8435013E-2,-6.671761E-2],"categories":[],"categories_nodes":[],"categories_segments":[],"categories_sizes":[],"default_left":[0,0,0,0,0,0,0,0,0,0,0,0,0,0,0,0,0,0,0,0,0,0,0,0,0,0,0,0,0,0,0,0,0,0,0,0,0,0,0],"id":27,"left_children":[1,3,5,7,9,-1,11,13,-1,15,-1,17,19,-1,-1,21,23,25,27,-1,-1,29,-1,-1,31,33,35,-1,37,-1,-1,-1,-1,-1,-1,-1,-1,-1,-1],"loss_changes":[5.9812136E0,3.255313E0,1.5842702E0,3.75247E-1,1.3813146E0,0E0,1.3085995E0,2.697463E-1,0E0,9.7803134E-1,0E0,1.0925894E0,3.8181442E-1,0E0,0E0,1.9799048E0,3.8345647E-1,1.6485397E0,1.2622294E0,0E0,0E0,9.2542285E-1,0E0,0E0,1.1149251E0,8.784925E-1,1.008483E0,0E0,1.17614746E-1,0E0,0E0,0E0,0E0,0E0,0E0,0E0,0E0,0E0,0E0],"parents":[2147483647,0,0,1,1,2,2,3,3,4,4,6,6,7,7,9,9,11,11,12,12,15,15,16,16,17,17,18,18,21,21,24,24,25,25,26,26,28,28],"right_children":[2,4,6,8,10,-1,12,14,-1,16,-1,18,20,-1,-1,22,24,26,28,-1,-1,30,-1,-1,32,34,36,-1,38,-1,-1,-1,-1,-1,-1,-1,-1,-1,-1],"split_conditions":[1E0,3E0,7.1417E0,7.52079E-1,2.345E1,-6.2437367E-2,5.3155166E-1,5.434008E-1,1.8521449E-2,1.55E1,-4.663018E-2,1E0,2E0,7.3694944E-2,1.6798787E-2,1.35E1,2E0,5.25542E1,1E0,5.7077724E-2,2.6040056E-4,3.2528684E-1,-5.950354E-2,6.5800175E-2,1.78E1,4.8734084E-1,5.5E1,9.044051E-3,2E0,5.0239123E-2,2.2709423E-3,4.9270775E-2,-2.34684E-2,-1.611759E-2,3.2683354E-2,-1.4839274E-2,5.095897E-2,-1.8435013E-2,-6.671761E-2],"split_indices":[1,0,5,81,5,0,77,203,0,5,0,4,3,0,0,5,7,5,7,0,0,79,0,0,5,34,6,0,0,0,0,0,0,0,0,0,0,0,0],"split_type":[0,0,0,0,0,0,0,0,0,0,0,0,0,0,0,0,0,0,0,0,0,0,0,0,0,0,0,0,0,0,0,0,0,0,0,0,0,0,0],"sum_hessian":[7.706854E1,2.7687414E1,4.938113E1,1.0207316E1,1.7480099E1,2.5424886E0,4.6838642E1,8.213455E0,1.9938617E0,1.6160501E1,1.319597E0,4.480846E1,2.0301785E0,6.9693336E0,1.2441211E0,1.1831144E1,4.329356E0,3.8461838E1,6.346623E0,1.0258565E0,1.004322E0,1.04532E1,1.3779444E0,1.4249624E0,2.904394E0,3.4051968E1,4.4098716E0,1.8861055E0,4.4605174E0,2.1662688E0,8.286931E0,1.4657189E0,1.438675E0,3.2757935E1,1.294031E0,1.3962793E0,3.0135922E0,1.3731958E0,3.0873218E0],"tree_param":{"num_deleted":"0","num_feature":"208","num_nodes":"39","size_leaf_vector":"1"}},{"base_weights":[2.3901448E-2,3.014463E-1,-2.2523159E-1,6.2467146E-1,5.1310714E-2,-3.7061465E-1,-4.008766E-2,7.163203E-1,-5.6829397E-3,1.8418646E-1,-6.179E-1,-6.674947E-2,-2.3558512E-1,-3.394294E-1,2.1561873E-1,8.914052E-1,1.995138E-1,1.05700485E-1,5.5253793E-2,-5.2964333E-2,-1.4471508E-2,5.40635E-1,-4.3376055E-1,2.1528554E-1,-5.82711E-1,-3.2072656E-2,3.8647297E-1,2.1106431E-2,7.322826E-2,-2.4795957E-1,5.3144783E-2,-4.3326657E-2,4.6689865E-1,6.7363E-2,-1.0139179E-2,-5.3598493E-1,3.5942957E-2,-1.626636E-2,3.8446102E-2,-7.518368E-1,-8.30638E-5,6.7563057E-1,-3.544144E-1,-2.5882786E-2,-2.7880194E-3,2.305063E-2,-4.421892E-2,1.2993077E-3,5.4117497E-2,1.920039E-2,-4.8927307E-2,-1.4474984E-2,-6.586284E-2,1.2107203E-2,6.925774E-2,1.129317E-2,-5.0215617E-2],"categories":[],"categories_nodes":[],"categories_segments":[],"categories_sizes":[],"default_left":[0,0,0,0,0,0,0,0,0,0,0,0,0,0,0,0,0,0,0,0,0,0,0,0,0,0,0,0,0,0,0,0,0,0,0,0,0,0,0,0,0,0,0,0,0,0,0,0,0,0,0,0,0,0,0,0,0],"id":28,"left_children":[1,3,5,7,9,11,13,15,-1,17,19,-1,21,23,25,27,29,31,-1,-1,-1,33,35,37,39,-1,41,-1,-1,43,-1,45,47,-1,-1,49,-1,-1,-1,51,-1,53,55,-1,-1,-1,-1,-1,-1,-1,-1,-1,-1,-1,-1,-1,-1],"loss_changes":[5.390809E0,2.9466176E0,1.0924828E0,1.0803185E0,2.0575216E0,1.3979416E0,1.5440897E0,1.1097131E0,0E0,7.464219E-1,8.216023E-3,0E0,3.2422957E0,1.3725905E0,1.3714687E0,2.611866E-1,1.2894657E0,9.789747E-1,0E0,0E0,0E0,1.1899E0,1.762392E0,5.6703293E-1,6.575959E-1,0E0,2.2097807E0,0E0,0E0,5.5621058E-2,0E0,2.7717938E0,5.928451E-1,0E0,0E0,1.547627E0,0E0,0E0,0E0,1.9652772E-1,0E0,7.3770547E-1,6.1606216E-1,0E0,0E0,0E0,0E0,0E0,0E0,0E0,0E0,0E0,0E0,0E0,0E0,0E0,0E0],"parents":[2147483647,0,0,1,1,2,2,3,3,4,4,5,5,6,6,7,7,9,9,10,10,12,12,13,13,14,14,15,15,16,16,17,17,21,21,22,22,23,23,24,24,26,26,29,29,31,31,32,32,35,35,39,39,41,41,42,42],"right_children":[2,4,6,8,10,12,14,16,-1,18,20,-1,22,24,26,28,30,32,-1,-1,-1,34,36,38,40,-1,42,-1,-1,44,-1,46,48,-1,-1,50,-1,-1,-1,52,-1,54,56,-1,-1,-1,-1,-1,-1,-1,-1,-1,-1,-1,-1,-1,-1],"split_conditions":[1.8340848E-1,3E0,5.6581444E-1,1.5155E2,2.345E1,7.75E0,8.1125E0,4.2E1,-5.6829397E-3,5.330815E-1,4.6754113E-1,-6.674947E-2,8.0292E0,1E0,2.6E1,1.37917E1,2.0149961E-1,1.55E1,5.5253793E-2,-5.2964333E-2,-1.4471508E-2,2.8153512E-1,7.3E1,7.2292E0,3.1E1,-3.2072656E-2,1E0,2.1106431E-2,7.322826E-2,5.1E1,5.3144783E-2,8.05E0,2.7E1,6.7363E-2,-1.0139179E-2,2.1114336E-1,3.5942957E-2,-1.626636E-2,3.8446102E-2,7.775E0,-8.30638E-5,2E0,2E0,-2.5882786E-2,-2.7880194E-3,2.305063E-2,-4.421892E-2,1.2993077E-3,5.4117497E-2,1.920039E-2,-4.8927307E-2,-1.4474984E-2,-6.586284E-2,1.2107203E-2,6.925774E-2,1.129317E-2,-5.0215617E-2],"split_indices":[80,0,80,5,5,5,5,2,0,81,77,0,5,7,2,5,81,5,0,0,0,80,6,5,2,0,3,0,0,6,0,5,2,0,0,80,0,0,0,5,0,0,7,0,0,0,0,0,0,0,0,0,0,0,0,0,0],"split_type":[0,0,0,0,0,0,0,0,0,0,0,0,0,0,0,0,0,0,0,0,0,0,0,0,0,0,0,0,0,0,0,0,0,0,0,0,0,0,0,0,0,0,0,0,0,0,0,0,0,0,0,0,0,0,0,0,0],"sum_hessian":[7.5981255E1,3.5841885E1,4.013937E1,1.4983227E1,2.0858658E1,2.1922838E1,1.821653E1,1.3229554E1,1.7536726E0,1.800786E1,2.8507967E0,3.3698673E0,1.855297E1,8.241376E0,9.975155E0,9.340368E0,3.8891864E0,1.6811169E1,1.1966931E0,1.8124E0,1.0383968E0,3.4218993E0,1.5131071E1,2.5475936E0,5.6937823E0,1.778039E0,8.197116E0,1.6692472E0,7.6711206E0,2.3428235E0,1.5463628E0,1.2523947E1,4.287221E0,2.022768E0,1.3991313E0,1.3978863E1,1.1522079E0,1.1486205E0,1.3989731E0,4.184318E0,1.5094643E0,5.959348E0,2.2377677E0,1.1675259E0,1.1752976E0,7.893878E0,4.630069E0,1.9365629E0,2.3506584E0,1.6372435E0,1.23416195E1,1.2375846E0,2.9467335E0,2.4750392E0,3.4843087E0,1.0604985E0,1.1772693E0],"tree_param":{"num_deleted":"0","num_feature":"208","num_nodes":"57","size_leaf_vector":"1"}},{"base_weights":[2.3338024E-2,3.5849935E-1,-1.6496378E-1,7.72023E-1,1.0123129E-1,-6.0228452E-2,-1.1606397E-1,8.977847E-1,2.635975E-1,1.8608126E-1,-4.458255E-2,-1.5334943E-1,3.6679495E-2,7.431981E-2,1.0424695E-2,-8.771105E-3,4.324435E-2,3.4628574E-2,5.163096E-1,3.719764E-1,-1.9446404E-1,1.9403474E-1,-5.6085803E-2,7.053152E-1,4.0411586E-3,6.3031524E-2,-1.3406391E-2,-1.1726075E-1,-6.052652E-1,4.7738887E-2,1.8118183E-3,1.095093E-2,7.096304E-2,-5.82155E-2,-5.4752463E-3,-8.383081E-3,-5.4182608E-2],"categories":[],"categories_nodes":[],"categories_segments":[],"categories_sizes":[],"default_left":[0,0,0,0,0,0,0,0,0,0,0,0,0,0,0,0,0,0,0,0,0,0,0,0,0,0,0,0,0,0,0,0,0,0,0,0,0],"id":29,"left_children":[1,3,5,7,9,-1,11,13,15,17,-1,19,-1,-1,-1,-1,-1,21,23,25,27,29,-1,31,-1,-1,-1,33,35,-1,-1,-1,-1,-1,-1,-1,-1],"loss_changes":[4.8482165E0,2.8593836E0,1.44415E0,4.3082523E-1,1.1833068E0,0E0,1.1339076E0,4.2439032E-1,4.826138E-1,8.3030254E-1,0E0,1.0436237E0,0E0,0E0,0E0,0E0,0E0,1.7289271E0,4.217633E-1,1.0808882E0,1.2725643E0,8.3727217E-1,0E0,3.5374486E-1,0E0,0E0,0E0,1.019489E0,2.9287124E-1,0E0,0E0,0E0,0E0,0E0,0E0,0E0,0E0],"parents":[2147483647,0,0,1,1,2,2,3,3,4,4,6,6,7,7,8,8,9,9,11,11,17,17,18,18,19,19,20,20,21,21,23,23,27,27,28,28],"right_children":[2,4,6,8,10,-1,12,14,16,18,-1,20,-1,-1,-1,-1,-1,22,24,26,28,30,-1,32,-1,-1,-1,34,36,-1,-1,-1,-1,-1,-1,-1,-1],"split_conditions":[1E0,3E0,7.1417E0,4.4201386E-1,2.345E1,-6.0228452E-2,5.3155166E-1,1.356333E2,2.9125E1,1.55E1,-4.458255E-2,2.2E1,3.6679495E-2,7.431981E-2,1.0424695E-2,-8.771105E-3,4.324435E-2,1.35E1,3.0079773E-1,1E0,1E0,3.2528684E-1,-5.6085803E-2,1.9E1,4.0411586E-3,6.3031524E-2,-1.3406391E-2,4.2E1,1E0,4.7738887E-2,1.8118183E-3,1.095093E-2,7.096304E-2,-5.82155E-2,-5.4752463E-3,-8.383081E-3,-5.4182608E-2],"split_indices":[1,0,5,79,5,0,77,5,5,5,0,6,0,0,0,0,0,5,81,7,4,79,0,2,0,0,0,6,7,0,0,0,0,0,0,0,0],"split_type":[0,0,0,0,0,0,0,0,0,0,0,0,0,0,0,0,0,0,0,0,0,0,0,0,0,0,0,0,0,0,0,0,0,0,0,0,0],"sum_hessian":[7.488282E1,2.6611946E1,4.8270874E1,9.439069E0,1.7172878E1,2.3381846E0,4.593269E1,6.9533157E0,2.4857528E0,1.5958892E1,1.2139856E0,4.3970005E1,1.9626848E0,5.920589E0,1.0327266E0,1.404493E0,1.08126E0,1.1698479E1,4.260413E0,2.60742E0,4.1362587E1,1.0343262E1,1.3552172E0,2.651454E0,1.6089594E0,1.1247245E0,1.4826956E0,3.5901024E1,5.4615602E0,2.1073236E0,8.235938E0,1.2816123E0,1.3698416E0,1.218622E0,3.4682404E1,1.4228405E0,4.0387197E0],"tree_param":{"num_deleted":"0","num_feature":"208","num_nodes":"37","size_leaf_vector":"1"}},{"base_weights":[2.2632854E-2,2.635696E-1,-2.170562E-1,5.913452E-1,1.9992193E-2,-5.1585174E-1,-8.731655E-2,6.765147E-1,-5.4230224E-3,1.4305216E-1,-6.2099266E-1,5.36877E-2,-7.5339884E-1,-1.9496322E-1,5.367258E-1,3.3433458E-1,6.786392E-2,2.1500798E-1,-3.7414156E-2,-1.4261593E-2,-5.350944E-2,-5.0250564E-2,4.9163744E-2,-7.1398495E-4,-6.6578984E-2,-4.4558755E-1,-2.6892992E-2,1.050288E-2,5.4598592E-2,5.083252E-1,-2.409665E-2,5.874722E-1,1.21520646E-1,1.6708978E-1,-7.1436757E-1,1.0528384E-1,-5.832205E-2,4.961719E-2,7.0027267E-3,-1.5498077E-3,6.3716866E-2,-3.2929074E-2,1.927596E-2,4.67437E-2,-2.2689762E-2,-1.1773231E-2,-6.83359E-2,-2.0303873E-2,1.7564755E-2],"categories":[],"categories_nodes":[],"categories_segments":[],"categories_sizes":[],"default_left":[0,0,0,0,0,0,0,0,0,0,0,0,0,0,0,0,0,0,0,0,0,0,0,0,0,0,0,0,0,0,0,0,0,0,0,0,0,0,0,0,0,0,0,0,0,0,0,0,0],"id":30,"left_children":[1,3,5,7,9,11,13,15,-1,17,19,21,23,25,27,29,-1,31,-1,-1,-1,-1,-1,-1,-1,33,35,-1,-1,37,-1,39,41,43,45,47,-1,-1,-1,-1,-1,-1,-1,-1,-1,-1,-1,-1,-1],"loss_changes":[4.3902683E0,3.0116658E0,1.4343127E0,9.5947933E-1,1.8841606E0,1.5759759E0,1.9729303E0,8.2054615E-1,0E0,1.026753E0,1.7832518E-2,2.3007004E0,7.9846096E-1,1.0180657E0,2.2870159E-1,1.0004802E0,0E0,5.7625556E-1,0E0,0E0,0E0,0E0,0E0,0E0,0E0,1.7252506E0,1.6399587E0,0E0,0E0,3.3164072E-1,0E0,5.7076836E-1,1.3378589E0,9.991736E-1,6.2121487E-1,7.532444E-1,0E0,0E0,0E0,0E0,0E0,0E0,0E0,0E0,0E0,0E0,0E0,0E0,0E0],"parents":[2147483647,0,0,1,1,2,2,3,3,4,4,5,5,6,6,7,7,9,9,10,10,11,11,12,12,13,13,14,14,15,15,17,17,25,25,26,26,29,29,31,31,32,32,33,33,34,34,35,35],"right_children":[2,4,6,8,10,12,14,16,-1,18,20,22,24,26,28,30,-1,32,-1,-1,-1,-1,-1,-1,-1,34,36,-1,-1,38,-1,40,42,44,46,48,-1,-1,-1,-1,-1,-1,-1,-1,-1,-1,-1,-1,-1],"split_conditions":[2.1114336E-1,3E0,2.6932794E-1,1.5155E2,2.345E1,8.0292E0,5.64958E1,2.9125E1,-5.4230224E-3,3.65E1,5E0,7.75E0,4.5E1,7.925E0,2.85E1,2.62875E1,6.786392E-2,1.4E1,-3.7414156E-2,-1.4261593E-2,-5.350944E-2,-5.0250564E-2,4.9163744E-2,-7.1398495E-4,-6.6578984E-2,2.8E1,3.00708E1,1.050288E-2,5.4598592E-2,1E0,-2.409665E-2,4.2309296E-1,1.9E1,7.25E0,1E0,2.6E1,-5.832205E-2,4.961719E-2,7.0027267E-3,-1.5498077E-3,6.3716866E-2,-3.2929074E-2,1.927596E-2,4.67437E-2,-2.2689762E-2,-1.1773231E-2,-6.83359E-2,-2.0303873E-2,1.7564755E-2],"split_indices":[80,0,80,5,5,5,5,5,0,2,2,5,6,5,2,5,0,2,0,0,0,0,0,0,0,2,5,0,0,1,0,79,2,5,7,2,0,0,0,0,0,0,0,0,0,0,0,0,0],"split_type":[0,0,0,0,0,0,0,0,0,0,0,0,0,0,0,0,0,0,0,0,0,0,0,0,0,0,0,0,0,0,0,0,0,0,0,0,0,0,0,0,0,0,0,0,0,0,0,0,0],"sum_hessian":[7.4031456E1,3.686995E1,3.7161507E1,1.5109607E1,2.1760342E1,1.0349695E1,2.681181E1,1.3373893E1,1.735714E0,1.8907244E1,2.8530977E0,3.2739978E0,7.075698E0,2.3453657E1,3.3581517E0,6.3388643E0,7.0350285E0,1.7599451E1,1.3077942E0,1.0442047E0,1.808893E0,1.4350609E0,1.8389369E0,1.2460204E0,5.8296776E0,8.751832E0,1.4701825E1,1.6558726E0,1.7022791E0,5.186997E0,1.1518673E0,2.470945E0,1.5128506E1,2.7840347E0,5.9677973E0,1.3231926E1,1.4698992E0,3.3540833E0,1.8329136E0,1.0216032E0,1.4493417E0,2.5087109E0,1.2619795E1,1.2463106E0,1.537724E0,2.0261822E0,3.9416149E0,3.0974722E0,1.0134454E1],"tree_param":{"num_deleted":"0","num_feature":"208","num_nodes":"49","size_leaf_vector":"1"}},{"base_weights":[1.9928722E-2,3.2927072E-1,-1.5169449E-1,7.356983E-1,8.96104E-2,-5.8626134E-2,-1.0477551E-1,8.521298E-1,1.0774796E-2,1.6725746E-1,-4.2691503E-2,-1.3994147E-1,3.4691233E-2,7.042781E-2,1.0263941E-2,4.259802E-1,-9.867218E-3,-4.889641E-2,-9.273191E-2,5.57391E-1,-1.8930889E-3,-4.533407E-1,2.0384985E-1,4.7881785E-1,-1.3772245E-1,5.984105E-2,1.3931923E-2,1.2581311E-2,-6.8557836E-2,3.4571078E-2,-1.5537587E-2,9.437759E-3,4.739597E-2,-6.3457107E-3,-5.843213E-2],"categories":[],"categories_nodes":[],"categories_segments":[],"categories_sizes":[],"default_left":[0,0,0,0,0,0,0,0,0,0,0,0,0,0,0,0,0,0,0,0,0,0,0,0,0,0,0,0,0,0,0,0,0,0,0],"id":31,"left_children":[1,3,5,7,9,-1,11,13,-1,15,-1,17,-1,-1,-1,19,21,-1,23,25,-1,27,29,31,33,-1,-1,-1,-1,-1,-1,-1,-1,-1,-1],"loss_changes":[3.9836304E0,2.5400841E0,1.3469418E0,5.521183E-1,1.014426E0,0E0,9.853255E-1,3.6721897E-1,0E0,7.762505E-1,0E0,1.0083795E0,0E0,0E0,0E0,4.213829E-1,1.1328903E0,0E0,1.1369772E0,3.3111763E-1,0E0,1.2637712E0,9.512055E-1,9.683561E-2,1.2758565E0,0E0,0E0,0E0,0E0,0E0,0E0,0E0,0E0,0E0,0E0],"parents":[2147483647,0,0,1,1,2,2,3,3,4,4,6,6,7,7,9,9,11,11,15,15,16,16,18,18,19,19,21,21,22,22,23,23,24,24],"right_children":[2,4,6,8,10,-1,12,14,-1,16,-1,18,-1,-1,-1,20,22,-1,24,26,-1,28,30,32,34,-1,-1,-1,-1,-1,-1,-1,-1,-1,-1],"split_conditions":[1E0,3E0,7.1417E0,7.52079E-1,2.345E1,-5.8626134E-2,5.3155166E-1,6.049367E-1,1.0774796E-2,3.8299125E-1,-4.2691503E-2,1.9E1,3.4691233E-2,7.042781E-2,1.0263941E-2,1.78E1,4.118329E-1,-4.889641E-2,2.1E1,3.5173976E-1,-1.8930889E-3,2E0,2.8E1,3.032202E-1,4.6818408E-1,5.984105E-2,1.3931923E-2,1.2581311E-2,-6.8557836E-2,3.4571078E-2,-1.5537587E-2,9.437759E-3,4.739597E-2,-6.3457107E-3,-5.843213E-2],"split_indices":[1,0,5,81,5,0,77,36,0,79,0,2,0,0,0,5,79,0,2,81,0,7,2,80,106,0,0,0,0,0,0,0,0,0,0],"split_type":[0,0,0,0,0,0,0,0,0,0,0,0,0,0,0,0,0,0,0,0,0,0,0,0,0,0,0,0,0,0,0,0,0,0,0],"sum_hessian":[7.309422E1,2.57545E1,4.733972E1,8.785637E0,1.6968863E1,2.1958268E0,4.5143894E1,6.9746523E0,1.8109844E0,1.5847295E1,1.1215678E0,4.3218315E1,1.9255793E0,5.940089E0,1.0345633E0,5.869236E0,9.978059E0,2.5671024E0,4.0651215E1,4.363225E0,1.5060109E0,2.8802266E0,7.0978317E0,2.2627764E0,3.838844E1,1.9526601E0,2.410565E0,1.4975357E0,1.382691E0,4.2917795E0,2.8060524E0,1.2358208E0,1.0269556E0,3.6497913E1,1.890525E0],"tree_param":{"num_deleted":"0","num_feature":"208","num_nodes":"35","size_leaf_vector":"1"}},{"base_weights":[1.8736493E-2,3.1390417E-1,-1.4318416E-1,7.170372E-1,8.306647E-2,-5.7414558E-2,-9.804052E-2,8.358715E-1,1.02931755E-2,1.5771869E-1,-4.1826878E-2,-5.7130713E-2,-4.5842223E-2,6.940669E-2,9.906408E-3,1.4991575E-2,4.7409183E-1,3.0664656E-1,-1.4868784E-1,3.2163826E-1,-4.039702E-1,6.0574945E-2,1.4899546E-1,7.429642E-2,-1.7524559E-2,-4.3739885E-1,-3.142727E-2,1.1204417E-2,4.551644E-2,-5.649935E-2,1.8284876E-2,4.280924E-2,-2.4919944E-2,-3.2262444E-2,2.8659498E-2,1.7578593E-2,-5.3144325E-2,-1.0077953E-2,3.895693E-2],"categories":[],"categories_nodes":[],"categories_segments":[],"categories_sizes":[],"default_left":[0,0,0,0,0,0,0,0,0,0,0,0,0,0,0,0,0,0,0,0,0,0,0,0,0,0,0,0,0,0,0,0,0,0,0,0,0,0,0],"id":32,"left_children":[1,3,5,7,9,-1,11,13,-1,15,-1,17,-1,-1,-1,19,21,23,25,27,29,-1,31,-1,33,35,37,-1,-1,-1,-1,-1,-1,-1,-1,-1,-1,-1,-1],"loss_changes":[3.5460055E0,2.3844144E0,1.2732373E0,5.3511906E-1,9.4089633E-1,0E0,9.285546E-1,3.5870123E-1,0E0,7.492429E-1,0E0,1.4979765E0,0E0,0E0,0E0,1.7455338E0,4.408232E-1,2.033904E0,1.1884869E0,2.9344058E-1,1.4866328E0,0E0,9.7053885E-1,0E0,1.3439951E0,2.0206525E0,1.5630288E0,0E0,0E0,0E0,0E0,0E0,0E0,0E0,0E0,0E0,0E0,0E0,0E0],"parents":[2147483647,0,0,1,1,2,2,3,3,4,4,6,6,7,7,9,9,11,11,15,15,16,16,17,17,18,18,19,19,20,20,22,22,24,24,25,25,26,26],"right_children":[2,4,6,8,10,-1,12,14,-1,16,-1,18,-1,-1,-1,20,22,24,26,28,30,-1,32,-1,34,36,38,-1,-1,-1,-1,-1,-1,-1,-1,-1,-1,-1,-1],"split_conditions":[1E0,3E0,7.1417E0,7.52079E-1,2.345E1,-5.7414558E-2,3E0,6.049367E-1,1.02931755E-2,1.55E1,-4.1826878E-2,2.1114336E-1,-4.5842223E-2,6.940669E-2,9.906408E-3,8.05E0,2E0,2.2E1,2.6932794E-1,6.5907294E-1,1E0,6.0574945E-2,1.78E1,7.429642E-2,1.5817961E-1,8.0292E0,5.64958E1,1.1204417E-2,4.551644E-2,-5.649935E-2,1.8284876E-2,4.280924E-2,-2.4919944E-2,-3.2262444E-2,2.8659498E-2,1.7578593E-2,-5.3144325E-2,-1.0077953E-2,3.895693E-2],"split_indices":[1,0,5,81,5,0,3,36,0,5,0,80,0,0,0,5,7,2,80,79,4,0,5,0,80,5,5,0,0,0,0,0,0,0,0,0,0,0,0],"split_type":[0,0,0,0,0,0,0,0,0,0,0,0,0,0,0,0,0,0,0,0,0,0,0,0,0,0,0,0,0,0,0,0,0,0,0,0,0,0,0],"sum_hessian":[7.225352E1,2.5262848E1,4.6990665E1,8.431647E0,1.68312E1,2.0988364E0,4.489183E1,6.6309133E0,1.8007344E0,1.5750076E1,1.0811235E0,4.2606686E1,2.285145E0,5.6030517E0,1.0278616E0,1.1575394E1,4.174683E0,8.094834E0,3.4511852E1,6.8176866E0,4.7577066E0,1.327834E0,2.8468492E0,1.9418504E0,6.152984E0,9.179808E0,2.5332043E1,5.2008777E0,1.6168088E0,2.9849246E0,1.7727823E0,1.4180188E0,1.4288305E0,2.9897265E0,3.1632576E0,2.6790848E0,6.5007234E0,2.198034E1,3.351703E0],"tree_param":{"num_deleted":"0","num_feature":"208","num_nodes":"39","size_leaf_vector":"1"}},{"base_weights":[1.9026255E-2,3.0216578E-1,-1.3483937E-1,6.986507E-1,8.071314E-2,-5.6232877E-2,-9.124361E-2,8.396173E-1,1.304058E-2,-5.006452E-3,5.305601E-2,3.8574395E-1,-1.2960757E-1,7.051791E-2,1.1046805E-2,2.783123E-1,-2.1857178E-1,5.940357E-2,-7.129886E-3,-5.424223E-2,-8.1696026E-2,9.823574E-2,4.374416E-2,-6.652582E-2,5.3803537E-2,5.752368E-2,-1.252523E-1,3.068215E-2,-1.3703726E-2,1.6610881E-2,-4.0983453E-2,7.174964E-3,-1.811041E-2],"categories":[],"categories_nodes":[],"categories_segments":[],"categories_sizes":[],"default_left":[0,0,0,0,0,0,0,0,0,0,0,0,0,0,0,0,0,0,0,0,0,0,0,0,0,0,0,0,0,0,0,0,0],"id":33,"left_children":[1,3,5,7,9,-1,11,13,-1,15,-1,17,19,-1,-1,21,23,-1,-1,-1,25,